layers 5
layer 0 Bidirectional
inner_class : LSTM
merge_mode : sum
input_dim : 6
output_dim : 64
unroll : False
return_sequences : False
weight of input to hidden :
0.347799 0.106342 0.148856 -0.0840886 0.289198 0.219826 -0.197933 -0.290074 -0.010841 0.113005 -0.0157924 0.226425 -0.0333742 -0.159968 -0.138307 0.0649592 0.361965 -0.169035 0.173534 0.327864 -0.193334 0.0601285 -0.190853 0.115829 -0.071219 -0.00613981 -0.252678 -0.10837 -0.126452 -0.0264593 -0.0960404 -0.141609 0.0741916 0.233884 -0.20168 0.180154 -0.0979929 -0.393303 0.168985 0.248141 0.015188 -0.193774 -0.246692 0.215013 -0.00958218 -0.317457 -0.144194 0.0679819 0.191999 0.00107591 -0.00350024 0.31857 -0.142431 0.158899 -0.241697 0.244478 0.151753 -0.0948894 -0.00295424 0.00327208 0.234779 -0.0349914 -0.0701462 0.293166 -0.188163 -0.0484925 0.0844717 0.261419 -0.106437 -0.152019 0.257258 -0.23076 -0.185519 -0.10457 -0.0567793 0.0625193 0.0268504 -0.00906035 -0.140987 0.11245 0.0584198 -0.150982 -0.269683 -0.0828028 0.166356 0.298797 0.175387 0.119684 -0.134481 0.00632269 -0.13773 -0.0309846 0.126512 -0.185449 -0.0513 0.106351 0.249587 -0.015562 -0.30401 -0.0169447 0.0251823 0.159658 -0.02092 -0.134885 -0.196257 0.268827 -0.19339 -0.124253 -0.155596 -0.180177 0.0674998 -0.0162726 -0.186507 0.243945 -0.0813507 -0.0372089 0.199256 -0.150805 0.233959 -0.0142892 0.129466 -0.0919698 -0.174063 -0.0564233 0.0922453 0.192302 -0.0736968 0.223484 0.1686 0.0857924 -0.0882413 0.0192165 -0.389095 -0.332696 0.146868 0.0922065 -0.0915872 -0.0823133 0.114285 -0.21567 0.0932709 -0.150583 -0.203134 -0.352565 0.0712612 -0.225908 0.10742 0.102249 0.015996 -0.0706814 0.13531 0.164578 0.0536863 -0.1935 -0.0888488 0.481889 -0.273234 0.231362 0.018704 0.274929 0.110215 -0.125758 -0.195285 0.13914 0.0125763 0.0753227 -0.349188 0.162482 0.197366 0.195463 -0.140818 -0.129101 -0.0323844 -0.127739 0.418661 0.18 0.114996 0.282931 0.0719336 0.255834 -0.207946 -0.22766 -0.374663 -0.180068 -0.0846227 -0.243018 0.00853957 0.201779 -0.159708 -0.0295735 0.236414 -0.0352323 -0.108792 0.0671967 -0.00580107 -0.24641 0.446195 0.0371417 0.160491 -0.145022 -0.08469 0.270652 0.219483 0.200152 -0.112002 0.25882 0.19743 0.320629 0.0620679 0.0769979 -0.0398537 0.271213 -0.176588 0.00872184 -0.275169 0.0392192 -0.163361 0.016409 0.292221 0.160421 0.156289 0.143528 0.0232283 -0.285291 -0.0574475 0.212384 0.177972 0.0839085 -0.173078 0.0194406 0.112697 -0.242007 -0.126221 -0.14224 0.474812 -0.287149 0.229365 0.13739 0.239203 -0.0644545 0.277777 -0.0501128 0.139539 0.0238709 0.138607 0.254582 0.208017 -0.219937 0.177285 0.0247034 -0.0808042 -0.0817082 0.300446 0.224337 0.243681 0.148739 0.247436 0.131408 -0.111806 -0.0726496 -0.230078 -0.0201635 0.317332 -0.107839 -0.252893 0.227133 -0.246081 0.246693 -0.150549 0.286533 0.228316 0.241458 0.0838424 -0.189928 -0.0307248 0.164157 0.0383427 0.0829484 -0.167907 -0.228419 -0.275986 -0.0024354 0.025078 -0.209581 0.105554 0.372615 0.166588 -0.229922 0.0611985 -0.214067 0.166401 -0.265372 0.270167 -0.18546 0.114414 0.168405 0.131294 -0.0705265 0.147158 0.0473453 0.0504385 -0.238762 0.189274 0.195801 -0.206843 -0.0193616 0.0839046 0.00336397 -0.157433 0.131572 -0.157108 0.301247 0.0310064 -0.183374 -0.0264019 0.0598164 0.147095 -0.0167936 0.00628662 -0.0613315 0.125041 -0.124646 -0.241457 0.228524 0.219318 -0.294592 0.171858 -0.227592 0.184329 0.245454 -0.173429 -0.201182 0.166595 0.267637 0.168117 0.309049 -0.211364 0.135735 0.27505 -0.0365916 -0.127778 -0.318173 -0.0157063 0.146249 -0.00232262 0.177301 0.0295079 -0.0939255 0.317876 -0.0593213 -0.0748903 -0.0742668 -0.0950479 0.15138 -0.270895 0.216821 -0.23115 0.17868 -0.303848 0.143219 -0.200114 0.132364 -0.104569 -0.100399 0.178402 0.209135 -0.0654164 0.148644 0.220387 -0.0410329 0.286901 -0.141849 0.230329 -0.311013 -0.287528 -0.267724 0.262347 -0.120826 0.186651 -0.238907 0.214698 -0.241955 -0.0422428 0.417449 0.2529 0.106451 -0.00522808 -0.0233307 0.173611 0.259674 0.161008 -0.263604 -0.0948345 -0.236574 -0.143626 -0.0557344 -0.164393 0.108127 -0.156333 0.185074 0.00769054 -0.218763 -0.000791037 0.204831 -0.205257 -0.368863 -0.0451263 0.167051 -0.0979625 0.063224 -0.126859 0.0313575 -0.23773 -0.257276 0.315962 -0.00416391 0.118593 0.110239 0.257571 -0.159331 0.269388 -0.0279871 0.00731272 0.288144 0.0017441 -0.246342 0.143831 0.0557272 -0.126503 0.00658283 0.178302 -0.0220956 0.183156 0.0175543 -0.31458 0.0331576 0.114058 -0.124779 0.0797051 -0.00125118 0.00353958 0.00828169 0.102298 0.0661022 0.16495 -0.00542707 -0.0250039 -0.239727 -0.0428943 0.0811114 0.213478 0.100864 -0.212261 0.0142995 0.0251366 0.0889859 0.217755 0.274642 0.223035 -0.126001 -0.099775 0.170547 -0.0872173 -0.256639 0.127144 -0.091892 -0.320201 -0.198177 0.0065851 0.0222071 0.120206 0.313845 0.169557 0.210857 -0.00630708 0.0730232 -0.29396 0.0369961 0.00971835 0.224033 0.125535 -0.190939 0.0334213 0.0681543 -0.183509 -0.209331 -0.0437825 0.0278954 0.14715 -0.21052 -0.200119 0.167065 0.12933 -0.0528181 0.0724533 0.263792 0.135086 -0.273437 0.112697 -0.0774446 0.0323532 0.0187073 0.232961 0.129371 -0.0917383 -0.0315917 -0.281789 -0.150147 0.0800405 -0.158112 0.00956026 0.180737 -0.224927 -0.0063237 0.287208 -0.129214 0.0316443 0.05018 -0.268776 -0.187926 0.111719 -0.41613 0.270646 0.283333 -0.378401 -0.192854 -0.0299173 -0.205313 -0.314318 0.208318 -0.243586 0.326157 0.126888 0.239136 0.249621 0.123557 -0.232397 0.25936 0.268533 -0.0808962 0.0359555 0.30842 0.27115 -0.342755 -0.239831 -0.253559 -0.170073 -0.0308774 -0.316742 0.197132 0.0653802 -0.0139984 0.22861 0.0159229 0.104828 -0.189653 0.376727 -0.337127 0.389725 0.33581 -0.100335 0.207494 -0.321264 -0.25462 0.148453 0.259335 0.130747 0.0651781 0.0325119 0.0821085 0.122441 0.270985 0.0707259 0.220897 -0.250187 -0.132183 -0.083973 -0.0498014 0.0615905 -0.223835 -0.103199 0.238897 -0.24266 -0.188171 -0.107739 -0.0213271 -0.0361361 0.240527 -0.0508106 -0.232104 -0.160356 -0.230808 -0.129703 0.0267432 0.259735 -0.115593 -0.289848 -0.186317 -0.174993 0.173903 0.0670459 -0.0190399 0.0126427 0.270378 0.0230431 -0.201724 0.189013 -0.0852494 -2.85773e-05 -0.303613 -0.0837421 0.271747 0.169504 0.172578 0.0987456 0.143177 0.0649487 0.288082 0.0494417 0.287951 0.0847842 -0.209786 -0.165857 -0.171287 0.0456704 0.189353 -0.0299746 0.231497 -0.142136 -0.0168714 0.188565 0.273946 0.26304 -0.00165805 0.042969 -0.215565 0.141339 -0.234676 0.126231 0.337102 0.20017 0.29242 -0.200372 0.0920685 0.240675 0.205965 0.145688 -0.0637397 -0.208722 0.249257 -0.16988 -0.19619 0.0117726 0.174064 0.233341 -0.212493 -0.293774 -0.103981 0.222143 -0.206674 -0.0553514 0.0428238 0.066488 0.135161 -0.21068 0.13392 -0.124415 -0.183885 0.0819339 0.0670665 -0.245629 0.243561 0.133783 -0.194758 0.0699677 -0.227761 -0.17051 -0.0588865 0.0245613 -0.123768 0.0773852 -0.183397 0.262225 -0.231572 -0.222966 0.149729 -0.0326687 0.299109 -0.113511 0.163645 -0.0686151 0.132894 0.0244407 -0.12556 0.146145 0.371848 0.129178 0.115936 0.00660252 0.178661 -0.137523 0.222967 -0.142253 0.145504 0.195412 0.0453858 0.283398 -0.0527307 0.232231 -0.051425 0.192687 0.157515 0.244741 0.163025 0.310445 -0.129506 0.0262699 -0.1897 0.0238074 -0.193751 -0.0184474 -0.0611222 -0.0621454 0.239083 0.188688 -0.0642023 -0.236224 -0.13949 -0.0995867 -0.290028 -0.250179 0.00221127 -0.10895 0.275302 0.0846147 -0.028526 -0.219896 -0.148254 -0.0298546 -0.236269 -0.244339 -0.133497 0.267487 -0.0291864 -0.209423 0.0484313 0.251032 -0.241828 0.119037 -0.269313 -0.111944 0.355869 -0.00550153 -0.137364 -0.15936 0.165789 0.282415 0.140051 -0.0298385 -0.21287 -0.191407 -0.078349 0.0571896 -0.0529513 -0.213468 -0.206754 0.0170807 -0.175837 0.0779159 0.035536 0.187912 -0.268668 0.334523 -0.232935 0.146417 0.0300494 0.163736 -0.21886 -0.270808 -0.189159 0.213827 -0.319293 0.20105 -0.0267923 -0.0877259 0.188139 0.126515 -0.19908 -0.0525315 0.011509 0.146452 -0.357524 0.202241 0.112198 0.222845 0.0637551 -0.012991 0.0144769 -0.32771 -0.0328739 -0.296918 0.171648 -0.255632 0.116808 -0.10497 0.124118 -0.340058 -0.28169 0.0238292 -0.157314 0.0501933 -0.142264 0.102146 -0.258323 -0.00560984 -0.241756 -0.119371 0.123833 -0.243993 -0.0518689 -0.291436 -0.255565 -0.268629 0.0896032 -0.0753189 -0.346572 -0.238199 0.096431 -0.262538 0.0994318 -0.28127 -0.235004 -0.171861 -0.243319 -0.219648 -0.195154 -0.0830016 0.214546 0.399164 -0.0486448 -0.112323 0.240917 -0.000432106 0.265251 0.00767712 0.248731 0.00964149 0.015504 0.0348279 -0.210481 0.337358 0.0887346 -0.176383 0.193844 0.175732 0.0103558 0.20669 0.0571213 0.133059 -0.229083 0.0386224 -0.0281179 0.165315 -0.228893 0.0271937 0.126858 -0.0901828 -0.0602014 -0.0555731 0.137228 -0.0976431 0.259294 0.0187127 0.197461 0.157848 -0.0588628 0.176167 -0.112281 0.0267223 -0.0660556 0.00880213 0.00444888 -0.304545 0.168648 -0.0428864 -0.136455 0.204433 -0.0403689 0.30249 -0.100321 -0.184391 0.0750404 0.222184 -0.144758 0.0210396 -0.163889 -0.243286 -0.0760536 -0.0169734 0.136651 -0.381186 -0.186848 -0.148529 0.266597 -0.0203938 -0.109385 0.262828 -0.00718301 -0.0647604 0.109705 -0.237727 -0.229278 0.184716 0.0202246 -0.312592 0.142591 -0.302044 -0.342133 -0.136734 -0.345316 -0.000392647 -0.141936 0.174171 -0.231975 -0.285637 -0.0380785 -0.133418 -0.216245 0.0441264 -0.0161962 0.210566 -0.0458034 0.322077 -0.154921 -0.0431516 -0.0966197 -0.241173 -0.325594 -0.235213 0.304349 -0.169343 -0.00717949 -0.260895 0.245 -0.248948 0.201192 -0.0104975 0.060221 0.162849 -0.310215 0.0338612 -0.354665 0.151276 -0.0876766 -0.0245162 -0.162616 0.00474093 0.0502113 0.322595 0.257861 -0.0664191 -0.289696 0.0442072 -0.143005 -0.255571 -0.103934 -0.0223073 0.271544 -0.0447829 0.0749243 0.214192 0.197872 0.0328014 0.181342 0.275046 0.0764191 0.132692 -0.0577882 0.0187265 -0.266187 0.208436 -0.113707 -0.0797983 0.0877661 -0.384899 0.2944 0.108919 0.251344 -0.014268 -0.0176167 -0.243295 0.208096 0.385783 0.0893905 -0.0415001 0.149443 0.24099 0.167199 -0.0925034 0.203932 -0.0932874 0.192658 0.148992 0.0312834 0.0520513 0.100834 0.0244704 0.0133007 0.0388289 0.0646434 -0.172406 0.0849091 -0.148455 0.0389846 -0.0251714 -0.043062 0.266294 0.226675 0.0596823 0.0827921 0.0900205 -0.12218 0.139232 -0.219155 0.18798 0.33853 -0.150603 0.137269 0.0192467 -0.266679 -0.213104 -0.300343 -0.143042 -0.00644302 0.205389 0.00117744 -0.0877418 0.055388 -0.0930381 0.192365 -0.2205 -0.0607401 0.113774 -0.0558992 0.218321 0.24054 -0.225264 -0.309168 0.0897763 0.144161 0.200738 -0.0206586 0.0329058 -0.0193738 -0.169809 -0.0661678 -0.100703 0.200541 0.101559 0.0380898 -0.304718 0.288866 0.155312 0.195526 0.113714 0.0282813 -0.236566 0.0808492 0.116431 -0.136836 0.180461 0.193214 -0.283694 0.194977 0.0305545 -0.00403366 0.069081 -0.300149 0.00150163 -0.341445 -0.130641 0.150458 0.265363 0.124472 0.174533 -0.178784 -0.215777 -0.123588 -0.210904 0.0453255 -0.220152 0.106183 -0.182995 0.159071 0.21562 -0.208364 0.240762 0.298122 0.0402338 -0.132724 -0.279151 0.0156954 -0.168681 -0.0739913 0.0681557 0.0243072 -0.154858 0.221637 -0.00251975 -0.125315 0.267544 -0.175952 0.294922 -0.28423 0.0605889 -0.245839 0.0818033 -0.041083 -0.187069 -0.138161 -0.0660283 -0.258024 -0.302316 0.219576 0.111936 0.19665 -0.318134 0.0410073 -0.287535 -0.152645 -0.0468764 0.282624 0.232576 -0.163732 -0.216695 -0.0187672 -0.268632 -0.152347 0.248086 -0.181711 -0.101051 -0.249065 0.0223938 -0.065649 0.0204667 0.161659 0.341347 -0.144433 0.292883 0.239444 -0.024187 0.178089 -0.0460833 -0.0812728 0.343355 -0.24922 0.0387215 -0.206074 -0.0330708 0.213356 -0.015334 0.0067536 -0.100273 0.250596 0.314378 0.163508 -0.308971 0.157718 0.28663 -0.0760062 -0.128595 0.165832 0.284214 0.134953 -0.0255315 0.301403 0.237232 -0.331575 0.359941 0.292625 -0.00329945 0.0251964 0.267329 -0.263862 0.127905 -0.0277807 0.050423 -0.106227 -0.20575 -0.401079 -0.143239 0.26893 0.0543742 0.105108 -0.0883714 0.119793 -0.143961 -0.239409 0.304728 0.25533 0.176744 -0.310587 -0.160753 -0.10313 -0.0716567 0.182027 0.223315 -0.179065 -0.0899602 0.16247 0.149694 -0.123362 0.147555 -0.0120681 0.147546 0.225841 -0.265932 0.00763008 0.171608 0.135602 0.374454 -0.119385 0.134429 0.0707113 -0.0523103 -0.1231 0.0956381 0.134715 -0.0566549 -0.0818524 0.0322656 -0.0018795 0.237391 -0.00853679 0.0703454 0.157065 -0.0728854 0.351212 -0.0103802 0.0599469 -0.0332379 -0.17294 -0.125544 -0.19504 0.0489278 0.0328006 0.241321 -0.239383 0.0386965 0.0470273 -0.145574 -0.249106 0.260825 0.0154979 -0.106511 0.218196 0.178045 -0.277946 0.229102 -0.145539 -0.193661 0.257132 0.331997 0.0314974 0.264285 0.125563 0.174638 0.193997 0.0897037 0.300772 -0.247427 -0.146758 0.134882 -0.191922 -0.256169 -0.0206233 0.114324 0.168752 0.00868274 -0.250063 -0.276294 -0.222601 0.0483772 0.397098 -0.298864 -0.146713 -0.174523 -0.275601 -0.0131464 0.0791565 0.114799 0.189571 -0.0165328 -0.0962928 -0.406609 0.157081 0.121274 0.36996 -0.13694 0.0897249 0.261615 0.141574 -0.141719 -0.018588 0.390253 -0.246379 0.0414034 0.374423 0.17661 0.224131 -0.219037 0.0773354 -0.210535 -0.0159761 0.0318817 0.105435 -0.00468428 0.140555 0.198729 0.192318 0.272467 -0.00767318 -0.199005 -0.142442 0.305141 0.264311 0.137103 -0.199067 0.0534528 0.344663 -0.168793 0.20441 -0.147776 -0.0731551 0.00729171 0.0669309 -0.146412 0.201292 -0.236455 -0.118096 -0.362881 0.0585595 -0.0871942 -0.206242 -0.0266406 0.104289 -0.284654 0.263199 -0.12789 0.121318 0.0889059 0.14877 0.0997021 0.101414 -0.0119635 -0.249584 -0.24036 0.264583 -0.0909263 -0.203749 0.114499 0.0723919 -0.123224 0.140944 0.10853 0.0672475 0.0278527 -0.12019 0.0799746 0.254925 0.307668 0.163881 -0.149469 -0.112068 0.132743 -0.0211585 0.299566 0.27827 0.0885214 -0.169104 0.177817 -0.198938 0.265195 -0.201304 0.0809102 -0.0139019 0.331852 -0.260383 -0.0777139 -0.165158 0.0581521 -0.310611 0.218831 -0.27443 -0.341889 -0.200708 0.125755 0.0901095 0.19551 -0.132945 -0.150449 0.162256 -0.313949 -0.0108823 0.162025 0.237532 -0.134513 -0.0414969 -0.0700246 -0.1247 -0.250128 0.165545 -0.0187178 -0.0847329 0.067891 0.186861 0.23659 0.188351 0.177293 -0.116849 -0.175783 -0.0263812 -0.212983 -0.235586 -0.0996948 0.158984 0.0533584 0.281608 -0.101964 0.149603 0.202556 -0.1733 0.244835 0.0661962 -0.0609191 -0.152191 0.241639 0.105188 -0.225425 0.36728 -0.344563 -0.100669 -0.307853 0.106474 -0.220267 0.109057 0.0229046 -0.253015 0.139148 0.14589 -0.315236 -0.213495 0.03457 -0.102958 0.157076 0.216134 0.234627 0.0962067 -0.0506087 0.0572906 0.235784 -0.384122 -0.101509 0.166721 0.147616 0.155524 -0.119794 -0.0168126 -0.178584 0.199569 -0.0912458 -0.0472072 -0.120378 -0.0162225 -0.220326 -0.0435611 -0.0997359 -0.138784 -0.0490789 -0.0747053 -0.122359 -0.00662224 -0.183792 0.0106594 -0.0950943 -0.0375025 0.0884001 -0.169937 0.184479 -0.0710613 -0.187802 0.129372 -0.204577 0.338855 -0.291172 -0.199958 -0.0566227 -0.19358 0.00425246 0.118323 0.27758 -0.122854 0.148048 -0.256456 -0.248559 0.14199 0.0395298 -0.157339 -0.309058 0.0432322 -0.419894 0.197488 0.113077 -0.00787981 0.0774968 0.280502 0.0972987 0.216512 -0.243106 0.054128 0.12337 0.305823 -0.00312834 0.0476736 0.26465 -0.23096 0.0159549 0.271663 -0.224731 0.203256 -0.166556 -0.0145799 0.0715565 0.0222431 -0.0306489 0.0491327 
weight of hidden to hidden :
0.0354328 -0.0474258 -0.0578876 0.135755 0.278108 -0.0305205 0.078037 -0.041512 -0.138376 -0.311389 0.0932335 -0.0443246 -0.0248305 0.081748 -0.00161246 -0.0268953 -0.0645463 -0.0956529 0.0128783 0.210753 0.212138 0.103944 -0.0580665 -0.065193 -0.155906 0.281985 -0.26734 -0.0216389 0.262424 0.136421 -0.108605 -0.28789 -0.0914315 -0.0226677 -0.123536 0.191226 -0.0632825 0.152129 0.108222 -0.0529983 -0.0275635 -0.0763863 -0.23387 0.0981631 -0.0319162 -0.0915315 -0.115757 0.1243 0.0845916 0.126747 -0.0700663 -0.10222 0.177168 0.0607196 0.183164 -0.10589 -0.183276 -0.100199 0.187505 -0.243745 -0.0817513 -0.0430645 0.0246386 0.145054 -0.145095 -0.052849 -0.194062 0.241554 0.177321 -0.0774972 -0.0225878 -0.183821 -0.0749829 0.0150516 -0.124733 0.14577 -0.195911 -0.0643001 0.118209 -0.033738 0.33459 -0.224896 0.0641094 -0.0538368 -0.00778864 0.382518 -0.109297 -0.0281559 -0.15442 -0.013366 0.164921 0.145825 0.086157 0.0823396 -0.0344938 0.347238 -0.338458 0.0263584 0.00155173 0.298191 0.142263 -0.13927 -0.0257867 0.15779 0.00998575 0.0934052 -0.00968827 -0.134234 0.0507832 -0.240879 -0.0937713 -0.255044 0.166883 -0.192145 0.045776 -0.0277601 -0.0281357 0.1799 -0.0247612 0.166315 -0.0037569 0.0609026 -0.24319 0.0646197 -0.102401 0.0329443 0.0984187 -0.12171 0.0348032 -0.113737 -0.095265 -0.0584728 0.00295018 0.13097 0.100346 0.0596789 -0.0542644 -0.175511 -0.00289699 -0.0735551 -0.0826018 0.104033 0.0394405 -0.443028 0.185655 -0.0433269 0.33091 -0.189689 0.030308 -0.130256 0.0211595 0.117503 -0.182005 -0.163995 -0.0917911 -0.296574 0.0137231 0.127694 0.16055 0.0651416 0.0797606 -0.184272 -0.0382016 -0.109363 -0.0789411 0.0360505 0.462159 0.0804164 0.0114856 0.224472 0.0588524 -0.0124673 -0.0695142 0.038295 -0.0262527 -0.0407858 -0.00759264 -0.0992982 -0.336559 -0.103418 -0.0218011 0.135452 -0.151605 0.0364348 -0.0497794 -0.21322 -0.0139155 0.0543949 0.131422 0.188625 0.0458616 0.128524 -0.227671 0.0778193 -0.013362 -0.0933881 -0.165771 -0.09165 -0.125776 0.326118 0.117641 -0.120509 0.0151818 -0.0150082 -0.0215799 0.233255 -0.146416 -0.0140206 -0.154717 0.0140622 0.293201 0.147789 -0.00401877 -0.202755 -0.0364715 -0.0203257 -0.0152613 -0.174483 0.00773731 -6.08734e-05 -0.0138507 0.144996 0.15866 -0.199403 -0.174513 0.15507 0.230563 0.233689 -0.0551534 0.108769 -0.298254 0.262522 -0.120849 -0.246231 -0.0371553 0.0232724 -0.113606 -0.229892 -0.00740492 0.0346698 -0.124483 -0.0610314 -0.124312 -0.0366387 0.0245138 -0.103745 0.0192242 0.0433203 0.0885155 0.149318 0.0340199 0.0318621 0.0157785 0.200609 -0.118597 0.143816 0.113273 -0.299432 -0.120577 0.444941 0.00172219 0.170482 0.180212 0.00439718 0.0750388 0.0791976 -0.122835 0.0216749 -0.077633 0.166728 0.0171539 0.109219 -0.118312 0.0725542 -0.0544622 0.0243217 0.0529491 0.247832 -0.133452 0.160767 0.0674577 0.0710731 0.1011 0.116736 0.0821621 -0.296572 0.224891 0.0101273 -0.174992 0.256571 0.221967 -0.0969179 -0.145416 -0.199733 0.124721 0.0117322 0.124218 -0.14911 -0.0913098 0.00262717 0.0857355 -0.063581 0.0511067 0.121136 0.177334 0.104368 -0.211627 0.128557 -0.150752 0.145026 0.149661 0.300527 -0.0622294 -0.258501 0.251916 -0.098943 0.237757 0.00731316 0.036448 0.109461 0.215601 -0.0771718 0.122789 -0.115614 0.00533362 -0.13193 -0.0705324 -0.084661 0.154142 0.153244 0.0590517 0.000108456 0.122478 0.0235673 0.0115811 -0.253073 -0.163824 -0.0307978 0.11645 -0.0683477 0.0167193 0.286339 0.0714186 0.25678 -0.100115 -0.159021 0.190162 0.314472 0.275662 -0.0218817 -0.126625 0.114612 -0.00163575 0.186824 0.0534074 -0.0322128 -0.0209374 -0.0491568 -0.0912694 -0.115143 -0.0602462 0.100247 -0.127836 -0.11734 0.111435 0.0139569 -0.160203 0.132819 -0.0776103 -0.131237 0.0296917 0.0243051 0.0581997 -0.275743 -0.176202 -0.22366 -0.152508 -0.188267 -0.102085 -0.155943 -0.0952049 -0.0188619 -0.129829 0.278711 -0.0792204 -0.218533 0.0874853 -0.142007 0.0937469 -0.142427 0.145196 0.147685 0.017518 0.15472 0.31873 -0.0532839 -0.138725 -0.0459854 0.0294232 0.0960762 -0.163893 -0.035499 0.0115436 0.247987 -0.0088587 -0.140629 0.024164 0.0716419 0.0202843 -0.0381203 0.0648094 -0.17738 -0.0603434 -0.0822987 -0.258003 0.0684152 -0.096271 -0.10193 -0.0520563 0.319154 0.0890154 0.00669563 0.15141 -0.0159606 0.1026 0.0174649 -0.0912246 0.0694025 0.310389 0.137733 0.0729869 -0.163259 -0.184079 0.0747552 0.0572665 -0.0187171 -0.360861 0.208246 0.0258297 0.128295 0.127399 -0.19696 -0.0127333 -0.123805 0.265813 -0.0149866 -0.0347905 0.0869535 -0.127963 0.00928388 -0.061322 0.0733894 0.0741613 -0.123855 -0.0129482 -0.0180863 0.220221 0.0902041 0.120805 0.262095 -0.0366374 -0.0243513 -0.100042 -0.0909417 -0.0225722 0.126566 -0.284489 0.0132332 -0.186766 -0.271819 -0.124841 0.00581773 0.221654 0.0083464 0.0770143 -0.0854152 0.156916 0.145851 0.0321075 0.119084 0.146827 -0.17413 -0.0941481 -0.00112635 -0.175158 -0.210716 0.12102 0.232843 -0.184909 -0.100738 -0.0225923 -0.113653 -0.25042 0.00836764 2.23466e-05 0.0202667 -0.101746 -0.118743 -0.229562 0.179095 0.126256 0.115304 -0.0730955 0.0477471 -0.044376 -0.0963214 -0.0628411 -0.362377 -0.0965093 -0.133695 -0.186352 -0.0605347 0.0741107 -0.105597 0.179698 0.0113828 0.0155146 0.0364154 -0.260024 0.0210972 -0.00166334 -0.117838 -0.157247 0.101943 0.116586 -0.20109 -0.00947128 -0.156287 -0.151569 -0.300859 -0.188417 0.0975168 0.0125142 -0.117343 0.0849327 0.154224 -0.0954458 -0.184539 0.163384 0.0663193 -0.255926 0.0737937 0.127857 0.0930242 -0.0326106 -0.0785622 -0.151542 -0.016204 -0.264942 0.223476 0.0503029 0.128324 0.101059 0.0527344 -0.0262209 0.104235 0.0147654 -0.31015 0.0806554 -0.272228 0.0621455 0.344366 0.0206296 0.186682 0.18112 -0.231193 0.0950244 -0.105233 -0.0293594 -0.0948192 0.0726058 -0.150259 0.0896599 0.00647239 0.193907 -0.0921092 -0.139135 -0.183291 0.169882 0.114037 -0.127102 0.109843 0.174394 -0.0802102 0.167603 0.194476 0.156521 0.15601 -0.133124 -0.105772 0.151695 -0.0523818 0.0769897 0.0121276 -0.0354591 0.0315958 0.259775 -0.275262 0.0439774 0.248085 -0.127336 0.271558 0.068582 -0.295195 -0.116576 -0.0868605 0.305126 -0.138035 0.005977 -0.128109 0.102867 0.205441 0.00480679 -0.0635113 0.0293001 0.0119205 0.0668818 -0.00377841 0.116757 -0.111138 -0.184865 -0.0563243 -0.145116 -0.103674 -0.0583871 0.0343779 0.136047 -0.0797982 0.0992674 -0.226106 0.00264024 -0.428726 -0.129773 0.0370273 -0.207754 0.0540851 -0.0320823 0.314138 -0.0905102 -0.0604781 -0.0433287 -0.195448 0.0432768 -0.0337336 -0.0119454 0.109272 -0.0958338 -0.0548417 -0.085939 -0.0397296 -0.134716 0.100507 0.0164118 0.0247833 -0.224211 -0.039488 -0.0675564 -0.079965 -0.053544 -0.218742 0.145244 0.149969 -0.0405351 0.0516256 0.261488 0.00639 0.0373951 -0.117901 -0.0808095 0.117304 -0.15922 -0.27371 0.275953 0.228566 -0.136873 0.044091 0.0211719 -0.112222 -0.0116248 0.0996659 0.276186 -0.136066 -0.188531 -0.0145211 0.0820369 -0.0881815 -0.0890612 0.0258915 0.246744 -0.0137744 -0.00805948 -0.263283 -0.102687 0.0980335 -0.258361 -0.0976198 -0.0652045 -0.0335875 -0.00462145 -0.0648314 -0.000348786 0.0439977 -0.303586 -0.227156 -0.00558768 0.0823237 0.0726391 -0.0745532 -0.178302 0.256787 0.00661049 0.0273102 0.115169 -0.0954118 -0.0115028 0.0344835 0.106055 0.167784 0.164559 0.0277961 -0.046412 0.0695637 -0.216495 -0.174547 0.069398 0.215254 0.101795 -0.126121 -0.105175 -0.238557 -0.112668 -0.287098 -0.0762886 -0.0174124 0.0349086 0.151988 0.0521056 0.156427 -0.165117 0.305999 0.134878 -0.119222 0.103433 -0.280914 -0.140154 -0.127601 0.0978809 -0.187579 0.00683136 -0.0221593 0.00152084 -0.0142774 -0.0273006 0.0383897 -0.0091387 -0.0389049 0.207161 0.137651 0.160665 0.112419 -0.169085 -0.080599 -0.12309 0.0325487 0.050261 -0.250881 -0.0243771 -0.0312564 -0.127806 -0.215776 -0.136081 -0.0272512 0.0348267 -0.0620033 0.0192932 0.174531 -0.083655 -0.0607733 0.141695 -0.0699062 0.127199 -0.100992 0.188294 0.25238 -0.0773513 -0.169081 -0.0653952 -0.249451 -0.128092 -0.162656 0.0296149 0.0578501 0.125979 -0.163681 -0.268503 0.25792 -0.141286 0.0868321 0.00694491 -0.162462 -0.135083 0.0412803 -0.0730257 -0.110629 -0.0817354 -0.0508501 0.06211 0.0438936 0.0484217 0.232634 -0.123377 -0.00894724 -0.226113 0.0266256 -0.076728 0.12459 0.14366 -0.318405 0.164843 -0.0224543 -0.153333 -0.190371 0.16735 0.0799464 -0.150063 0.138224 -0.239775 -0.0615197 0.126124 -0.328749 -0.0573136 -0.237699 -0.132623 -0.0594967 -0.0154869 0.000848944 -0.145038 -0.234383 -0.0532585 0.0285002 -0.050254 0.138052 0.114543 0.0260317 0.306601 -0.225823 -0.139465 -0.0246392 0.0539588 0.158098 -0.00342984 -0.268808 -0.00290456 0.11052 0.275863 0.0302704 0.0699127 0.130551 -0.081483 -0.232171 0.039823 0.0306661 0.234945 0.0985513 -0.049007 -0.167184 -0.161221 -0.160791 0.156947 -0.110698 -0.0972607 0.0937028 -0.0511934 -0.134895 -0.100296 0.246017 -0.0255431 -0.247845 -0.0195909 -0.0210935 0.0722077 0.0425143 -0.00116537 0.0680842 -0.0926235 -0.0195708 0.108982 -0.065994 -0.150458 -0.209964 0.144818 0.246266 -0.0931161 0.154535 0.129405 0.187638 0.0959562 -0.138111 -0.0213428 0.111942 -0.210506 0.0937402 0.298003 -0.104566 -0.148331 0.00847496 0.0711941 -0.17279 0.0959967 0.0793713 -0.102662 -0.0351496 -0.0847387 -0.0106354 -0.0453037 -0.104142 -0.113725 0.172952 -0.437603 0.209834 -0.14911 -0.208376 0.0189062 0.0171281 0.113827 0.124235 -0.134957 0.00291493 -0.274588 0.006282 -0.066464 0.0933116 0.102446 0.261001 -0.0627625 -0.0397397 -0.0214626 -0.234228 -0.0685594 0.194042 -0.162858 -0.015869 0.11767 0.0227526 0.0660237 0.214407 -0.0433184 0.0445254 -0.302028 -0.143214 -0.173431 0.23831 -0.14844 0.0495944 -0.0519289 -0.0843899 -0.133048 -0.0829068 -0.0077263 0.0445732 0.258189 0.0619567 0.235332 -0.0278133 -0.100891 -0.198808 0.0737127 0.064889 -0.135003 0.0757814 -0.239772 -0.198975 -0.0918058 0.0883263 0.098565 -0.207775 -0.00127245 -0.0177141 0.0556674 0.0620773 -0.165478 0.123177 -0.0152007 -0.0829584 -0.0191779 0.348895 -0.00653537 0.00161527 -0.366938 -0.198235 -0.0111295 0.0374426 -0.118434 0.119718 -0.201295 -0.046631 0.037664 0.0876378 -0.147686 0.109452 0.0674562 -0.0465246 0.107145 -0.0397778 -0.253557 -0.226368 -0.0992117 0.129043 -0.219823 -0.00599746 -0.0706571 0.143508 -0.216335 0.249438 -0.0891393 -0.0292956 -0.100625 -0.139062 -0.0560108 0.0795949 0.25315 -0.24496 -0.0627723 0.0711276 0.126294 -0.055526 0.0203356 0.0567164 0.106786 0.151219 0.017198 0.0669038 -0.0446195 -0.0569431 -0.328262 -0.116815 0.112591 -0.0353472 -0.001846 -0.147003 -0.00160855 -0.0325589 -0.0290056 -0.0826715 -0.0463045 -0.167214 -0.0292017 0.0303405 0.059525 -0.0831596 -0.226779 -0.162842 0.0338087 0.0475088 -0.0773407 -0.125521 -0.13951 0.0731457 0.22421 0.254485 0.051428 -0.160679 -0.0324694 0.0185927 0.0286658 0.159044 -0.187167 0.28905 0.0287875 0.0310855 0.0152861 -0.0344495 -0.176788 -0.195964 0.158231 0.526039 0.171626 -0.0846469 -0.0202524 -0.117741 0.267569 -0.13549 0.0142629 0.137302 -0.167183 -0.0652073 -0.2253 -0.0834457 -0.10881 -0.251672 -0.0645636 0.119212 0.0314009 -0.079472 -0.120698 0.235215 -0.141156 0.0693705 -0.0973495 0.21273 -0.330264 0.0613796 -0.00553351 0.183291 -0.242568 0.110253 0.144787 -0.0289628 -0.120395 0.0711003 0.0357873 -0.118867 0.0010744 -0.217533 0.115295 -0.0210231 -0.0586699 -0.034444 -0.193432 0.00544281 0.0848324 -0.226137 -0.134868 0.0286798 0.133888 -0.089386 0.23679 -0.131689 0.0920451 -0.0125926 0.0020032 0.0226351 -0.170415 -0.272945 0.0839559 0.210591 -0.280647 -0.151544 -0.0653943 -0.0315022 -0.00693004 -0.0947322 -0.0240149 -0.231496 0.0363457 0.0137929 0.163925 0.116448 -0.198793 0.00836218 0.0870357 0.0569505 -0.0512567 -0.140778 -0.273576 -0.100548 -0.0842128 0.190994 -0.13717 -0.00705464 0.0386319 -0.015638 -0.354464 -0.176051 -0.183556 -0.103556 -0.147894 0.178125 -0.096066 -0.148691 0.0551154 0.161499 -0.0760167 0.0428872 -0.108317 0.171511 0.0286776 0.217435 -0.0306998 -0.13521 0.0453311 -0.0645213 -0.0177938 -0.0111674 -0.0248923 0.0061043 -0.0640005 -0.0617777 0.389333 0.0771658 -0.109282 -0.151939 -0.213677 -0.00482456 -0.0311914 -0.0516208 -0.128313 0.131661 0.172146 -0.0517117 0.276029 -0.178737 -0.100142 0.289683 -0.12587 -0.0582361 0.059422 -0.059991 0.0969798 0.013646 -0.30153 -0.242707 -0.20493 -0.00500487 0.205042 -0.100154 -0.167942 -0.107349 0.284145 -0.0927255 0.0899387 0.178739 0.0218637 0.131269 -0.0887091 0.0637671 0.0350489 0.0411503 0.0300863 0.0538594 -0.0102285 -0.0547777 0.116 0.0596789 0.142959 0.119875 0.148407 0.244376 0.0678119 0.120039 0.0626773 0.053799 0.180331 -0.255223 0.00376049 -0.298536 0.216689 0.122145 -0.0477068 0.143695 -0.135587 0.0172908 -0.43302 0.146472 -0.0363263 0.0326163 -0.11664 -0.068146 -0.11939 0.102046 -0.0886211 0.0496026 0.117746 -0.00828206 0.0845703 -0.296847 0.185199 -0.0176161 -0.173235 0.19813 0.0415041 0.142673 0.200447 0.111268 0.134383 -0.143537 -0.229824 -0.279629 0.129501 0.0349194 -0.145205 -0.197926 -0.119653 -0.0783231 0.188818 -0.12191 -0.0783023 0.0211012 0.287821 -0.0205063 0.0782475 -0.228015 0.107319 -0.105636 -0.238309 0.0524374 -0.211184 -0.150717 0.0313199 -0.0559148 -0.0865755 -0.0729373 -0.0940127 -0.177197 -0.102518 -0.0725633 -0.147614 -0.00200991 -0.162975 -0.0494943 0.00597921 0.121666 0.125549 0.448269 0.0531947 0.152607 -0.129143 -0.0429985 0.0817027 0.146941 -0.024214 0.189945 0.219518 -0.0250399 -0.193589 0.120354 -0.0226897 -0.0410903 -0.0647639 0.137459 0.0412849 -0.0486214 -0.1405 0.138578 0.109855 -0.0661477 -0.24253 -0.0113521 0.251675 0.0311216 -0.221703 0.222888 0.0136765 0.0823293 0.139321 0.106995 0.148303 -0.137488 0.16923 -0.130666 -0.252841 -0.0573954 0.114762 0.0254212 -0.0419699 -0.11639 -0.188452 -0.0899673 -0.121173 0.0715187 0.044511 -0.366609 0.0815618 -0.106006 -0.0185124 0.0845795 -0.0911009 0.128432 -0.194096 -0.101745 0.0184189 -0.130853 0.156096 0.114486 0.223306 -0.0948319 0.167425 -0.0985788 0.138495 -0.0652838 0.0930302 -0.16552 0.0168147 -0.0490712 -0.0528762 -0.163473 0.0922807 0.297134 0.115055 -0.0024324 -0.15028 0.0255221 0.00877966 -0.0235647 -0.0392579 0.0443408 -0.227652 -0.136168 0.128632 -0.072967 0.0587557 0.228252 0.0422203 0.00519632 -0.0841544 -0.362684 -0.213482 -0.192172 0.0380882 -0.0803857 -0.338746 0.000635009 -0.236706 0.0148444 -0.0404604 -0.023057 -0.0140321 0.253451 0.0865538 -0.179635 0.0523443 0.415766 -0.221017 0.150727 -0.00434611 0.2017 0.0474468 0.160514 0.0894195 -0.0699545 -0.01959 0.0866075 -0.225304 0.107332 -0.0612805 -0.236467 -0.0600815 0.249898 -0.0159488 0.0762048 0.0694727 -0.107058 0.0461042 -0.0433094 -0.0652997 -0.0132456 0.0721224 0.274622 0.0177454 0.167037 -0.127053 -0.14085 0.151081 -0.22388 -0.00373325 -0.023598 0.139192 -0.0870594 0.161714 -0.183363 0.0845514 0.00821601 0.152867 -0.0725344 -0.0550759 -0.14316 0.228517 -0.1177 0.0862707 -0.211287 -0.197303 -0.00165904 -0.109408 0.225137 0.00488795 0.416461 -0.0952925 -0.25373 0.0765973 0.0903149 0.179624 0.0995252 -0.146185 -0.0207326 0.201791 -0.245803 0.103423 -0.0661575 -0.238934 0.0453583 -0.175495 -0.0759119 0.107692 -0.0446912 0.0451813 -0.0314775 -0.248605 -0.0682055 0.0858062 -0.179913 0.241511 -0.185022 0.00887823 -0.0625358 -0.044721 -0.0790168 -0.243775 0.0860664 0.0503956 0.224357 0.0953504 0.176683 0.0634114 0.164761 0.116868 -0.0685772 0.073942 -0.0613532 -0.0793599 0.282992 0.0316952 -0.0881907 -0.0398382 0.0432203 -0.0623245 -0.0245925 -0.0344775 -0.0583627 0.119896 0.0758648 0.0780685 0.0801561 0.089618 0.189384 -0.121986 -0.207499 0.116944 0.0826189 0.101254 0.234652 0.115018 -0.0895913 0.0408682 0.0376156 0.150876 -0.047038 -0.0438487 -0.074536 0.132191 0.229848 -0.0329255 0.142136 0.180392 0.256435 0.23608 -0.170721 0.153758 0.141434 0.311963 -0.0782421 -0.21136 -0.0536765 -0.095058 0.0560352 -0.207322 -0.107098 0.00486624 -0.00163139 -0.0948805 -0.18666 -0.0420606 -0.00421986 -0.138034 -0.0538244 0.0657555 0.00805412 0.0362963 -0.0673619 -0.15684 -0.183192 0.0603872 0.0642018 0.389403 0.0689777 -0.0933893 0.220325 -0.0402138 0.187729 -0.141732 0.0166535 -0.0542484 -0.0551956 -0.180411 0.00484593 -0.164681 -0.337607 -0.0938932 0.143933 0.0440209 -0.164156 0.0361993 0.116665 0.116352 -0.102989 0.0352124 -0.00699166 0.129231 0.142686 0.0373342 0.0623489 -0.073933 -0.0701565 0.0225674 0.124514 -0.0516611 -0.0627532 0.365465 -0.0286699 -0.0592821 0.0227229 -0.342514 -0.0625225 -0.117855 -0.022088 0.238575 -0.0825201 0.133787 -0.11364 0.172033 0.00667062 0.133895 -0.111747 -0.0805588 0.0704108 -0.129674 -0.0466605 0.0136115 -0.00237028 0.226811 0.0127775 0.150462 -0.0799727 0.151655 -0.218079 -0.0680126 -0.0921063 0.166468 0.070958 -0.047107 0.106045 0.181662 -0.232043 -0.0547727 -0.178185 0.291183 -0.311113 0.0866212 -0.18586 -0.0935342 -0.000582501 -0.126004 0.0973497 0.0194439 -0.0531084 0.0372977 -0.175773 0.000876595 0.115762 -0.208434 -0.177254 -0.151675 0.0372307 0.160589 -0.0347485 0.176883 0.135384 0.177212 -0.14086 -0.0649983 -0.0238969 0.123075 0.0565412 0.217058 0.413736 -0.215148 -0.0643602 -0.072705 0.0172457 0.0569365 -0.0300043 -0.290947 -0.055765 -0.0874583 -0.0390998 -0.0684358 -0.0375455 0.129458 0.151299 0.0918337 -0.0915543 -0.135562 -0.0248566 0.197907 -0.151108 -0.113331 0.0646732 -0.0460987 0.108941 0.104905 -0.0232003 0.0583148 -0.0293116 0.0532819 0.0874518 -0.229619 -0.112467 0.131688 0.0902649 0.119421 -0.105602 -0.0447982 0.225917 -0.34453 0.329392 -0.127827 -0.367017 -0.147821 -0.0838143 0.0956217 -0.0281417 0.193213 -0.0741122 0.294137 -0.0628007 -0.0762331 -0.35238 -0.0933368 -0.130994 0.0364012 -0.0107012 -0.260493 0.260725 -0.344354 -0.0292837 0.0366121 0.250535 -0.21238 -0.0770535 -0.0938274 0.0378856 -0.00713831 0.0368335 0.10114 -0.120089 0.113825 0.0336883 -0.0718133 -0.290726 -0.0505441 -0.0731935 -0.215397 0.0220443 -0.246613 -0.0302484 0.140329 0.158518 -0.162862 -0.227892 -0.14536 0.212314 -0.18013 -0.0911685 -0.0813991 0.0875994 -0.153509 -0.0780316 0.359833 -0.126255 -0.0978334 0.234186 -0.153826 -0.17047 0.138894 0.068962 0.0923449 0.220156 -0.0313734 0.189497 0.181664 -0.00495344 -0.0885214 0.0894408 0.121427 -0.0817512 -0.188869 0.109822 -0.032503 0.162644 -0.168393 -0.112009 0.032411 -0.0220025 0.293639 0.00557978 0.0939251 0.184669 -0.0424627 -0.0329557 -0.131331 -0.171019 0.127866 -0.117205 0.0938606 -0.15279 -0.113939 -0.122289 0.102727 0.11445 -0.132796 0.0794521 0.0652752 -0.318505 0.0488723 -0.00322804 -0.146349 0.155681 0.0465292 -0.0697868 0.239625 0.025583 0.250782 0.253485 -0.328174 -0.216459 0.00436193 0.0481805 0.214368 -0.124989 -0.0514366 -0.0915336 -0.130258 -0.0401412 0.00235217 -0.0786021 -0.185106 -0.0603979 -0.0596252 -0.251285 0.0669441 -0.015764 0.0674807 -0.0502315 -0.0255325 -0.1428 0.187677 -0.293374 -0.0479685 -0.0857784 -0.107659 -0.0894391 -0.300377 -0.0229763 -0.140658 0.244541 -0.0404303 -0.14511 -0.0989121 0.256432 -0.00322085 0.142988 -0.0938107 -0.228049 -0.193545 -0.209547 -0.0565773 -0.0776937 0.00388699 -0.133033 0.167232 -0.0139952 0.0304926 0.220468 0.141959 0.0278811 0.156094 -0.00592351 -0.0970552 0.145111 -0.26822 -0.112115 0.223309 0.140674 -0.0236307 -0.0297609 0.145415 0.00380229 -0.170777 0.132405 -0.0569871 0.0965018 -0.0667916 0.16866 0.231422 0.196754 -0.0298857 0.194943 0.144387 -0.20115 -0.0447 0.0848756 0.293426 0.0833847 -0.181497 0.19368 0.128827 0.0768785 -0.0261955 -0.0283811 -0.311062 0.00122744 0.0734169 0.0103545 0.182045 0.0216275 0.258056 0.123224 0.111358 -0.0404466 0.116053 0.0376677 -0.0040721 -0.118117 0.00576707 -0.0150343 -0.158354 0.0709114 -0.0450052 0.0621917 0.0960685 0.0967303 0.168997 0.0985928 -0.139848 -0.29502 -0.0889916 0.0734657 0.265287 -0.00304347 0.0241236 0.0166793 0.181414 0.140321 -0.212311 0.0631151 -0.169289 0.0842804 0.202547 -0.140674 -0.0126341 -0.0312482 0.114084 0.219025 -0.12193 0.164211 -0.0299042 0.114304 0.367388 0.247501 0.0466788 0.0495371 -0.0781772 -0.133803 0.369741 -0.164254 -0.256188 0.112108 0.0414112 -0.017785 0.0199712 0.184919 0.332614 -0.169375 0.00653313 0.110922 0.0074371 0.00725228 0.192991 0.143246 -0.0689349 -0.288811 -0.0729656 0.423309 -0.0354224 -0.126304 0.190688 -0.0432454 -0.169529 0.00761157 0.118306 0.0095788 -0.0697546 -0.0224111 -0.161539 -0.202386 -0.0329871 0.0300292 -0.346662 -0.048602 0.021792 -0.0827209 -0.112378 -0.152699 -0.204314 -0.0530445 -0.141301 -0.0161535 0.0170173 -0.287285 0.143239 0.0338363 -0.126388 -0.14724 0.00310313 0.138656 -0.2838 0.0453892 0.177124 -0.0609796 0.195678 -0.0666016 -0.0114281 0.184432 0.281564 0.083656 0.200586 -0.135683 0.197514 -0.0142325 -0.158575 -0.0989345 0.00331044 -0.132416 -0.0889159 -0.0136794 0.0110681 0.126261 -0.0166719 0.258477 -0.32442 0.11778 0.081214 -0.0108657 0.0184244 0.0782422 -0.088851 0.195666 0.0157861 0.281357 0.094468 -0.000586644 -0.0218866 0.219368 0.104722 -0.0373995 0.189663 -0.00196037 -0.0136465 0.0793843 0.0611027 0.110906 0.170628 0.33812 0.0816514 0.0565001 -0.185715 0.100219 0.122392 -0.111801 -0.081945 0.0947629 0.066604 0.0732006 0.00899177 0.165668 0.21472 0.150272 0.0928549 0.263564 0.106596 0.196938 0.137183 0.234174 -0.104604 0.0443698 -0.0519303 0.187358 0.024762 0.322356 -0.167976 0.0838872 0.274574 -0.050694 -0.0401703 -0.155009 0.148315 0.0978222 0.0340917 -0.0501022 0.0923736 -0.0470344 0.101887 0.0794391 0.136456 -0.0350893 0.0172634 -0.0387414 -0.0604194 -0.0935424 0.334808 -0.00330323 0.000889738 -0.23874 -0.167277 -0.360482 0.0433108 0.103987 0.0446233 0.398848 -0.15609 -0.206599 0.0739622 0.0514486 0.0515999 0.0304058 0.12789 0.14215 0.274162 -0.0118371 0.0488572 -0.00592126 0.0290181 -0.274663 0.0334206 0.495211 -0.186023 -0.0418434 0.0409325 -0.00333083 -0.0761386 -0.0388525 0.0790848 0.0285454 0.0280955 -0.223304 -0.273926 0.0605171 -0.013645 -0.143622 -0.246284 0.14288 0.014173 0.0979082 -0.0230674 -0.0488809 0.0742028 0.123763 -0.142113 0.0288685 0.0669615 0.0420067 -0.108332 0.0590063 0.113866 0.140104 -0.0707779 0.135209 -0.0153747 0.307584 -0.124531 -0.151793 -0.144583 -0.0885872 0.128058 0.113314 0.103136 -0.0266655 0.0534138 0.160813 0.270293 -0.0963861 0.061545 -0.0246947 0.135452 -0.0183432 -0.107548 -0.0463306 0.173204 -0.054806 -0.19264 0.208186 0.0141057 0.193092 0.111869 0.21192 -0.242841 -0.0480362 0.0420517 0.0821403 0.111312 0.0207394 -0.110489 0.407848 -0.0556797 -0.0203345 0.173961 0.0414241 0.064013 -0.089471 0.00992583 0.17139 0.177044 -0.057149 0.349392 0.0209678 0.016773 -0.29742 -0.0322133 0.247717 0.0132039 -0.186616 0.073717 -0.19087 0.0395924 0.227664 0.0847754 0.142231 0.199912 0.175543 0.00481762 0.164437 -0.0827544 0.0180324 0.00399946 0.174035 0.227342 0.292844 0.00871118 -0.0282891 0.222129 0.168485 -0.258545 -0.158399 0.229283 -0.074839 0.198413 -0.0491663 -0.0577354 0.166305 0.257654 -0.0140652 -0.0870092 -0.21458 0.0876335 0.0385183 0.228895 0.0794792 0.0778615 0.0986294 -0.0345705 -0.0639772 -0.234073 -0.11853 0.137795 -0.221196 -0.0825686 0.15474 0.000236964 0.0455142 0.0622638 -0.0307827 -0.205457 0.0623853 0.170223 0.0437183 0.0362521 -0.237468 -0.00548705 -0.000303668 0.217951 -0.0087659 0.11411 -0.0674829 -0.0147377 -0.0664109 -0.00462602 0.149454 -0.149839 -0.0809428 0.0884243 0.0339187 -0.000651719 -0.0366805 -0.0103476 0.0766332 0.0356495 0.124631 -0.0547985 -0.0253861 -0.0627362 0.169867 0.120597 -0.0384908 -0.294081 -0.0789862 0.201198 -0.247952 -0.20996 -0.0489659 -0.215503 0.196396 -0.222514 0.254083 0.0906332 0.0240985 -0.0097427 0.103793 0.150601 0.0398934 -0.0530613 0.02366 0.266226 0.200346 0.229537 -0.172803 0.0704352 -0.172889 0.0933911 -0.0656442 0.00675468 0.16504 -0.0780547 0.0963681 0.295569 0.2086 0.11245 0.045577 0.193718 0.0186592 -0.0194023 0.0237958 0.114904 -0.0785542 0.0384777 0.0392784 0.113106 0.191854 0.183563 0.374719 -0.0328903 0.0148174 -0.193323 -0.11963 -0.303814 0.199519 -0.111921 -0.170704 0.00140338 0.0420923 -0.0844754 -0.0681047 -0.251024 0.146184 0.185465 -0.0988283 -0.0151645 0.137979 0.0853639 0.053624 -0.18093 -0.290572 0.0353426 0.0883298 -0.274713 -0.16624 0.152271 -0.130386 -0.429803 0.0930195 0.0755732 0.321577 0.0913279 0.044039 0.0590359 0.00295436 -0.0504759 0.210073 -0.0800242 -0.0502256 0.120644 -0.155215 0.0802707 -0.136563 0.085986 -0.00960388 -0.060728 0.0240965 0.003826 -0.248252 -0.203968 -0.072296 -0.0133336 0.0753777 -0.160504 0.0908543 -0.0233593 -0.12385 -0.178294 -0.126126 0.0180179 -0.191598 -0.0799626 0.00696827 -0.216506 -0.0442853 0.108797 -0.0369727 -0.121386 0.205441 0.122109 0.0226523 -0.0109321 -0.122103 -0.171841 0.108084 0.118453 -0.133252 -0.233668 -0.0574523 -0.158261 -0.166454 -0.249015 0.0918505 -0.124027 -0.288018 -0.067881 -0.0477308 0.149041 -0.231439 -0.13952 0.0102232 -0.188863 0.161773 0.00226958 -0.149752 -0.00935791 -0.184344 -0.0279703 -0.049085 -0.0133959 0.135357 -0.121922 -0.043709 -0.0341838 -0.0834101 0.00231666 -0.0926369 0.0110338 0.124017 -0.0848573 -0.530329 0.119029 0.0912431 0.0417699 -0.151526 -0.111838 -0.00791975 -0.0930627 0.0407752 -0.134691 0.0440511 0.225378 0.0644008 -0.240291 -0.0171979 -0.274582 -0.26993 0.12212 0.0845403 0.105155 0.0340287 0.0317589 -0.0255141 -0.217531 -0.0363005 0.0355394 -0.135322 0.214876 0.351327 -0.217846 0.00410888 0.264192 0.206315 -0.058285 0.375977 -0.104206 0.152185 -0.0447678 0.149784 -0.148934 -0.144355 -0.188399 0.10943 -0.00690893 0.229671 -0.0635445 -0.00533188 0.102467 -0.073192 -0.00061819 0.170349 -0.0327922 0.136914 -0.0315837 -0.192956 -0.0338703 0.00586384 -0.204444 0.144192 -0.303637 0.252885 -0.0227933 -0.0444788 -0.211559 -0.107253 0.0872709 0.0747801 0.0560509 0.0611589 -0.0314282 0.0512693 -0.0476253 -0.00514714 -0.192355 -0.0806003 -0.0836068 0.12434 0.0103451 -0.0483055 -0.216768 -0.126442 -0.0145514 0.118567 -0.0519625 0.166008 -0.161135 0.0613754 0.0707988 -0.0406933 0.116189 0.223145 0.0243797 -0.0124836 0.0562949 0.162149 0.0164184 0.0426821 -0.165555 -0.021292 -0.136057 -0.0030132 0.129218 -0.103547 0.334976 -0.0866743 -0.0826368 0.00907421 0.0207345 -0.133328 0.0308779 -0.188465 -0.2932 0.0192388 0.0293815 0.11056 -0.203075 0.277338 -0.0659489 -0.0973445 0.101027 -0.0850008 0.118015 0.00951607 0.29415 -0.0115568 -0.011515 0.144746 -0.0911555 -0.0859693 0.0414944 0.0160361 0.043856 0.0780126 -0.0220796 -0.180112 -0.0149321 -0.239883 0.0638848 -0.0682016 -0.154875 0.135878 -0.00959868 -0.0738899 0.0447324 -0.129415 0.189888 0.181708 0.474086 0.153933 -0.137721 -0.0493495 0.139644 0.16112 -0.0757045 0.173118 0.174451 -0.211962 0.00236335 0.026 -0.0864496 -0.100361 0.0910927 -0.28646 -0.158455 -0.119459 -0.321828 0.269513 0.129964 -0.12774 -0.162306 0.297527 0.13503 0.0159938 0.0444408 0.078523 -0.0324246 -0.0215128 0.12618 0.0289761 0.0196017 -0.179528 -0.0594889 0.0384694 0.00465817 -0.0558108 0.117598 -0.0709945 -0.0646698 -0.035004 -0.0283003 0.285739 -0.0018891 -0.11211 0.0148294 0.30585 -0.183815 0.00646239 0.279591 0.138693 0.0707175 0.225169 -0.0153654 0.104882 -0.0865888 -0.0649776 -0.0195203 -0.330424 -0.0914152 -0.0579433 -0.0361412 0.0245513 0.0354078 -0.119509 -0.0494977 -0.0991042 0.0523694 -0.181278 0.0696684 0.161288 -0.0532934 -0.103616 0.0624821 0.131046 0.100358 -0.14905 0.166338 -0.0787002 -0.298989 0.0992644 -0.290063 -0.21952 -0.216 0.00516319 -0.0392371 -0.133604 -0.393369 0.344404 0.188486 -0.140064 0.0650482 0.0782257 -0.194772 0.0398964 0.173522 -0.0241251 -0.112048 0.162535 -0.0634438 0.138759 0.0290481 0.272219 -0.0110747 0.0180956 -0.125272 -0.110629 0.0731628 0.0761288 -0.010986 -0.0627233 -0.112341 -0.186153 0.0137567 0.156271 0.0400168 0.278061 0.0403325 -0.272091 -0.0333067 -0.00999325 0.0317017 -0.104901 0.141943 0.086973 0.21608 -0.157579 0.0943278 0.21596 0.00214525 -0.150854 0.0481849 -0.0116681 -0.0312815 -0.123893 -0.0834789 0.197202 0.120165 0.121187 -0.0609708 0.0420531 0.301461 -0.195747 0.0945933 -0.156436 -0.0211172 0.0835821 0.274441 -0.121956 -0.232731 -0.0149534 -0.108557 -0.128597 0.146421 -0.0101091 0.12066 0.339182 0.0501578 0.00221924 0.0095534 -0.0549899 0.0889414 -0.00917139 -0.141517 -0.0136996 -0.2367 -0.158345 -0.134057 -0.15398 0.217722 -0.130949 0.197276 -0.105795 0.246043 -0.0446913 0.111974 -0.160912 0.119154 -0.132647 -0.28499 0.065766 -0.167972 -0.0163347 0.123196 -0.12929 0.108697 0.164804 0.01379 0.00955116 0.0186989 -0.0926062 0.105766 -0.0204028 0.00367806 -0.17877 0.305505 -0.0751576 0.221784 0.176487 0.0455556 0.332622 0.217658 0.239832 0.00290055 0.0206582 0.23748 0.0919771 0.0611151 0.188617 0.0691917 0.161966 -0.196876 0.000302094 -0.0539429 0.166736 -0.0789524 -0.121831 0.0649598 -0.00202782 0.0779461 -0.164925 0.210381 0.221593 -0.117647 0.00810086 -0.126175 0.159967 -0.0682915 0.176348 0.218859 -0.00449774 0.117783 0.279425 -0.043475 0.103574 0.0807476 -0.00344444 0.121712 0.0194079 -0.240272 0.136614 -0.17332 -0.0564165 0.0073651 -0.0872529 0.128859 0.069133 0.0680344 -0.0438874 -0.02828 -0.161998 -0.00400118 0.0922487 0.0996848 0.0860351 0.00996695 -0.371225 0.0597967 -0.0546198 -0.0865644 0.0436329 0.0381961 0.173985 -0.0395059 0.00472566 -0.0545825 -0.084014 0.0280363 0.0659761 0.348092 0.322943 0.00469347 0.0898 0.0611161 0.0386024 0.062323 -0.0591017 -0.230295 -0.127609 0.00797664 -0.309642 0.263723 -0.0625021 0.0609641 0.0224286 -0.161683 -0.0799051 -0.0373197 -0.0821545 -0.0541957 0.100798 -0.131511 -0.310085 -0.0633301 0.0482047 0.161947 -0.237216 -0.0867383 0.0389274 -0.0810187 -0.0182094 -0.247946 0.163869 0.0409597 -0.24594 -0.111346 -0.212728 0.0638806 0.135556 -0.210695 0.0661345 -0.126375 0.116326 -0.111992 0.0992625 0.186374 -0.206555 0.251818 0.0834494 -0.105711 -0.17796 0.0666032 0.276755 -0.00852477 -0.0582009 0.00234992 -0.209763 0.037378 0.183273 -0.0721481 0.123852 -0.147615 -0.14513 -0.166076 -0.0427217 -0.0324631 0.0554837 0.0944699 0.0481358 -0.13696 0.151344 -0.00776119 -0.0755168 -0.170122 0.0791461 0.185084 0.252181 -0.144139 0.172427 0.0422693 0.0635291 0.246724 0.0861159 -0.232004 -0.260383 -0.000197205 -0.0430362 0.169522 -0.0163018 -0.0042908 -0.0395004 -0.0221053 0.153808 -0.17086 0.127473 0.192685 -0.0477278 0.205251 0.0249154 0.090913 -0.0252356 0.105607 0.0930968 -0.104897 0.119094 -0.136717 -0.079149 0.152223 -0.0404007 0.220803 -0.309991 0.0152747 0.299996 -0.217111 -0.213924 -0.0114924 0.0161437 0.0262877 0.233618 0.0205442 -0.075005 0.139523 0.0934522 0.137397 -0.00826105 -0.0369981 -0.1525 -0.21293 -0.0508494 -0.258817 0.494483 0.0301119 0.00984842 0.239397 0.0959963 0.0575448 0.123093 -0.0550407 -0.24374 0.04428 0.0980355 0.175261 -0.127427 -0.179582 0.0204373 0.121014 -0.283832 -0.10002 -0.310451 0.127873 -0.0260064 -0.0195662 -0.127467 0.011805 -0.0793891 -0.0259771 -0.035969 -0.0728407 -0.140365 0.0130074 0.151136 -0.00287696 0.135931 -0.150753 -0.150435 -0.169015 0.00671629 0.163533 -0.0830946 -0.13591 0.063133 -0.0455141 -0.0607177 0.164632 0.148297 -0.0101072 0.0517553 -0.266292 0.000903426 0.0649076 0.050507 0.0521891 0.239231 0.0852559 0.146469 -0.321168 0.0495127 -0.119742 0.0502465 -0.035147 -0.0520697 0.24024 -0.19775 -0.0926192 0.0259511 -0.0616982 -0.120739 -0.197789 -0.0614364 -0.0877774 -0.17386 0.0470674 -0.113236 0.0678402 -0.0082726 0.177117 -0.00823717 0.079354 -0.0139268 0.0473022 -0.047323 0.0614118 0.0236786 0.0384029 -0.0106582 -0.0952418 -0.0695925 -0.163831 0.171585 -0.327696 -0.130948 -0.206535 -0.246824 -0.105518 -0.201085 -0.195841 0.0582119 0.138246 0.00622654 0.243024 -0.240196 0.160853 0.300145 -0.115437 0.211387 0.2045 0.280774 0.0259222 -0.14093 -0.0932914 0.191207 0.0800277 0.0489248 -0.114223 0.0803782 0.289174 0.035376 0.0193237 0.243366 0.0707997 -0.122212 0.0391781 0.0412462 0.216413 -0.106448 0.185728 -0.071413 0.0318891 -0.0278923 -0.0845097 0.0830749 0.00111119 0.31861 -0.0851062 0.00496863 -0.198264 -0.0657209 -0.0116822 -0.0753276 0.311658 -0.0365689 0.143308 -0.0511467 0.0911742 0.159183 -0.147382 -0.00852081 0.252615 -0.0164303 -0.120681 0.143223 0.069859 0.04228 0.16044 -0.0289313 -0.0797054 0.0659964 -0.10521 -0.10192 0.2015 -0.0660761 0.399864 -0.0316004 -0.083593 -0.190199 0.334652 -0.184966 0.186507 -0.145709 -0.147269 0.0192657 -0.176751 -0.130874 0.10706 0.0158104 0.143586 -0.00892678 -0.240267 0.10986 -0.100659 -0.171805 0.132249 -0.0188469 -0.0223466 0.0357033 0.0446234 0.10327 -0.0816778 0.164077 -0.360822 -0.0375032 -0.00716323 -0.0471094 0.115164 -0.106796 -0.00319161 -0.236648 -0.076351 -0.124236 0.00236062 0.0629849 -0.000504424 0.12355 0.235211 -0.0212004 -0.123336 0.0815277 0.278162 -0.117765 -0.290223 0.0440983 -0.0485533 0.240375 0.232981 0.2159 0.0500079 -0.212021 0.0192911 0.0728824 -0.0261782 0.0433298 0.0668308 0.0305026 0.11337 0.00876134 0.0285246 -0.486015 -0.078246 -0.0269883 -0.0118223 0.232772 -0.0686795 0.100226 0.187415 -0.00759186 -0.286431 0.120192 -0.014753 -0.0538004 0.0432515 0.00145284 0.164964 0.190185 -0.115004 -0.183725 -0.17447 0.102251 -0.163536 -0.0521565 0.250938 0.230399 0.0113671 0.0324263 0.00385325 0.063442 -0.0806426 -0.143248 0.0377839 -0.0959404 0.140765 0.128039 -0.225826 0.096689 0.060257 -0.0064066 0.0183236 0.0762691 0.0749273 -0.181502 -0.0493958 0.224217 -0.13262 0.0533826 0.0341075 0.160339 -0.0325612 -0.198985 -0.0400245 0.0533182 -0.187408 0.0150646 -0.175805 -0.197082 0.301413 -0.163292 0.240781 -0.143449 0.119434 -0.136716 0.303312 0.0496587 0.132654 -0.043499 -0.0415161 -0.111706 -0.0414018 -0.192816 -0.0503515 -0.0432465 0.205886 0.083564 -0.0918655 0.284143 -0.281974 -0.00456158 0.185827 -0.172325 -0.184955 0.0493602 -0.221243 0.0516232 -0.125285 0.0972904 0.20106 0.112548 0.199106 0.255314 0.131553 0.00915432 -0.408296 -0.00104586 0.0662663 0.159293 0.290387 0.192041 -0.135738 0.0924969 -0.101372 0.0239263 0.0208253 0.235527 -0.295656 0.129692 0.0662303 0.0832023 -0.0974599 0.00517528 0.0214475 -0.113885 0.0299027 0.228338 0.142994 0.275772 -0.0416627 0.0121282 0.0612781 0.0407824 -0.11816 -0.184717 -0.180298 0.0170968 -0.0602868 0.143784 0.0768769 0.0362593 0.236246 0.0204936 0.0022313 0.139902 0.11949 -0.0636702 -0.0664956 0.0328619 -0.179866 0.0715761 -0.0524802 -0.252939 -0.223333 -0.0459144 0.0369364 -0.0414542 0.2483 0.146114 0.0130088 -0.12793 -0.0636493 0.0191259 -0.201981 -0.327708 0.168439 -0.139435 -0.0765256 -0.116222 0.0902702 0.0821604 -0.0967025 0.328196 0.17326 0.105312 0.211515 -0.0622221 -0.159138 0.00471485 -0.0236939 0.0385188 -0.173544 0.0571814 -0.164636 0.0362677 -0.214775 -0.0115816 -0.19918 0.037381 -0.167923 -0.0553322 0.253721 -0.20687 -0.0306032 -0.116154 -0.0790178 -0.170275 -0.0568269 -0.0286847 0.0769733 0.0432012 0.0436637 -0.153364 -0.0421443 -0.0780103 0.000947299 0.0164678 -0.0333703 -0.0323581 0.127663 0.150241 0.237884 0.0259994 0.0243186 0.0723246 -0.139529 -0.083338 0.280261 -0.0132788 -0.0579964 0.236343 -0.205919 0.0957472 -0.215694 0.0861745 -0.118342 0.248703 -0.0107608 0.0664368 0.0436931 -0.0685423 -0.0399663 -0.161406 0.213574 -0.299286 0.0134752 -0.00820289 -0.200577 0.0366077 0.0577887 -0.174423 -0.0177873 0.0187068 0.0360532 0.08516 -0.163039 -0.0836936 -0.0294908 0.280958 -0.158375 -0.050471 -0.180609 -0.172924 0.124268 -0.201659 -0.226133 0.138814 0.167235 0.033531 -0.106775 -0.0178833 0.0245869 -0.164762 -0.111624 0.181027 0.226048 -0.0276409 -0.225382 0.163715 -0.152609 -0.0696197 0.314043 -0.0636356 -0.118061 -0.0123823 0.248555 -0.224333 0.0464771 -0.0292641 0.0442742 -0.0672236 -0.127707 -0.13544 0.0634022 0.147851 0.172553 -0.0117899 0.099185 0.00900636 0.214819 -0.0391528 -0.114276 0.179285 0.237982 0.0664628 -0.043426 -0.0894022 -0.0378149 -0.122248 0.34417 -0.117147 0.0430651 0.0495677 0.247897 -0.189994 -0.0524677 -0.101784 -0.1329 0.113975 0.0341035 0.0404905 0.24874 0.18094 0.0372955 -0.0822108 0.198341 -0.123879 -0.278439 0.213799 -0.150116 -0.085052 0.0534851 -0.0152202 -0.268836 -0.0963695 0.172463 -0.108305 -0.16323 0.237878 -0.0767785 -0.13754 0.115637 -0.0691392 -0.0222571 0.190463 0.00871555 0.284635 -0.0210329 -0.121552 -0.0731277 -0.0362582 0.0336954 -0.0972083 0.126819 0.0502516 0.0583841 0.140352 -0.111292 0.187125 -0.159107 0.176536 -0.109378 0.185941 0.117089 0.0588719 -0.137257 0.119394 -0.252924 0.131759 -0.158284 0.0548307 0.0243092 -0.0759687 0.185661 0.0497304 0.0516953 0.134659 -0.0136157 0.078725 -0.0154682 0.00369313 0.163244 0.170393 0.271953 0.00586161 -0.163734 -0.122523 0.0256389 0.0147322 0.0630882 0.188768 0.0651215 0.00156739 -0.0524922 0.137384 0.0609226 0.049399 -0.27951 -0.0502814 -0.03475 -0.113887 -0.131994 -0.0357025 0.0451116 0.185941 0.143153 0.349948 -0.278977 0.132365 -0.133457 -0.12434 0.119068 0.054886 0.0943347 0.075373 -0.0842023 0.0107273 0.120913 0.0443224 0.251374 -0.31039 -0.105487 -0.0692009 -0.00714861 0.163625 -0.190017 -0.102519 -0.145136 0.0451065 0.0118355 -0.15703 0.119968 0.286935 -0.137361 -0.256811 -0.165158 0.0799312 0.124232 -0.00712473 -0.181239 -0.306395 0.0515936 0.144525 0.109897 0.0149161 -0.14843 -0.0876998 0.0314872 0.322389 0.00700817 -0.0635492 -0.0024868 -0.0295235 -0.116175 -0.071091 -0.189674 -0.0942075 -0.227209 0.0226995 -0.223276 0.0181606 0.245885 -0.0983156 -0.0765081 0.239581 -0.078323 0.104573 -0.164941 -0.058022 0.102852 0.0999901 -0.0937985 -0.0848571 0.241227 -0.0331608 0.0267236 -0.145935 -0.232009 -0.115322 -0.0249988 -0.13183 0.175769 -0.0480378 0.133782 -0.186872 -0.0478493 -0.0492081 0.0139849 0.0504454 -0.457417 -0.0277223 -0.178285 0.0339987 -0.11594 0.0237329 0.236638 -0.257479 -0.051047 0.00422302 -0.330035 -0.320401 -0.175615 -0.0357078 0.147629 0.00869364 0.103029 0.178831 0.0602821 0.112382 0.0856373 0.0478747 0.22881 0.118588 -0.0871186 0.0869122 0.0580895 0.0620547 0.350121 -0.099925 -0.053078 -0.00959212 -0.0674662 0.0521862 0.151678 0.310342 0.136819 -0.113782 0.127018 0.121494 0.078809 -0.0860712 -0.284492 0.0841744 -0.0810725 -0.144802 -0.0865477 0.0573339 -0.0527683 -0.0894205 -0.064828 0.217257 -0.0111592 0.13264 -0.21871 -0.302636 -0.0997178 0.169632 -0.0135447 -0.168658 0.0380127 0.0791776 0.0215618 -0.224547 -0.107839 -0.146392 0.333949 -0.252665 0.123227 -0.237894 0.079297 -0.0191685 0.0959421 0.160508 -0.135767 0.0330918 0.00923151 0.0351034 -0.0461284 -0.228286 -0.0817579 -0.0644891 0.105183 0.150355 0.0464119 0.196891 -0.00210229 0.165599 0.196057 -0.00656098 -0.124875 -0.0694987 -0.188435 0.0567152 0.163428 -0.0841783 -0.0445762 0.15529 0.0308347 0.179775 0.102279 -0.00750883 0.0959923 0.00403586 0.0737056 0.0135323 -0.188931 -0.184083 0.0653851 -0.0564652 -0.203929 -0.199565 0.0487887 0.012878 0.23825 0.0259708 0.173567 0.0891832 0.00424559 -0.181811 -0.170653 0.231201 0.115232 0.158012 0.124038 0.00948647 0.208016 0.128826 -0.0445765 -0.344423 -0.0339004 0.0180619 0.313065 -0.20364 0.143333 0.143156 0.00471195 -0.0967495 0.0566625 0.0678553 -0.171907 0.0252723 -0.0739329 0.155913 0.0272009 0.00234176 0.0576409 0.146436 -0.173315 0.201351 0.258061 0.0390362 -0.147289 -0.140204 -0.107937 0.180628 -0.0267565 0.140257 0.0877772 0.0725893 0.0259856 0.183577 0.295837 -0.0141257 0.0909138 -0.184517 0.0472593 0.211971 0.261518 0.231033 0.021292 0.158384 -0.142345 0.207008 0.141906 -0.123838 -0.00756558 0.208263 -0.219668 -0.063292 0.13604 0.191335 -0.0164323 -0.0235093 0.201171 0.163347 -0.164331 -0.0338502 -0.258245 0.14433 -0.0339011 0.206351 0.158359 0.107742 0.153602 -0.0132578 -0.0311104 -0.0160626 -0.0993144 0.0274829 0.460355 0.158865 -0.0143579 -0.180269 -0.0972462 0.00433244 -0.143587 -0.0211004 0.035351 -0.0545096 -0.144954 -0.0634537 -0.10179 0.0818678 -0.0269578 0.380555 -0.000404799 -0.0953302 0.18352 -0.011467 -0.155733 0.0014112 -0.0454031 -0.251759 0.234513 -0.0557715 0.12848 -0.125074 -0.0220023 -0.176753 0.159396 -0.118867 -0.196239 0.10824 -0.00609171 0.319836 0.0857532 -0.0553991 0.0883291 -0.141517 0.089642 -0.244992 -0.176812 0.0571895 -0.0208291 0.0112815 -0.0935936 -0.139167 -0.0649615 -0.0257182 -0.0223427 0.254071 0.190502 -0.181784 -0.152593 -0.0228608 -0.130832 0.108515 0.0689072 -0.027632 0.106687 -0.278439 -0.048056 0.0380703 -0.032032 -0.0673538 0.106734 -0.120408 0.0204242 -0.0616158 -0.0164944 -0.0306851 -0.0934251 0.185235 -0.0859967 0.268885 -0.00517662 -0.0286946 0.123412 0.181929 -0.213015 0.358573 0.131986 0.167058 0.0349889 0.138892 -0.0293866 0.171049 -0.192007 -0.199813 -0.176414 -0.0497557 -0.0727968 0.0534102 -0.117114 -0.222291 0.00162908 -0.0786553 -0.24365 0.186979 0.124594 -0.0742916 -0.0359557 -0.07899 -0.0782392 0.0697858 -0.215048 -0.076425 -0.17749 -0.086162 0.0932527 0.240847 0.159544 0.082689 0.0783577 -0.0590471 0.0423393 0.0887941 -0.153552 -0.0305913 0.225752 -0.411301 -0.040136 0.0147384 0.279755 0.121457 -0.143947 0.107057 -0.0687988 0.116897 0.106181 -0.00140192 -0.110879 -0.0295032 -0.0537948 0.0116162 0.0990786 0.285717 0.0120572 -0.133442 -0.07518 0.065548 -0.10339 0.0775507 0.1281 -0.0800238 0.0349232 0.184543 -0.0255368 0.0339994 0.151148 0.216856 -0.19026 -0.0134603 -0.0595831 -0.0291041 -0.339572 -0.0723684 -0.210019 -0.0244163 0.180691 0.215408 -0.173591 -0.0935183 -0.0103974 -0.151117 0.0208681 0.224838 0.0304303 -0.325968 0.0752282 -0.0954343 0.0133458 0.209672 -0.0537717 -0.147006 -0.0847245 -0.139382 0.00851765 0.0556124 0.157564 0.328213 0.177273 -0.0463727 -0.0705406 0.0841706 0.0999159 0.0959415 0.154457 0.125315 0.0294454 -0.12509 -0.12234 0.373257 -0.250139 -0.280865 0.0360352 0.0466951 -0.170881 -0.282919 -0.115527 0.103183 -0.104711 0.0290749 0.0782298 0.0113409 0.101116 0.196219 0.0631023 0.0674072 0.166682 -0.00627066 0.0433516 -0.382572 -0.0199043 -0.0342967 0.192782 0.0265401 -0.0404891 0.159688 0.177586 -0.0491402 0.0437119 0.0474133 -0.119426 -0.110123 -0.00978498 0.0338561 0.000369438 -0.0699547 -0.0474204 0.260759 0.0564882 0.0628936 -0.0902584 -0.135187 0.18356 -0.0314787 0.103511 -0.147991 -0.0302493 -0.0325642 0.0996086 -0.283921 0.00548528 -0.0210027 -0.274958 0.0760621 0.183203 -0.187474 -0.236853 -0.142818 -0.0209093 -0.2358 0.0663424 0.0825441 0.118186 0.234173 -0.0285042 -0.0534126 0.200598 0.118315 0.127298 -0.150048 -0.138831 -0.029788 -0.154995 -0.0512951 -0.265218 -0.0997334 0.198199 -0.186069 0.0362178 -0.137927 -0.113682 0.277198 0.122341 -0.0249745 0.137464 -0.0798336 0.183433 -0.0218944 -0.165308 0.150047 0.00590507 0.0508058 -0.0710168 -0.0301752 -0.197392 0.0976454 0.0232846 0.0857563 -0.14354 -0.0286245 -0.238948 -0.0787641 -0.172784 0.0156671 -0.00649396 0.277837 -0.194027 0.0377271 -0.144589 0.146087 -0.20899 0.0882724 0.118261 0.0884531 0.0478193 0.184489 -0.153876 0.194627 -0.0083175 -0.120448 0.198237 0.168542 0.278938 0.035861 -0.134321 -0.214057 0.150201 -0.0339594 0.0403646 0.0770324 -0.0522088 -0.168715 0.0313469 -0.0147994 0.16141 -0.27432 -0.131402 -0.138736 -0.0035828 0.0591681 -0.166388 0.132953 0.150019 -0.186492 0.116818 0.225289 0.040264 -0.0645662 0.0522629 -0.27002 0.0271882 -0.109751 -0.0362697 0.0679596 -0.244335 0.0882601 0.00554443 0.0522377 0.170951 0.0523959 -0.104501 0.0209243 -0.229113 -0.169431 -0.18795 0.241337 0.0922286 0.0916025 0.0402773 -0.0952987 -0.0144481 -0.0694781 -0.0269238 0.11724 0.0327101 0.0200765 0.0237638 0.107489 -0.124866 -0.0658512 0.219018 0.181308 -0.0528296 -0.198028 0.0353591 -0.119043 0.142335 -0.120631 0.132025 -0.0482412 0.0751064 0.0245682 -0.11261 0.128139 0.121218 0.0446297 0.167823 -0.155094 0.22135 -0.0199785 -0.0113788 -0.104051 -0.0490125 0.0144326 0.0643514 -0.00865075 -0.354571 -0.109616 0.206194 -0.0425776 -0.11384 -0.207693 0.392538 0.0557788 -0.0766341 -0.156436 -0.177473 -0.11868 0.196762 -0.048406 0.143294 0.133134 0.138911 -0.0455094 -0.141078 -0.276883 0.0350419 -0.0136386 -0.0552143 -0.147261 -0.0157351 0.0180288 -0.138688 0.00255395 0.0892452 0.117541 -0.109213 0.149865 -0.0255019 -0.0725723 0.062615 0.0201311 -0.360326 -0.124484 -0.220417 -0.238526 -0.0067104 0.219097 0.0730026 0.204724 -0.0148449 0.100121 -0.00601552 -0.143875 0.019324 0.124454 0.130609 0.0543459 0.161286 0.166735 0.258651 0.0662965 0.15477 -0.118922 -0.028427 0.0101164 0.0252638 -0.133344 0.105439 0.0376767 0.167889 -0.13105 0.179311 0.0626312 -0.0557613 -0.261528 0.198172 0.0759414 -0.0934474 0.231078 0.0912102 0.0313583 0.0234765 0.227905 -0.00747672 -0.239282 -0.100422 -0.173765 -0.0886207 0.228878 -0.0824455 0.0981005 0.120703 -0.152471 -0.00351875 -0.0570925 -0.079376 -0.300953 -0.240743 0.42222 0.0440749 0.0817016 0.0137944 0.159797 -0.133766 -0.238498 0.0925505 0.0848408 -0.224386 -0.095033 -0.273583 -0.285582 0.0929524 -0.0142153 -0.112955 -0.10313 -0.105803 0.082466 0.0105466 0.128999 0.203779 0.147148 0.0188545 0.0132761 -0.16938 0.0791825 -0.0326125 -0.0431907 -0.197454 -0.197121 -0.225162 -0.0670011 0.0622923 0.0178636 -0.140093 0.164571 0.0557186 -0.165384 -0.089479 0.072006 -0.181721 0.180377 0.13161 -0.0918053 0.24251 0.117456 0.142054 -0.100801 0.14158 -0.122856 0.0929524 0.0227196 -0.0753488 -0.0378615 -0.10001 0.0348786 -0.213807 0.165114 -0.293609 -0.0795514 -0.14222 -0.128593 0.10222 0.0946447 -0.262891 -0.261381 0.113608 -0.115749 -0.0921595 -0.136407 -0.191929 -0.00914722 0.0295936 0.302255 -0.287467 -0.0593829 -0.0446667 0.211299 0.169456 0.32103 0.0289924 0.162665 0.0544133 8.07177e-05 -0.103254 0.038437 -0.0205284 0.0532916 0.147665 -0.0934779 0.00910562 0.0396918 -0.197647 0.0285581 -0.0294057 -0.161398 0.0362347 0.0873642 0.0807821 -0.0423762 0.163034 0.0576287 0.0418594 0.274652 -0.000419192 0.0106456 -0.0756527 0.161278 -0.0280684 -0.074194 0.097695 0.191607 0.41518 -0.309253 0.227411 -0.0230731 0.048422 0.209967 0.0850062 0.110445 0.116998 -0.125571 0.0907952 0.0469713 -0.094809 0.356536 -0.039598 0.114837 0.0676303 -0.0514918 0.0726639 -0.0822599 0.142601 0.0133684 -0.197804 -0.0203244 -0.260042 0.219589 0.0616582 0.0140483 0.172261 -0.0303166 -0.0542084 0.212895 0.0581156 -0.0662341 -0.194093 0.187966 0.0674048 0.0556717 0.064365 0.35719 0.178273 0.0427505 -0.0867143 -0.0700331 -0.19568 -0.0323917 -0.196661 0.200795 -0.217017 -0.0261354 -0.036343 -0.0949949 -0.101839 0.14284 -0.249989 0.0405394 -0.215413 -0.166567 0.0432948 -0.169346 -0.144894 0.198971 -0.222125 0.0481199 0.0527193 0.115746 -0.0609819 -0.334336 -0.0899451 0.0210334 -0.0102696 -0.0409086 0.233479 -0.343397 -0.103576 0.0829179 -0.0331675 -0.0407677 0.00363245 0.151362 -0.00432654 -0.176266 -0.131289 -0.161214 0.284169 0.0241687 -0.0599037 -0.146464 0.0425992 -0.0139985 0.0870491 0.0700319 7.91023e-05 -0.0647193 0.114125 -0.223512 -0.247171 -0.0184949 0.145089 0.00909964 -0.222635 0.140562 -0.0733651 -0.216002 0.310838 0.0712022 -0.137752 0.244115 0.163099 -0.108209 -0.0368181 0.0533643 -0.0178863 0.0610087 -0.0814023 0.104386 -0.244238 -0.0985154 -0.113863 0.0405159 -0.0578779 0.0700592 -0.0918415 -0.00796127 -0.0339167 0.170959 0.0729635 -0.098399 -0.0215908 -0.194242 -0.0314258 -0.146445 -0.129915 -0.000961926 -0.174823 -0.118967 0.0539035 -0.163157 0.14614 0.186622 -0.0786019 -0.0831009 -0.0580821 -0.107576 0.0735583 0.0562471 0.322113 -0.141302 0.0453717 -0.126876 -0.130037 0.268188 0.0167219 -0.0391799 0.0794724 -0.337111 0.114494 -0.104637 -0.202631 0.0819122 -0.0649792 0.117405 -0.129141 0.0519301 0.110987 -0.0204292 -0.119536 -0.0715975 0.185057 0.105986 0.0674055 -0.192044 -0.275284 0.124241 -0.0232307 -0.0575137 -0.0587555 0.29758 -0.0838409 0.326289 -0.115523 0.109854 0.273129 -0.0685896 0.0945213 -0.188555 0.18708 0.0411138 0.124871 0.0513706 0.0480696 0.0954743 0.0246415 -0.0996435 0.119 -0.0333929 0.112623 -0.0287131 -0.0812566 0.14341 -0.241091 -0.17962 -0.0734604 0.136763 -0.183131 -0.0835867 0.161868 -0.120681 0.144843 0.299382 -0.0410627 0.00312018 0.0961316 0.0126499 0.0264749 0.159595 -0.0525332 -0.200419 0.0118397 0.155572 0.191994 -0.0167053 -0.220197 0.13895 -0.0987002 -0.209407 0.147847 0.0974051 -0.116027 0.102199 0.271101 0.0875542 0.16933 -0.0822198 0.275928 0.0614883 -0.0947804 -0.074933 0.311618 0.00318467 0.310227 -0.0306006 -0.0503134 -0.184959 -0.0434423 0.0193358 0.216628 0.172778 -0.0655381 0.16402 0.219794 0.0607945 0.0127891 0.0559333 -0.242466 -0.183715 0.106048 -0.0663263 -0.194872 -0.0274014 -0.0621292 0.0996637 -0.021543 0.122725 -0.00545706 -0.0729223 0.117326 -0.165874 0.108824 -0.179866 -0.00940565 -0.229146 0.218189 -0.132792 -0.0406454 0.249951 0.0973682 0.0105253 -0.345729 -0.0141329 0.097806 -0.0140682 0.0205303 0.0713175 0.0123404 0.0471765 0.176404 -0.132954 -0.0766937 -0.00800986 -0.053404 -0.00130051 -0.270942 0.0547354 -0.056353 0.0669139 -0.141667 0.270538 0.026104 -0.00496651 -0.204474 0.0747162 -0.153148 0.112898 0.129625 -0.211546 -0.0632929 0.0892743 0.220663 -0.0491624 -0.0669025 -0.145343 -0.0176098 -0.00122627 0.0109885 0.00516744 -0.0956778 -0.155732 -0.0111131 0.244302 0.0182479 -0.10494 -0.057283 0.138173 -0.275801 0.481479 0.205964 -0.00160238 0.0402364 -0.243365 -0.134865 -0.161654 -0.0131406 -0.201127 0.107525 -0.0489468 0.24422 0.218991 -0.141525 -0.00301434 0.23917 -0.0440134 -0.0353484 0.0345672 0.170229 0.116832 -0.0154499 0.0996331 0.0152296 0.0612469 -0.047522 0.238809 0.124417 0.0885907 0.105336 0.0744063 0.0904475 0.105408 -0.019631 0.0248056 0.199046 0.121331 0.212141 0.191546 0.197581 0.0389326 -0.038147 0.0981313 -0.0272706 -0.106052 -0.0315717 0.090156 0.16049 0.0278061 0.0526525 -0.138962 -0.113897 0.174508 -0.206393 0.0255736 -0.171093 -0.187632 -0.143389 -0.0949527 0.014595 0.118648 -0.0014912 -0.0503519 0.139901 0.0633142 -0.201224 -0.0228423 -0.48189 -0.0197956 0.153694 -0.116271 0.105243 0.0140463 0.0756023 -0.0124591 0.0754648 0.00181216 -0.165404 -0.356392 0.117479 -0.0749179 0.0951456 0.174789 -0.266653 0.146693 -0.125442 0.0556919 -0.112858 0.0134919 0.320407 0.255354 0.0874014 0.0421223 -0.0654498 -0.135397 -0.169792 0.135073 0.150653 0.234552 -0.182409 0.0584623 0.0306691 -0.0220152 -0.0127694 -0.197847 -0.251831 0.236158 0.17629 -0.173002 -0.0819147 0.0372488 -0.278018 0.0784774 0.0393577 0.222396 0.0362262 -0.0762925 -0.0268003 0.181588 0.158023 -0.0173704 0.0818232 0.0386543 -0.0733913 -0.173129 0.0910167 -0.198374 0.0282645 -0.188792 -0.0368965 0.0952888 -0.157319 0.194559 0.0599336 0.0610532 0.00386181 -0.114238 0.17011 -0.0140822 0.194931 0.251859 -0.144622 0.01502 -0.0789118 -0.144939 -0.014081 -0.172158 0.0104321 -0.112462 -0.119979 -0.181153 -0.288688 0.0665963 -0.0266328 -0.236496 -0.00579252 0.0108447 0.103456 0.0442046 0.149147 -0.150243 0.0464855 0.186623 -0.0982376 0.026178 -0.0310988 -0.0745192 -0.0751906 -0.0535179 0.0223305 0.170717 -0.231267 0.238134 0.0252119 -0.38006 0.0141498 -0.309523 0.112736 0.207241 0.079913 0.0558736 -0.019723 -0.255712 0.0255419 -0.0142478 -0.118949 -0.047511 0.079476 0.00340489 0.0252782 -0.178375 0.0313066 0.146128 -0.0642943 0.201068 -0.0334801 -0.0398414 0.159455 -0.0114146 -0.106639 -0.308667 0.0418354 -0.113766 0.158152 0.198842 0.0337777 -0.107721 -0.107595 0.00375722 0.103354 0.00580932 -0.2417 0.137106 0.0706042 -0.000581489 0.139271 -0.0616641 0.231543 -0.104798 0.122586 0.0373768 -0.123225 -0.216402 -0.0236404 0.171349 0.0333499 -0.083228 -0.185774 0.0877175 0.130005 0.126681 0.0367618 -0.172257 -0.0734504 0.0212712 -0.0544045 0.228713 -0.0561797 -0.186779 0.0300494 0.0368378 -0.0832415 -0.0654212 -0.101434 0.113377 0.273061 -0.0445781 0.0563972 0.0823151 -0.0805466 0.110062 -0.0293164 -0.163454 0.0300273 0.202288 0.0681076 -0.14681 -0.0336755 0.10688 0.173716 0.0327898 0.300884 0.217073 -0.145236 -0.0944842 -0.216893 0.0292704 0.0447655 -0.128716 -0.338678 0.0968646 0.111064 -0.148994 0.0599746 0.275124 -0.125056 0.0512046 -0.163064 0.103564 -0.205046 -0.159002 -0.0662157 0.0919919 -0.0424892 0.00838401 0.000757926 0.0109848 -0.0208217 0.0266831 -0.102022 -0.0155316 -0.053058 0.0745054 0.0624714 -0.185817 0.0826301 0.00420695 0.000632299 -0.0565367 0.043755 0.0666547 -0.074186 0.0311683 -0.0999464 -0.0756882 0.254073 -0.20466 -0.165865 0.0577753 0.103295 -0.0725093 0.0418882 -0.206675 0.23876 -0.162632 0.302076 -0.0371113 0.186629 -0.358168 -0.131464 -0.0464126 0.208017 -0.225217 -0.0314665 0.188591 0.0451699 -0.0503341 0.161596 -0.0734248 -0.445004 0.147125 -0.0299107 0.00346794 -0.195395 -0.0760979 -0.175094 0.0930102 -0.0011521 0.164093 0.204129 0.0468318 0.123187 0.0145569 -0.0350861 -0.0856033 -0.241985 -0.337937 0.0902901 0.0173061 -0.0209157 -0.00401111 -0.0205941 -0.0524436 0.0013289 -0.0620939 -0.134132 0.0595697 -0.195721 -0.134588 0.142246 0.0238661 0.230001 0.00860451 -0.0670404 0.17056 0.0615256 -0.014939 -0.0105207 0.257262 -0.138363 0.190616 -0.224732 0.0371279 -0.105744 0.156787 -0.0452762 0.137813 0.201079 0.175445 -0.104178 0.0925076 0.244394 -0.218662 0.0441234 0.1676 0.109734 -0.207829 -0.187663 -0.0873037 -0.0590195 0.0567331 0.165524 0.0715916 0.10407 -0.115794 0.12057 0.0352182 -0.182128 0.0334525 0.166251 0.00169698 -0.300298 -0.0940128 -0.108446 -0.0408803 -0.259113 0.0478563 0.268884 0.0807272 -0.10529 -0.00552906 0.275775 -0.170243 0.072679 -0.114312 0.177168 0.0149355 0.118534 -0.224749 0.00995004 -0.00392618 0.0413461 0.215308 -0.122936 -0.134623 -0.0429538 -0.0755202 0.257756 -0.158706 0.0743024 -0.0741681 -0.17052 -0.0898118 0.0395595 -0.122265 -0.039445 0.057308 -0.0894198 -0.407912 0.144653 -0.0116831 0.105274 -0.0693212 -0.00493316 -0.0490529 0.104051 0.0355577 0.318416 0.207051 0.127822 -0.0275897 0.133659 0.166639 -0.183448 0.221447 0.0700462 0.0302809 -0.0280301 0.165664 0.193043 0.190675 0.101313 -0.0805543 0.306694 -0.0246799 0.127314 -0.0429894 -0.0522533 -0.061604 0.00660027 0.0718422 0.0772197 -0.08336 0.0577749 -0.124159 0.0730892 -0.275393 0.195647 0.0195823 0.107535 -0.0115002 -0.115404 -0.0899401 -0.300356 -0.122659 0.175004 0.216297 -0.117165 0.069786 0.0860062 -0.199659 0.123686 -0.0841762 -0.0501195 -0.0228916 0.14272 0.0706967 -0.0206181 0.348085 0.0109798 -0.319277 -0.0169197 -0.0110683 0.11896 -0.0804484 0.0344129 -0.000354712 0.0358606 -0.035276 -0.151291 -0.187254 0.0878372 -0.0941566 -0.0680295 -0.273068 -0.0354646 -0.257282 -0.0466183 -0.155973 -0.192214 -0.0153361 0.152981 0.107079 0.108817 -0.140138 -0.163628 -0.103454 -0.0947336 0.198443 0.203423 0.164053 -0.0491706 -0.154497 -0.0238634 -0.100469 0.185103 -0.0788893 0.0258179 0.0609749 -0.209633 -0.0828188 -0.129745 -0.121873 -0.117185 -0.0441023 0.29414 -0.133307 0.0296345 0.036474 -0.470368 0.0285402 -0.24437 -0.168594 0.225758 -0.00615923 -0.0627932 -0.119634 0.0864532 0.0282381 -0.0125792 0.0178041 0.0639407 0.00107668 -0.0965768 -0.086999 -0.0442442 -0.0788291 -0.142288 -0.306889 -0.00330082 -0.288978 0.0497695 0.00684465 0.100658 0.0473997 -0.160368 -0.0183943 -0.016547 0.199156 -0.0902362 -0.0860952 0.192658 0.0207912 -0.208303 -0.0538601 -0.00490574 0.0522799 -0.0223674 0.0738323 -0.172084 0.00817513 -0.0296049 0.148251 0.178097 -0.126161 0.0240578 -0.0697054 -0.316368 -0.0958727 0.0278628 0.288551 -0.102765 -0.172017 -0.205336 0.0784733 -0.327195 0.180942 -0.0684064 -0.261782 -0.253754 0.065475 0.137655 -0.0912837 0.216822 -0.118409 0.239183 -0.0478752 0.0899321 0.188194 0.0291369 -0.117141 -0.0502982 0.0190913 -0.170464 0.162808 0.0634283 0.229849 0.184668 -0.155952 0.0243928 -0.315099 -0.00729812 -0.337247 0.0903961 0.00673755 -0.000780836 0.0287686 -0.0115531 0.119518 -0.0220651 -0.00337951 -0.00878724 0.0555093 -0.0196825 -0.0014173 -0.0664089 0.0842131 0.0912861 -0.149053 0.0220739 0.0854438 -0.0885617 -0.157522 -0.013507 0.122364 0.211466 0.0557039 -0.0181143 0.0924069 -0.0606403 -0.0478913 -0.150173 -0.161772 0.0400569 -0.00219569 0.1521 -0.22519 0.0519777 0.0394069 -0.0809081 0.230681 0.187093 0.0390793 -0.0942581 -0.0675908 0.0737016 0.268865 -0.0709713 -0.00888421 -0.0365337 -0.0813018 0.00822835 0.105418 -0.0240315 -0.112959 -0.193862 -0.229891 0.332713 0.198338 0.154335 -0.0358567 -0.117706 0.162031 0.0722985 0.0509517 0.214957 0.0175261 0.110501 -0.14256 0.226751 0.158079 0.0127112 0.0247809 -0.0600543 -0.0744755 -0.0732748 0.150896 0.0493751 -0.115306 0.0122465 0.174876 0.161409 0.229655 0.0960694 -0.115702 0.215662 -0.126958 0.0440632 0.144782 -0.0339596 -0.12089 0.233701 -0.128993 0.131198 -0.13092 0.130463 -0.263582 -0.166901 -0.124323 0.0180335 0.334016 -0.0139633 -0.175849 0.257827 0.0212356 -0.0838642 -0.106361 -0.174948 -0.286514 -0.144564 0.098072 -0.00667052 -0.000252629 -0.0654623 0.0178867 -0.168738 0.132724 -0.188868 -0.0880853 0.0861246 0.177918 0.0273856 0.185063 0.097238 0.0573149 0.0198705 0.138794 -0.0879303 -0.143683 -0.00168901 0.163261 0.282779 -0.193456 0.0360942 0.0720612 0.0205939 0.00528787 0.130639 0.140889 -0.153048 0.106097 0.170956 -0.248128 0.102342 -0.0496989 0.213506 -0.0610296 0.037609 0.0745579 -0.309793 0.138104 -0.143188 0.261618 0.0127502 -0.0762466 -0.182519 0.00365106 -0.0942073 -0.0112293 -0.0167196 0.0114451 0.106411 0.227665 0.052006 -0.0428409 0.0320925 0.017378 -0.123342 0.0801901 0.0736518 -0.102536 -0.128245 0.114889 -0.241943 -0.0423762 -0.0551044 -0.0411272 0.103368 -0.0871641 -0.236014 -0.298022 -0.0455557 0.0619531 -0.191894 -0.0131761 -0.170284 -0.340013 -0.0125761 -0.0342553 -0.146983 -0.152657 -0.0758778 0.0090232 -0.179445 0.108333 -0.0940767 -0.107776 0.160489 -0.0415416 -0.126571 0.200997 0.0626799 0.125574 -0.13547 -0.0342635 -0.235117 -0.179497 0.254555 0.0186151 0.0819846 -0.0396544 -0.246539 0.0725329 0.137716 0.0626433 0.0542742 0.246745 0.0763763 -0.0172165 0.00219622 -0.163068 -0.0302894 -0.20747 -0.129831 -0.0975026 0.154454 -0.0181509 0.0745442 0.116885 -0.0238093 0.108484 0.277401 0.199976 -0.101854 0.0710187 -0.439415 0.176121 -0.0641865 0.00760272 -0.0522728 -0.141622 -0.182815 0.0230782 0.31465 -0.0491134 0.072718 -0.211938 0.0164542 -0.265083 -0.172231 0.0974891 -0.0856318 -0.0972436 -0.266964 -0.00214629 -0.126939 0.00450417 -0.0442358 -0.175399 0.204465 0.0408442 -0.217839 0.0441963 0.0248671 0.11229 0.118083 -0.184603 -0.051474 -0.0543634 -0.0291534 -0.180442 -0.226201 0.15716 -0.0999151 -0.0831853 -0.148508 -0.166467 -0.0880548 0.0628349 0.0961474 0.00662285 -0.110801 -0.161993 -0.0260181 0.00268597 -0.114171 0.0965411 0.0672725 0.122049 -0.119612 0.248289 -0.102828 -0.0694853 0.0860596 -0.1938 0.0435373 -0.417834 0.0682052 -0.0786676 0.0667413 -0.0838634 0.0775131 -0.291829 -0.186059 -0.354391 0.0547944 0.314829 -0.150801 0.00257794 -0.00294968 -0.249167 -0.0571198 -0.0267616 -0.136639 0.0734209 -0.0962592 -0.125845 -0.123975 0.0821318 0.179675 0.0169417 -0.0189906 -0.213933 0.0715602 0.0730614 0.150515 0.100557 0.0869047 0.00924452 0.132246 -0.0473622 -0.160365 0.0183854 -0.0339351 -0.183403 0.00369717 -0.186873 -0.0209981 -0.0770972 0.0975957 -0.189597 0.0421932 -0.1503 -0.049511 -0.00338547 -0.0849736 -0.279573 -0.145735 0.151756 0.0453775 -0.0468114 0.10817 -0.096041 0.0988733 -0.118427 -0.169648 -0.130941 0.0505645 0.124123 0.151936 -0.333766 -0.256628 -0.196816 0.0961059 0.21626 -0.0181519 -0.0390639 0.205108 0.251419 -0.135061 -0.135302 -0.0146599 -0.186038 -0.281193 0.0873519 0.0502945 0.0970658 0.166615 0.117329 -0.0113259 -0.0729589 0.00543773 -0.112435 -0.0686301 -0.0376816 0.0377042 -0.0143759 0.0663045 -0.0608514 -0.145144 -0.10669 0.169586 0.0587667 0.0291654 0.0281965 -0.0224792 0.307895 -0.148152 -0.0515063 -0.212246 -0.104796 0.412459 -0.0817365 -0.199722 0.25621 0.251864 -0.178713 0.0368721 -0.119229 -0.0423659 -0.0928956 -0.0846145 0.0133037 0.0334384 0.059738 0.276331 -0.134244 0.0293602 0.00382167 -0.151056 0.0723522 0.29217 -0.0537678 -0.157592 0.0460786 -0.118624 0.0717628 0.210664 -0.0331189 -0.242987 0.112739 0.219388 -0.310425 -0.0600586 -0.182003 0.221703 0.153912 0.183025 0.19714 -0.108732 0.0635159 0.01534 -0.115563 -0.0214433 0.104598 0.127121 0.0838056 -0.0734722 -0.0888439 -0.354816 -0.0350568 0.0146898 -0.0315193 -0.110601 -0.0719808 0.134502 0.0905412 0.0233154 0.107822 -0.282562 -0.0657627 0.0380937 -0.242951 0.0587858 -0.00461964 -0.244738 0.146788 0.0599347 0.173639 0.0131192 -0.0123592 0.0541204 -0.0188591 0.0211181 -0.0369253 0.141756 -0.0359636 0.19559 0.149943 0.151034 -0.216417 0.207299 0.0797993 -0.0776499 0.115903 -0.0531869 -0.0412671 0.131277 -0.00986072 -0.175034 -0.014671 -0.0989447 -0.305496 -0.107891 -0.235843 -0.00157037 -0.131787 0.182656 0.00981391 0.0768194 0.201559 -0.277418 0.103073 -0.197407 -0.0870654 -0.317003 -0.109712 0.0420865 -0.146244 0.108078 0.173927 0.0842521 0.0918479 0.252085 0.0894286 0.0763281 0.127066 0.102034 -0.00643781 -0.177636 -0.0901857 -0.229115 -0.241515 0.0895801 0.113105 -0.0350291 -0.279434 -0.195814 -0.189783 0.123987 0.307402 -0.0101107 -0.0744298 0.0493857 0.0561784 0.0401874 -0.126328 0.0754075 0.245639 0.159304 -0.0385097 -0.0828823 0.228621 -0.156399 -0.0269758 0.10055 -0.202805 0.0918179 0.179447 -0.286848 0.175776 0.132518 -0.155329 0.168732 0.0372671 0.0542983 0.200778 -0.200694 -0.00335842 -0.0198008 0.0219026 0.111743 -0.203769 0.0871858 -0.130903 0.0489223 0.0630415 0.0679639 -0.0540264 0.113693 -0.0560146 0.114957 -0.00490762 -0.0524508 0.0203681 0.0384297 -0.0549882 -0.378812 0.00124578 0.177354 0.300968 0.134752 0.028808 -0.15564 -0.201944 0.119049 -0.076161 -0.0219438 0.149485 0.103951 0.00795227 -0.0757668 -0.0350083 0.129697 0.0367737 0.161029 -0.0526372 -0.0990864 0.106535 0.126918 -0.0483072 0.231739 -0.126248 0.0821862 0.114622 0.17657 -0.0887161 -0.123095 -0.172832 -0.0396291 0.0540376 -0.0855964 0.116948 0.0153689 0.0746094 0.0938961 -0.0375827 -0.226867 0.145857 -0.110722 -0.0470113 -0.114458 0.20871 -0.195632 0.10981 -0.196648 0.238215 -0.0475652 -0.241698 0.0938197 0.116475 -0.136549 -0.0824837 -0.174973 0.0420873 0.0861895 0.102332 0.262548 0.15975 0.189995 -0.114708 -0.0537131 -0.149046 -0.294962 0.184091 -0.0174857 0.303753 0.0883153 -0.18659 -0.17787 -0.00839013 -0.00664793 -0.102165 -0.0717043 -0.0487542 0.0859361 0.160627 0.253537 -0.0399231 0.184985 0.2711 -0.0433998 -0.118299 0.105937 0.0331701 -0.0474883 -0.250094 0.0347971 -0.00664747 -0.0415819 0.0879788 -0.0272318 0.00970219 0.248765 -0.376767 0.104838 0.0637162 0.114095 -0.111511 -0.164167 0.141596 -0.0537163 -0.188696 -0.0697911 0.0881174 0.131226 0.0428139 -0.286128 -0.0505366 0.238278 -0.123017 -0.10809 0.037335 0.0343679 0.0144459 0.0194417 -0.122325 0.00809357 0.0349307 0.176512 0.0260783 0.0900037 -0.0807957 0.193544 -0.0629778 0.108157 -0.190112 -0.0644922 -0.0205949 -0.0556117 -0.157418 0.0630922 0.16332 0.169001 0.0425908 -0.126274 -0.154337 0.134405 -0.0814944 0.13089 -0.248293 0.195472 0.0458142 0.081276 0.0892572 0.0480009 0.0490245 0.123876 -0.195736 -0.202053 -0.0859502 -0.132468 -0.0120796 0.0802592 0.11083 -0.133543 0.120841 -0.112588 -0.0860918 0.0939246 -0.0815866 -0.266287 -0.0362721 -0.0841258 0.0842331 0.0489849 0.141172 0.0223724 -0.0986909 -0.166222 0.0120013 0.141111 -0.0253226 -0.134204 0.10316 -0.0885794 0.0453458 -0.00513011 0.0944669 -0.192066 0.0414962 -0.126175 0.0991799 -0.0572039 0.000117283 0.146592 -0.202189 -0.0117489 0.186992 0.0582894 -0.199278 0.104705 -0.0225944 -0.083589 0.163474 -0.237323 -0.11266 0.0855677 0.306103 -0.407279 0.187624 0.170958 0.177181 -0.017911 0.0611575 -0.0409939 0.162938 -0.307098 -0.0956624 0.088045 -0.0512366 -0.0434349 -0.316698 0.0160586 -0.253291 -0.133745 -0.219488 -0.0108875 -0.0393998 -0.161768 0.17994 0.125239 0.22592 0.0895011 -0.0321118 -0.160014 0.0919182 -0.184395 -0.0292746 0.21682 0.0830048 -0.121311 0.0758505 -0.0729708 0.118085 -0.196174 0.0728067 -0.117486 0.13558 0.093199 -0.193962 -0.00277234 -0.139026 -0.203959 0.140755 -0.0889244 0.124656 0.127794 0.0020913 0.148368 0.168479 -0.161913 -0.151586 -0.00628077 0.264637 0.31186 0.083377 -0.172317 -0.104558 0.135876 -0.0160256 -0.123527 -0.249701 -0.386098 -0.0419852 0.186952 0.254709 0.123536 -0.430056 0.0157069 0.0357091 -0.0478669 0.00579996 0.0764436 0.175628 -0.208939 -0.0944593 0.113123 0.150234 -0.0910719 0.00159359 -0.12497 0.018834 0.106625 0.126451 0.0316514 -0.214492 0.100873 0.139817 -0.0897899 0.268697 0.184195 0.156269 -0.222988 0.282865 0.0886847 0.189401 0.156499 -0.189724 -0.048934 -0.166866 0.0800198 0.223802 0.0859754 -0.13435 -0.0952805 -0.106321 -0.139824 0.0308301 0.0111915 -0.206066 0.0256213 0.0406207 0.0148147 -0.114949 -0.0556349 -0.0995891 0.273847 0.15828 0.0446859 0.0678883 -0.0476693 0.251257 0.234742 0.176876 0.0766396 0.225537 -0.0636323 0.0980466 0.112962 0.0229564 0.10811 0.0475128 -0.109313 -0.0210173 0.129627 0.168425 0.114183 -0.0194843 -0.307762 0.00953561 0.100681 0.0132655 -0.00415688 0.0698922 0.111053 -0.0358636 -0.0782662 -0.182873 0.100596 0.147168 0.140653 -0.0887165 0.190263 0.0989773 0.277051 -0.0398643 0.0621184 -0.0162855 0.24014 0.318762 -0.0938035 0.260604 0.0620619 0.0865366 -0.0845023 0.238053 0.00360956 0.161687 -0.0162072 0.036997 0.143781 0.093875 -0.100778 0.0658091 0.248507 -0.163669 -0.138783 -0.0451596 0.2577 0.0800538 0.0933034 -0.0733526 0.183398 -0.0323397 -0.15373 0.0966697 -0.0390316 0.0601315 -0.0833137 0.094419 0.06624 -0.0100349 0.0450638 -0.0656314 0.288232 -0.0377563 -0.0843433 0.0278705 0.0151638 0.100943 -0.216482 -0.089534 0.262901 -0.0909337 0.161559 0.124889 -0.102512 -0.0829649 0.00494997 -0.0997365 -0.135844 -0.0884238 -0.218517 0.100569 0.214326 0.0351931 0.366557 0.0255238 0.105137 0.00310777 -0.0223112 0.0111491 -0.205283 -0.0871899 0.189202 -0.00951563 -0.212878 -0.0587298 0.0657218 0.163671 -0.0016008 -0.18441 0.0943915 0.306847 -0.124133 0.0975343 0.213956 -0.0835085 -0.0194435 0.132976 -0.102791 0.0197699 0.129552 -0.0458963 -0.111083 -0.0805834 -0.0184226 -0.127318 -0.263146 -0.136685 -0.181615 0.00350931 0.0921644 -0.143788 -0.0354481 0.160296 0.0738763 -8.96366e-05 -0.282877 -0.0585008 0.0942885 -0.17172 -0.107395 -0.043508 0.0313865 0.0687255 -0.0970481 -0.11692 0.167607 0.201802 -0.0641848 -0.125697 0.161014 0.00223054 -0.198005 -0.105649 0.0421549 0.105826 -0.0103158 -0.0341209 -0.181108 -0.0811093 0.151368 -0.108967 -0.100445 -0.211492 0.0761804 0.0338357 0.184589 0.226187 0.05537 0.0101009 -0.181091 0.128495 0.220836 0.118229 0.173001 -0.177154 -0.202705 0.0343657 0.197766 -0.25462 -0.327101 0.13139 0.136246 -0.212932 0.29717 0.15386 -0.0850318 0.150207 0.00339436 -0.0767842 0.040446 -0.100122 0.209155 -0.0985161 0.278794 -0.20584 0.0561038 -0.124006 -0.0587379 0.00193808 0.16279 0.0131922 0.232295 0.12013 -0.0480883 0.0849658 -0.193214 0.1775 -0.126362 -0.0725642 0.106774 -0.13739 0.216976 -0.114947 0.0917455 0.103356 -0.0793011 0.077559 -0.114813 0.0409387 0.031897 -0.0144965 -0.129454 -0.0634095 0.221771 -0.129334 0.0833241 -0.137627 -0.143793 0.043691 0.213632 -0.179771 -0.0859936 -0.0681364 -0.12125 -0.327732 -0.000823817 0.0403524 0.060606 0.0317322 -0.301344 0.0539135 -0.0513989 0.0569396 0.0990939 -0.193042 0.0332012 0.231911 -0.0844528 0.00979546 0.00925596 -0.00598497 0.127897 0.17806 -0.229652 -0.183803 -0.156563 -0.171971 0.207758 0.205842 0.00855916 0.032363 -0.0903201 0.037898 0.254749 0.193937 -0.0185881 0.0241481 0.176661 0.146985 0.0167204 -0.291031 -0.0611993 0.0654826 -0.0267209 0.202949 0.0814141 -0.0469871 0.135389 0.050006 0.0131462 0.210318 -0.0178093 0.114201 -0.118087 0.183586 0.0973787 0.196365 -0.181022 0.0019694 -0.22816 0.0845036 0.288008 -0.234226 0.140434 0.138079 0.00504942 0.132058 -0.10938 -0.0241244 -0.0949891 0.00112784 -0.0571249 -0.0239621 -0.0675943 -0.329485 0.124804 -0.159971 -0.126644 0.0396193 -0.0490982 -0.0821005 -0.0116279 0.080477 0.137838 -0.183509 0.285688 0.211733 -0.113891 0.0764602 -0.105533 -0.162379 0.13178 0.0203732 -0.227188 -0.107991 -0.134504 0.0412859 0.0755232 -0.0601513 0.0915003 -0.145287 -0.0152628 0.0255836 -0.0475238 0.0141509 0.13731 0.182739 0.0240067 0.30771 -0.0156781 0.0481069 -0.000876275 0.0564712 0.0887781 0.0355199 0.239706 0.312801 0.179348 -0.151725 0.0285513 0.0448108 -0.00212692 -0.0503568 -0.277088 0.0718457 0.19242 0.15109 0.147339 0.273625 0.0468917 -0.121761 0.0722439 -0.125044 -0.0222351 -0.325358 0.00219049 0.106318 0.187549 0.0564245 -0.0718732 0.0521395 0.144227 0.0233299 0.08679 -0.00012897 -0.165301 -0.0812161 0.100651 0.105597 0.0981199 0.0401104 0.179544 0.0526696 -0.344403 -0.025024 0.187234 0.176087 0.0167008 0.0603129 -0.0190046 -0.183065 -0.136461 0.0550172 -0.00446161 -0.0518134 0.121615 -0.141104 -0.276636 0.0334466 -0.403883 -0.140361 -0.198511 -0.0722995 -0.0190578 -0.0717804 0.0170053 0.0428053 0.175248 0.0999377 0.21471 0.0699228 0.041865 -0.0775659 0.280162 0.282202 0.013705 0.111582 0.15072 0.101684 0.0817187 -0.127386 -0.104763 -0.133152 -0.0175469 -0.0902763 -0.00211134 -0.0562727 0.0981639 -0.145394 -0.250787 -0.186704 -0.0773495 -0.032768 -0.011672 0.200512 -0.156673 0.108987 0.0802742 -0.0650413 0.180849 0.216613 -0.235357 0.053903 0.0910075 -0.26535 0.0573824 -0.066079 -0.221115 -0.0485367 -0.0786334 0.19591 0.257206 0.119525 0.0534734 0.110427 0.065673 0.150279 0.15718 -0.245885 0.120122 0.15237 0.0855709 0.0664811 0.130332 -0.106707 -0.0758612 0.0264516 -0.0274975 0.349952 0.0293281 0.0936755 0.0725466 0.132843 0.0384285 0.174742 -0.139514 -0.0987099 0.175387 0.079667 0.0416659 0.205417 -0.198385 -0.00958966 -0.176607 0.0929344 0.102808 0.0246448 0.224154 0.339355 -0.13142 -0.0120998 -0.175088 -0.055631 -0.164129 -0.0154278 -0.0814958 -0.0927082 -0.108403 0.077665 0.0977322 -0.176801 -0.0802547 -0.0495094 0.0364774 0.120602 -0.251008 0.0207118 -0.0868312 0.110175 0.0895808 -0.0236432 0.162264 -0.131423 0.168057 0.0996816 -0.0846256 0.118577 0.220219 0.18091 0.0882815 -0.141183 -0.249324 0.0970944 0.158385 0.0384048 -0.0114028 0.131455 -0.1593 0.0779095 -0.203623 -0.0789811 -0.0403654 -0.061373 0.303597 0.041864 -0.272998 -0.113667 -0.0494504 0.200558 -0.0101497 0.158372 -0.29523 0.148402 0.163112 0.0230089 0.0444815 -0.12393 0.0820807 -0.0774143 -0.1192 0.193715 -0.202462 0.067133 0.287716 0.122985 0.0217471 0.177478 0.00209057 -0.0488254 0.0564602 -0.0325854 0.0356991 0.150667 0.0749094 -0.086177 0.236986 0.0941095 0.0958359 0.0372018 -0.0515806 0.204228 0.0538221 -0.051248 0.147188 0.0325397 -0.00204539 0.0805151 0.173302 -0.098262 -0.0518949 -0.0843964 -0.0570196 -0.135186 -0.264839 0.20906 -0.267132 -0.0670892 -0.106321 0.208734 0.406955 -0.0957464 -0.0145302 -0.0106154 -0.128532 0.115594 -0.255748 -0.0130419 0.189159 0.0302285 -0.0254877 0.164152 -0.215887 0.113227 -0.100754 0.160058 0.0297192 0.203532 -0.304579 -0.229809 0.0404496 -0.0812347 -0.223274 -0.00359584 -0.0494101 -0.0766015 0.111655 0.0695274 0.0882268 -0.276057 -0.0289911 -0.267603 0.0824351 -0.159031 0.139803 -0.12315 0.0966186 -0.0617364 0.164046 -0.148561 0.112675 -0.0721633 0.150328 0.119942 0.282247 0.148327 0.0504143 -0.282387 -0.23152 0.149634 0.150243 -0.197965 -0.217371 0.0294315 -0.110718 -0.0760279 0.047209 -0.202037 0.157868 0.050394 -0.158312 -0.00275222 -0.0278997 -0.109531 -0.0496323 0.071179 -0.0152874 -0.161002 0.128718 -0.169585 -0.0438438 -0.124612 0.130674 0.135173 -0.185485 0.0618014 0.107063 -0.0576355 0.0537218 -0.0452206 -0.147145 -0.0416335 -0.115722 0.00326323 0.081017 0.0694385 -0.0568011 0.0165538 -0.204366 0.148538 -0.0651093 -0.00682623 -0.0688771 0.134294 0.058162 0.0263832 0.0432382 -0.0161391 0.00863431 -0.261842 0.0091733 -0.119467 -0.0651175 -0.162983 0.166409 -0.0249325 -0.0979059 0.0706013 0.0995514 -0.141543 -0.256891 -0.218675 -0.154281 -0.122163 -0.144082 -0.179687 0.287676 -0.0388316 0.171217 0.205731 -0.151781 0.0390057 0.156231 -0.126029 -0.196823 0.237696 0.151222 0.231173 -0.138202 0.0524591 -0.105395 0.106189 0.245086 -0.053525 -0.359841 0.0342638 0.112353 0.136923 0.165226 -0.335936 0.131691 0.128459 -0.308764 -0.0509874 -0.10423 0.0666058 0.128443 0.172407 0.0368585 -0.102656 0.0526262 -0.131969 0.0680394 -0.104583 -0.05187 -0.143619 -0.209005 -0.15388 -0.280991 0.128266 -0.0555109 0.118705 -0.0365512 -0.0753389 0.112819 -0.0275276 0.189588 0.15777 0.0891878 0.108102 -0.168789 0.202737 -0.0600239 -0.014117 0.029457 0.0760418 -0.0833084 0.267074 -0.15297 0.199018 0.0952764 -0.228413 0.4538 -0.2033 0.161082 -0.0642319 0.130717 -0.0554714 0.00331534 -0.157587 -0.186397 -0.0519819 0.117883 -0.0760938 -0.015112 -0.253927 0.0915496 -0.139138 -0.0995913 0.0571697 -0.0213636 0.0496309 -0.0400462 -0.278032 -0.027008 -0.164831 -0.160067 0.227218 0.148844 0.0348978 0.0231074 -0.321645 0.181196 0.0328639 -0.265296 -0.0583698 0.216819 0.291315 -0.015181 0.178519 -0.0195455 -0.0444227 0.064741 0.0244127 0.117688 -0.0436124 -0.134658 -0.0580577 -0.0544643 -0.00418727 -0.0794789 -0.160859 0.0907089 -0.207805 0.115411 -0.11192 -0.0820715 0.239438 0.30473 0.173661 0.127542 0.0528623 -0.198318 0.167894 -0.102525 0.153177 0.166811 0.0838803 -0.0326882 0.143224 0.0374113 -0.0078922 -0.0205059 0.0522721 -0.0115008 -0.0639043 0.0736295 -0.13565 -0.0610418 -0.116189 -0.284794 0.046277 -0.219402 -0.0568569 -0.297804 0.0702422 0.0139822 -0.322637 -0.306842 0.0538661 0.211979 0.0154323 -0.0615085 0.100373 -0.236701 -0.130547 -0.00880966 -0.131278 0.00441387 -0.0295268 -0.010617 -0.0207089 0.00572501 -0.0108855 -0.267824 -0.193308 0.288659 0.0179683 0.0767773 0.126003 -0.105685 0.119082 -0.0758943 0.196734 -0.217799 -0.016269 -0.181529 0.150967 -0.0046109 -0.168318 0.232307 0.0589843 -0.178709 -0.0747789 0.045345 0.297395 -0.116151 0.138143 0.205514 -0.0417724 0.0442088 -0.128517 -0.032763 -0.0241275 -0.0823689 -0.261667 0.04101 0.115382 0.00492008 0.112784 0.0165406 0.208572 0.144474 -0.0969722 -0.14202 0.0644122 -0.0632895 0.227711 0.0142161 -0.196296 -0.0937283 -0.0182317 0.0422123 0.0883694 0.0143917 0.13678 0.1272 -0.215189 -0.0290596 0.0820771 -0.0520787 0.0530143 -0.0113183 0.0225408 -0.0764453 -0.0636465 -0.207609 0.234164 0.0837841 -0.111737 0.166494 0.134597 -0.0463909 -0.0680783 -0.304109 -0.188781 0.0623657 0.120228 0.154817 0.132479 0.0244019 0.00788971 0.0568272 0.168101 0.0328936 0.114089 -0.144147 0.216277 0.0417819 -0.0120027 0.157886 0.16217 0.00607904 0.23151 0.0484755 0.129021 -0.230852 0.0126278 -0.0991187 -0.00360186 -0.0974661 -0.127935 -0.15001 0.0662762 -0.437273 0.0677439 -0.017671 -0.257607 0.159003 -0.0935924 0.0958432 -0.0081606 0.189805 -0.326016 0.206465 -0.00390322 0.139141 0.0487073 0.0730075 0.0928578 0.206052 0.162201 0.197402 0.0149471 0.160062 -0.259628 0.154497 -0.0661988 0.00278121 0.192329 -0.113625 0.0942231 -0.00143538 -0.335685 0.0420627 0.025171 -0.0654156 -0.105793 -0.0999979 0.217046 0.088391 -0.312946 0.0235504 -0.0332064 0.0682359 -0.201111 0.0281513 0.0333988 0.137961 -0.207701 -0.252026 0.188123 -0.15279 0.0388738 0.0866485 -0.204636 -0.100455 0.122806 -0.169455 0.00966324 0.128699 0.106929 -0.0876096 -0.0197226 -0.0938082 0.111392 -0.113024 -0.109032 -0.0496459 -0.0207607 -0.202171 0.222222 0.00915353 -0.165243 -0.199455 0.21823 -0.0751352 -0.052317 0.0971062 -0.0114324 0.0603579 0.194087 -0.447781 0.0142223 -0.0783804 -0.0377699 0.183884 -0.0681168 -0.1976 0.0213288 -0.0430548 0.240566 -0.180363 -0.0145638 -0.0975531 -0.17478 0.152953 -0.0262289 -0.129442 -0.0303972 0.0898721 0.0416046 -0.133663 -0.0163395 0.284031 0.193759 -0.148026 -0.0812129 -0.13421 0.0797385 0.0398274 -0.0553356 0.158566 -0.109316 -0.142959 -0.0890472 0.0745924 -0.0969926 -0.155402 0.0930483 -0.0839045 0.0876102 -0.104772 -0.0128562 0.283821 0.0769385 -0.0377539 0.311255 0.0426687 0.077228 0.0900092 -0.0454475 -0.0327534 0.20041 -0.0350935 -0.217963 -0.0425623 0.317863 -0.0590666 0.131829 -0.207394 -0.0954026 0.0431833 -0.142775 -0.273058 0.210913 -0.0541636 -0.0500098 -0.13854 -0.0960481 0.102443 0.235254 -0.00213602 0.221453 0.167635 -0.216583 -0.0337206 0.138417 0.0582769 -0.0247935 0.105928 -0.281771 0.172989 -0.188421 -0.128457 -0.100235 0.134403 0.0506142 -0.0808658 -0.0230132 -0.1663 0.014711 -0.107282 -0.0673273 0.355941 -0.186489 -0.0912594 -0.13897 -0.0406655 0.0610986 -0.221057 -0.135765 0.115182 0.0524343 0.0282833 -0.00234505 0.152229 0.0722863 0.0212384 -0.0736925 0.0388354 -0.220809 -0.0130859 0.0949945 0.124065 0.0955541 0.0890747 -0.0450744 -0.137656 -0.124076 0.0441166 0.00582278 0.101045 -0.217764 -0.0799841 -0.220119 0.0673451 -0.00528785 0.0604129 -0.22905 0.0427935 0.0145535 -0.00471738 -0.0659351 -0.0498813 -0.208136 -0.224593 -0.221282 -0.185406 -0.0560305 0.0693531 0.151276 0.160223 -0.223845 -0.081113 0.0962119 -0.00324733 -0.0709629 -0.389114 -0.219544 0.0764919 -0.065145 -0.0296029 -0.176488 0.150215 0.188402 -0.00318301 0.378532 0.16369 0.145533 -0.0914471 0.0279969 0.0165297 -0.0626464 0.0244274 -0.0238866 -0.182702 -0.0190024 -0.0363824 0.0300895 -0.0335403 -0.26151 -0.0522011 0.275106 -0.192634 0.0732436 -0.182835 0.0384427 -0.0379102 0.116088 0.073186 -0.0953682 0.0416609 -0.0706788 0.164803 0.0184617 -0.0279751 -7.09496e-05 -0.15814 -0.224893 -0.00432677 -0.113169 -0.0709708 -0.141125 0.052817 0.134144 -0.145899 0.0278089 0.0747546 0.047826 0.127533 -0.197774 0.133571 -0.0811797 0.0917275 0.176528 0.066512 0.0258616 -0.00736331 -0.0315258 -0.046487 -0.267386 0.0614753 0.0870305 -0.139099 -0.200987 -0.317524 0.0406842 -0.206432 -0.14049 0.11952 0.0879715 -0.0444915 0.341768 -0.00407352 -0.116789 -0.0320906 -0.142167 0.0702455 0.0193884 0.39186 0.153254 0.141678 0.0778534 0.004562 -0.0540144 0.124308 -0.0484964 -0.10515 -0.0362684 0.127508 -0.23016 0.161233 -0.168616 -0.10794 -0.104481 -0.0907682 -0.07686 0.135117 0.251958 0.0577232 -0.0129675 -0.0592421 0.0289059 0.0593973 -0.150053 0.0881009 0.0232916 -0.0583406 0.0336201 0.148569 -0.124941 -0.0186285 0.256666 0.131184 -0.12317 -0.058527 0.0900066 -0.0424669 -0.0621487 -0.0496409 0.132481 -0.234208 -0.00527617 0.0501553 0.0197706 0.096942 0.00865893 0.407296 -0.119951 -0.0740895 -0.203663 -0.404887 0.0670367 0.12596 0.212896 0.0224616 -0.0359648 0.0226811 -0.0855345 0.128615 0.106547 0.0438763 -0.00142335 -0.0786287 0.12291 -0.18141 -0.0188639 -0.05815 0.188278 -0.149192 -0.0111994 0.165286 0.17438 0.0980803 0.119999 0.0695556 -0.0385703 0.0457902 0.0392076 -0.194187 -0.183726 -0.0168509 0.0737597 -0.0965679 0.151056 0.400477 -0.234234 -0.019637 -0.0111564 0.120261 0.139984 -0.0296146 0.128604 -0.204606 -0.0905281 -0.0951017 -0.028641 0.258709 0.120423 0.105659 0.144134 0.115869 -0.183845 0.0598903 0.261344 0.00218712 0.0720311 -0.00805576 0.00542352 -0.264353 0.210604 -0.184484 -0.0184454 -0.030479 -0.0570003 0.0568055 0.1367 -0.0305205 0.194926 0.131267 0.0205298 -0.070204 -0.137418 0.155977 -0.146386 -0.28302 -0.0371421 -0.0188284 0.134001 -0.0697972 0.147026 0.158551 -0.30186 -0.0441288 -0.124389 -0.263326 0.223095 0.158863 0.146999 0.0580484 -0.0441975 -0.00638418 0.196009 -0.150922 0.149385 -0.249658 -0.0446171 -0.0585939 0.00753882 -0.0825438 0.0759358 0.0603723 -0.0763952 -0.0208156 0.0738451 -0.00796033 0.0682585 -0.134821 0.166775 0.0567898 -0.0146988 0.0234774 -0.238852 0.0686656 -0.281904 0.0466864 0.0863768 0.0952852 -0.105785 0.00462344 0.105837 -0.166755 0.0192631 0.177796 0.111914 -0.0878726 -0.366739 -0.0330364 -0.0688949 0.144952 0.0207244 -0.31537 -0.19787 -0.179294 -0.068915 -0.101124 0.172244 0.0220164 -0.116047 -0.261349 -0.207396 0.00825838 0.0815867 -0.262263 -0.0383674 0.0400759 0.0742412 -0.0171843 0.125918 -0.0547754 -0.00867809 0.107687 0.17965 0.18603 0.157655 -0.0384621 -0.0935431 -0.0190898 -0.101809 -0.111519 -0.162792 -0.0503543 0.190151 0.00312628 -0.249667 -0.0178193 0.145836 0.144983 0.08694 0.0750237 -0.0685217 -0.0352134 0.315601 -0.106049 0.0235134 -0.0561295 0.194715 -0.0708447 -0.0943151 -0.128464 -0.151533 -0.0049815 -0.0761222 -0.17942 0.0580904 -0.117081 0.144481 0.0702876 -0.119983 0.148822 -0.0544072 0.0690604 -0.0271537 0.104664 -0.141243 0.210504 0.12986 0.0313148 -0.127835 -0.120356 0.16126 -0.144399 -0.050124 -0.0858884 -0.221786 0.115363 -0.163413 0.165868 0.13909 0.09928 -0.0631737 -0.0207601 -0.0834246 -0.0656636 -0.00278762 0.201585 0.030535 -0.138665 -0.344736 -0.0417534 -0.264732 0.00919618 -0.0746967 -0.235951 0.164014 -0.010092 -0.00449663 -0.136473 -0.365853 -0.140674 -0.173959 -0.0251915 -0.113479 -0.0793201 -0.15448 0.0976897 0.412958 0.0990613 -0.0974053 0.160525 0.0477291 -0.0365182 -0.13833 -0.0411719 -0.18157 -0.0492556 0.153402 -0.11423 -0.0478743 0.271981 0.243569 0.0423189 -0.0172591 0.163015 -0.0331146 -0.0884746 -0.0247921 0.0790921 -0.0928456 -0.108398 -0.0173338 0.0219269 0.119272 0.0283241 -0.0969207 -0.189459 -0.0125507 0.245903 -0.187687 -0.183596 0.187302 -0.094726 -0.0694613 -0.165278 -0.238883 0.12354 0.0296174 0.0119083 0.0571426 0.133143 -0.156033 0.162525 0.275227 -0.1118 0.066581 -0.190868 -0.0429105 0.108082 -0.138525 -0.00442907 -0.355462 0.0816289 -0.0658573 0.160841 -0.0748977 -0.146575 0.018928 0.0948241 -0.143385 -0.0503845 -0.273531 -0.253942 0.103231 0.00696716 0.00851933 0.0285196 -0.0597088 -0.0631044 -0.0698101 0.100747 -0.0319417 -0.0644477 0.02158 0.0852473 -0.0460468 0.0204992 -0.236328 0.0484015 0.103387 0.0329715 -0.267376 0.281823 -0.0785597 -0.203794 -0.0626882 -0.0228544 0.237469 -0.111827 0.0556165 -0.102616 0.188513 -0.0207347 0.145565 0.0777126 0.00314107 0.0930523 -0.163013 -0.063764 0.163886 0.116114 -0.177233 -0.0570709 0.305632 0.189307 -0.0527503 0.0651902 0.153454 0.00795585 0.0460856 0.0129116 -0.163232 -0.165411 0.272148 -0.304142 0.0449249 -0.164732 0.159102 -0.0209103 -0.0254193 -0.243089 0.125653 -0.0963817 0.0400417 0.195819 -0.210303 -0.00436494 -0.0430991 -0.0855016 0.263495 0.00848963 0.192147 0.0301886 0.0927604 -0.182054 0.0257888 -0.168591 -0.129834 0.177465 0.0535448 -0.190825 0.0590561 0.0103685 -0.0993022 0.0331488 -0.129938 0.145131 -0.195675 0.241001 -0.258902 -0.210938 0.0899878 -0.0300614 0.0188499 0.0806905 -0.156043 0.157308 -0.127232 -0.0739551 0.157763 0.0406673 -0.0796554 -0.0218873 -0.153564 0.0537877 0.130536 -0.150381 0.0246669 0.192721 0.0677308 0.143017 -0.0374746 0.0148757 -0.231971 0.00089302 0.0733912 0.223304 -0.123438 0.0301819 0.29878 0.00465741 -0.0256818 -0.278923 0.138745 0.139223 0.103946 0.0926922 -0.108617 -0.0597404 -0.0321638 0.118362 -0.136454 -0.0194485 0.251576 -0.377107 0.104059 0.107812 0.0407335 -0.136137 -0.0857143 0.037861 -0.236164 -0.179391 0.172559 0.212409 0.147989 0.21871 0.044867 -0.0646613 -0.102219 -0.00778031 0.0752398 -0.0144821 -0.0692704 0.126951 0.321639 -0.0351278 0.00886677 0.133762 -0.138872 -0.0560209 0.329751 0.199993 -0.0106287 0.0429946 0.196863 -0.163182 0.10532 -0.012669 0.0602902 -0.0845933 -0.264326 0.032409 0.0726975 0.069404 0.241651 0.0366461 0.0509173 -0.0697816 0.0796395 0.0130033 0.0865951 0.0676036 0.0682198 -0.14205 -0.133721 0.177614 0.148853 -0.440816 0.119936 -0.242688 0.242381 0.252515 -0.0268819 0.0891743 0.175936 -0.3625 -0.0120365 -0.0444077 0.00326542 0.0250438 -0.0313554 0.0277195 0.21813 -0.0335709 -0.00605219 -0.212735 0.0372422 -0.0871935 -0.232436 0.0604186 0.181101 -0.0216753 0.0509901 -0.106643 -0.166087 0.100015 0.0612509 -0.0041305 -0.0860611 -0.0172178 0.0715488 0.0795173 0.230002 0.000274672 0.0221455 0.237998 0.118352 -0.298154 0.185642 -0.100981 -0.0834969 0.0155681 -0.10736 -0.0921856 -0.0219177 0.113788 -0.110799 0.0346213 -0.146001 -0.0890362 0.0141728 0.0806655 -0.127805 -0.417194 -0.163458 0.0448162 -0.184093 0.00988619 -0.0744769 -0.0664527 0.0429858 0.190272 -0.0950637 0.0216309 0.0377874 -0.371992 0.248779 0.182945 -0.000127423 -0.189435 -0.171512 0.111317 -0.0590045 0.139464 -0.0199241 0.122925 0.0744029 -0.0679978 -0.00840149 0.126296 0.199617 -0.0744498 -0.210235 -0.0287302 0.0227071 -0.199205 0.174925 0.0161117 0.0385268 -0.282959 0.0197935 -0.056288 -0.0377966 -0.306904 0.0102024 0.115535 0.204561 0.154414 -0.0766263 0.00453388 0.177326 0.139041 0.0612649 0.00730114 -0.140214 0.0486602 0.0512154 0.312969 0.00293289 0.168973 0.159546 -0.157864 -0.184162 -0.0215633 0.15391 0.0638491 -0.0423806 -0.121399 0.167196 -0.0838882 -0.0887698 0.0563574 -0.215273 0.00868178 -0.292224 0.00816322 0.201586 0.238195 0.0759682 0.169095 0.00444393 -0.00564343 0.0848624 -0.00286146 0.0676131 -0.021222 -0.0709105 0.00402671 0.215257 0.000288394 0.182598 0.00666189 0.2993 0.0188833 0.297374 -0.255455 0.0852753 -0.0130964 0.173002 -0.0455966 0.0210583 0.0981706 0.00152513 -0.0177387 -0.00660717 -0.120312 0.154184 0.080109 -0.0820492 0.16423 -0.0296712 0.00481584 0.0291566 0.0870464 -0.156024 0.205911 -0.18846 0.19922 0.111604 -0.0296512 0.203679 -0.223611 0.0578563 0.121491 0.105077 0.164057 0.107828 0.145382 -0.212649 0.333991 0.0342017 -0.203439 0.280888 0.13157 -0.0419256 0.0290552 0.169821 0.101337 0.134384 0.0215395 0.257865 -0.130466 0.0762198 -0.0773784 -0.162417 -0.0240807 0.08779 -0.146929 0.0754401 0.318773 0.192303 -0.0918938 0.0739082 0.078248 -0.237199 0.00357818 0.0623832 0.0949587 0.00108405 -0.052242 -0.195485 -0.302636 -0.0138559 -0.293123 0.199625 0.169618 -0.0149587 0.0270898 -0.0675093 -0.0137042 0.152792 -0.0857759 0.235737 0.0302158 0.0887837 -0.110266 0.089355 0.292527 0.0176583 -0.0233943 0.124225 -0.0449186 -0.00996866 0.00956461 0.0769408 0.0543433 -0.116719 -0.0208107 0.216401 0.483258 -0.0494909 -0.110125 -0.178184 -0.174489 0.142028 0.149651 -0.0771589 0.125276 -0.004964 0.192868 0.133015 -0.0080531 0.239822 -0.0250253 0.202917 0.0880043 0.00977154 -0.182502 -0.155851 0.0704346 0.230936 -0.0145757 -0.0146729 -0.0849563 0.142335 -0.403266 -0.241768 -0.15936 0.163263 -0.124529 -0.0103025 0.21344 -0.0797126 0.0547649 -0.0984304 0.250812 -0.103758 0.041384 -0.125403 0.115643 -0.0915111 -0.381517 -0.0203654 -0.220145 -0.00980107 0.220274 -0.0689114 0.0477132 0.105472 -0.148687 -0.190173 0.298485 -0.146287 0.163567 0.249274 -0.217181 0.175303 0.0911082 -0.0260764 0.0582885 0.112584 0.0837239 0.129146 -0.194742 -0.0745116 0.0433008 -0.127473 -0.163873 0.0233309 -0.113558 -0.116956 0.0277652 -0.0419235 -0.159187 0.108093 -0.083661 0.140972 -0.0260724 0.120089 -0.0344289 -0.113768 -0.0900032 -0.14019 0.179513 -0.260189 -0.0749995 0.234036 0.0597182 -0.0344733 -0.0875631 -0.0315904 