layers 5
layer 0 LSTM
inner_activation : hard_sigmoid
output_dim : 64
input_dim : 6
unroll : False
activation : tanh
stateful : False
go_backwards : False
return_sequences : False
weight of input to hidden :
0.302858 -0.294383 -0.10577 0.0019164 0.19436 -0.175158 -0.236302 0.217283 -0.0676668 0.322627 -0.0506175 0.0832292 0.135637 -0.104301 0.256838 -0.224091 -0.101397 -0.0652353 -0.134208 -0.183713 -0.251904 0.0355185 0.107079 0.0936538 0.109968 -0.114381 0.230392 -0.139421 0.264596 -0.0381831 -0.0871641 -0.06293 0.268767 -0.301165 -0.263246 0.221505 0.134502 0.233189 0.0198712 0.00302083 0.138501 0.2516 -0.243445 -0.0215671 0.263074 -0.271396 0.122359 -0.0949043 0.147732 -0.224154 -0.288399 -0.247704 0.0425945 -0.177374 -0.0928193 0.169904 0.170827 -0.115017 0.273013 0.23207 -0.0430483 0.0315088 -0.323224 0.216938 -0.0719615 0.0467837 0.149781 -0.0898026 0.298991 -0.0685289 -0.190648 -0.0262851 -0.185928 0.154587 -0.244245 -0.0676187 0.0157981 -0.120428 -0.0573755 0.159576 0.237843 -0.278048 0.171228 -0.182151 0.307747 0.240991 -0.240511 -0.172131 -0.28146 0.227107 -0.205478 0.204368 0.179956 0.249428 0.314088 -0.208562 -0.238496 -0.14843 0.0785539 -0.268014 0.0330874 -0.226738 -0.169341 -0.251105 -0.088521 -0.266055 -0.0327957 0.267374 0.250527 0.234094 -0.224055 -0.0817476 -0.221609 -0.277439 0.0348197 -0.0383645 0.206088 -0.304115 0.245469 0.250668 0.00795997 -0.149498 0.215832 -0.0301249 -0.0715938 -0.247867 -0.225254 -0.278662 -0.0055313 -0.0587925 0.0149502 -0.0127036 0.303987 -0.0671064 0.13823 -0.00750439 -0.100976 0.0186336 -0.0276331 -0.216837 0.115321 -0.0399446 0.223599 -0.201789 -0.121998 0.0112974 -0.247017 0.18263 0.264872 0.153708 0.0231197 0.14085 -0.0564605 0.0986463 0.000276962 -0.169479 0.214604 0.0720131 -0.171532 0.0558472 -0.271601 -0.272276 0.288622 -0.295176 0.090368 -0.205724 -0.222355 0.290793 0.0406627 0.234906 0.0180802 -0.000729834 -0.3701 -0.293256 0.143864 0.18586 -0.158236 0.0191084 0.317889 -0.234506 0.230564 0.216062 0.13103 -0.321611 0.179806 -0.0920059 0.118137 -0.142692 -0.229841 0.238846 0.290893 0.232237 -0.116379 -0.200244 0.167028 0.122698 0.157893 0.335241 0.137297 0.163713 0.171157 -0.256181 -0.110793 0.29734 -0.00288748 -0.144638 0.0439191 -0.158692 -0.0655542 0.0631954 -0.122903 -0.0464765 -0.0991319 -0.255449 -0.0716226 0.110778 -0.0752077 0.244323 -0.0259157 -0.0470401 0.0988094 0.22847 -0.0428592 0.251283 0.264284 0.270571 -0.108402 0.319574 0.0971336 -0.159251 -0.170766 0.0808779 0.168658 0.26733 -0.283375 -0.0660917 0.213988 -0.117547 -0.210956 -0.276247 0.187852 -0.324295 -0.24707 0.168397 0.115674 -0.047642 -0.24768 -0.265954 -0.12473 -0.215965 -0.169042 -0.276637 -0.238915 0.426564 0.21238 -0.13382 -0.187999 0.354775 0.0902769 -0.203964 -0.00135706 -0.109001 0.0885627 0.277471 -0.0315685 -0.256669 -0.278499 -0.215198 -0.184949 -0.149093 0.05738 0.103966 0.149485 -0.147609 -0.201511 0.245508 -0.321307 0.202583 0.261468 0.277131 -0.209373 0.418111 0.16564 0.160343 -0.169716 -0.173545 -0.251029 -0.0250789 -0.026868 -0.254201 -0.0546901 0.0462164 0.0692775 -0.285877 0.152438 0.0899876 0.231187 -0.0583143 -0.226065 -0.0806434 -0.244201 0.0220909 0.270271 -0.266414 -0.264139 -0.276789 0.229285 -0.0267466 -0.156716 -0.17548 0.0219228 0.212355 0.260206 0.0154651 -0.152574 -0.106907 0.140897 0.259524 0.143223 0.128199 -0.190899 -0.0321519 -0.18019 0.0364094 -0.151325 -0.248075 -0.071507 0.153789 -0.209057 0.214545 -0.307446 -0.000995042 -0.0336158 -0.125303 0.00847775 0.132775 0.108532 0.188858 0.114414 -0.176517 0.250007 0.21737 0.341719 0.0111246 0.0972143 0.343414 0.16815 0.084338 -0.256433 -0.132077 -0.183644 0.154821 -0.161145 0.227458 -0.077729 -0.230317 -0.224567 0.200331 0.108463 0.248459 0.0433812 0.250227 0.106818 -0.00694313 -0.00633694 0.0302031 0.157508 0.0147768 -0.0632458 -0.140543 0.152112 0.131994 0.0704829 -0.0335486 0.0600764 -0.244253 -0.0690868 -0.128512 0.040203 -0.199702 0.113961 0.224462 -0.1948 -0.0853424 -0.143057 -0.312312 -0.166532 -0.200782 -0.0892298 -0.062924 0.176838 -0.138428 0.107694 0.259942 -0.079738 -0.207661 0.0383038 0.0114182 0.250429 0.119955 0.104081 -0.162837 0.0460488 0.179115 0.101666 -0.138072 -0.00903149 0.265963 0.142678 -0.220782 0.138167 0.0974176 0.109835 0.0576768 -0.117108 0.0489362 0.0912897 0.154134 0.246136 -0.218176 0.292092 0.249247 0.0737663 0.0682587 -0.0546954 0.149348 -0.241332 -0.0975527 0.243371 0.171638 -0.0720531 0.0615156 0.268712 -0.181654 -0.137044 0.209485 -0.238621 -0.184 -0.189219 -0.246004 -0.257281 0.202979 -0.167377 -0.0185144 0.0638958 -0.294409 0.339421 0.269657 0.0727317 0.02206 0.271753 0.242013 0.107671 0.122418 0.107218 -0.239737 -0.201958 0.192967 -0.208361 0.25363 0.302171 -0.0604027 -0.0697421 -0.206023 0.00799788 0.159617 -0.18485 0.211154 0.117428 0.309758 0.101614 0.0586572 -0.251618 0.187418 0.080592 0.110439 0.0338212 0.270502 0.240373 0.0858555 0.140642 -0.229492 0.155641 0.22107 -0.264578 0.313689 0.0586737 0.0543703 -0.230071 0.0457155 -0.112803 -0.206349 -0.231526 0.0332526 0.00392551 0.158423 -0.110326 0.164086 0.256017 0.183693 -0.0558936 0.103535 -0.17215 0.102226 -0.123105 0.284383 -0.223761 0.285232 0.053363 0.190653 0.281985 -0.126251 0.253294 -0.188751 -0.0183555 -0.262368 0.294411 0.201704 -0.0717161 -0.0744814 0.0252982 0.344103 0.0701797 -0.191366 0.113219 0.0595637 -0.261002 0.16534 0.061839 0.087312 0.205126 -0.0827573 0.0156645 0.3578 0.20177 -0.1005 -0.183065 0.0779419 -0.172634 -0.110355 0.154812 -0.171353 -0.138398 0.289066 -0.0228622 0.33703 0.287973 0.236342 0.265984 -0.0875179 -0.105006 0.0161196 -0.281981 0.00168669 -0.221515 -0.0532338 0.188739 -0.163474 -0.286263 -0.0355882 0.108109 0.104675 -0.048629 -0.132044 -0.259896 0.231337 -0.171491 0.0145817 0.0538693 -0.0519336 0.12607 0.186705 -0.138839 -0.205621 -0.244415 0.235977 -0.317768 -0.0377064 -0.0449667 -0.115361 -0.359836 0.127917 -0.0255867 -0.102533 -0.0939564 -0.294722 0.28119 -0.131201 -0.0115974 -0.177019 0.270182 -0.094038 -0.0149267 0.000975734 0.152943 -0.0216111 0.1916 0.212526 0.0231655 -0.193565 0.0621244 0.164039 0.080777 0.128324 -0.194386 0.285826 -0.0705918 0.224478 0.217939 -0.213792 0.183943 0.0924275 -0.0251095 0.199479 -0.0712587 0.0926018 0.112802 -0.138252 0.227009 0.106671 0.196343 -0.134071 0.11005 0.240222 -0.124593 -0.209824 -0.132829 0.11686 0.222036 0.185777 0.28275 0.247266 -0.167507 -0.085468 -0.0932554 -0.294378 0.120393 0.101497 0.0188877 0.290766 -0.0748149 0.274803 0.108327 0.00721999 0.286575 -0.0886862 -0.0949604 0.271981 0.120839 0.253099 -0.0462588 0.0122192 0.073725 0.0611305 -0.269563 0.206855 0.168547 -0.132673 -0.217248 -0.361008 0.0985794 0.0941356 0.0542828 -0.11218 -0.210898 -0.0887236 -0.00929025 -0.26902 -0.113861 0.193478 0.0739628 0.000756467 0.268064 -0.263744 0.136603 0.276396 0.0769547 0.154673 0.0374293 0.19832 -0.192206 0.0893087 -0.132612 -0.0201473 0.133307 -0.299147 0.0990564 -0.200757 0.287598 -0.0453522 -0.283478 -0.181313 0.201485 0.138025 0.205191 0.115199 -0.303598 -0.15516 -0.0712868 -0.0604089 -0.300635 -0.218656 -0.0835213 -0.222579 0.0692874 0.125218 0.195436 -0.238744 -0.133413 0.281754 -0.13652 -0.194438 0.272812 0.185994 0.27167 -0.166556 -0.140359 0.0415329 -0.267348 -0.236475 0.148882 -0.278769 -0.107671 0.188403 0.0357435 -0.198497 0.0202896 0.230703 -0.177695 0.010536 -0.2998 0.24137 0.00508258 -0.262177 -0.110653 -0.226408 -0.227001 0.283752 0.0286652 0.0356091 -0.107853 0.233013 -0.0680913 -0.0669227 0.24988 -0.272435 0.126672 0.0206234 -0.264643 -0.204225 -0.0985466 -0.0462429 -0.182617 0.274656 0.166168 -0.110109 0.210015 -0.0311931 -0.00511329 0.221292 -0.102929 -0.164955 -0.101809 0.224229 0.0231661 -0.264112 0.149553 0.139561 -0.0938854 0.0215521 0.0359376 0.126608 -0.27599 -0.0709197 -0.284014 0.0292134 -0.132078 -0.197315 0.32786 0.102563 -0.119708 -0.198845 0.0856968 0.0865594 0.0537331 0.12433 0.147662 0.07213 -0.261101 -0.118011 0.0373886 -0.183008 0.299366 -0.113643 0.120563 0.155107 -0.277826 0.0754472 -0.298093 0.18731 -0.110566 0.149052 0.298604 -0.249829 0.176316 0.127627 -0.265581 -0.108387 -0.0362372 -0.0174831 -0.279346 -0.22329 0.284763 -0.300876 -0.138464 -0.084989 0.245263 0.0848413 -0.015162 0.0160464 -0.093013 -0.26563 -0.13925 0.0851108 0.219343 0.190636 -0.268066 0.281882 -0.224123 0.245935 0.032485 0.0423036 -0.244766 0.169034 -0.112798 -0.0157098 -0.0466347 0.0660782 0.0417841 0.147456 -0.149581 -0.0981948 0.130663 -0.263108 0.265317 0.0528133 -0.149832 0.0705855 0.177658 0.161697 0.275227 0.0791052 -0.177517 0.174478 0.205156 -0.190078 -0.155616 -0.0278857 0.191121 0.177638 0.010939 -0.186077 0.128179 0.0839076 0.0776069 0.0927272 -0.0320669 -0.250872 -0.105896 -0.074663 -0.246246 0.0920731 0.231301 0.0148755 -0.128496 -0.240989 0.292981 0.224962 -0.170503 0.187806 -0.192545 -0.0845171 -0.291114 -0.248859 0.197172 0.0754861 0.132783 0.0624254 0.23167 -0.104041 0.0444385 0.289615 -0.231062 -0.16843 -0.111194 -0.0411494 -0.148195 0.149683 0.0517193 0.00956348 -0.267877 -0.102497 -0.216386 -0.245317 0.24978 -0.131792 0.196178 0.0493626 -0.0250972 0.062977 0.0663503 -0.216545 0.0420649 -0.00335311 0.0882453 0.238445 0.165536 -0.164446 -0.29596 -0.398693 0.0777961 0.187947 -0.032417 0.0721846 -0.0573268 0.189713 0.121414 -0.129824 0.193995 0.0466136 0.255822 -0.0394291 0.227617 -0.147749 -0.119342 -0.276076 0.210348 -0.0802451 0.226215 -0.0526562 -0.178703 -0.134776 -0.0302255 0.315132 -0.185598 -0.0586243 0.0698845 -0.275476 -0.339462 0.0903525 0.216097 -0.311619 -0.240346 -0.143819 0.185527 0.0805576 -0.31298 -0.18617 0.273209 -0.112536 0.3121 0.288811 -0.0727992 -0.169759 -0.0164005 -0.162431 0.286047 0.0562775 -0.0482186 -0.0198311 0.271132 0.0258404 0.1993 0.203971 -0.147825 0.195783 -0.115521 -0.0367632 0.0543933 -0.246675 -0.0710909 0.142499 0.283331 -0.0186695 0.242466 -0.2458 0.250457 -0.216033 0.137613 0.161522 -0.167736 -0.207776 0.141623 0.304028 0.14986 -0.291862 0.210054 -0.00441631 -0.140131 -0.0605661 -0.291879 -0.149464 0.107959 0.176542 -0.0376486 -0.134897 -0.292304 -0.299615 -0.013011 -0.0958539 -0.120599 0.0755444 -0.191071 0.180798 0.261383 -0.174745 0.0138074 -0.0526084 0.21803 -0.233033 0.0028147 -0.19028 0.273195 -0.0844353 -0.276358 0.21602 -0.0223261 0.18372 -0.110614 -0.258589 -0.189252 0.130021 0.0685665 -0.159791 0.00357129 0.156636 -0.227145 -0.215007 0.0345123 -0.255194 -0.0891982 -0.330331 0.0614413 0.028089 -0.00680196 -0.120393 -0.252198 -0.0996625 -0.261405 0.127863 0.116989 0.0717629 -0.15816 0.0803882 0.217659 -0.216557 0.144153 0.252958 -0.123093 -0.253886 0.179769 0.231903 -0.105661 0.0513477 0.0523986 -0.117852 0.193519 -0.180011 0.232903 0.161344 0.134473 0.0804749 -0.146391 0.202399 -0.0111396 -0.164802 0.276283 0.130682 0.0845216 0.168583 -0.0778083 0.0692207 0.110635 0.118603 -0.337779 -0.144608 0.00802035 0.246973 0.236384 -0.0534581 0.213497 0.117447 -0.011197 0.207338 0.0144698 0.17144 0.173562 -0.122594 -0.153165 0.123846 -0.157854 -0.0433457 -0.144787 0.179792 0.189033 -0.206528 0.203501 0.171459 0.143228 0.322549 -0.15526 0.289392 0.0427712 0.258077 0.0564812 -0.0757162 -0.0848994 -0.115694 -0.0337672 -0.169686 0.114457 -0.256579 0.263772 0.0447818 -0.06006 0.0622278 0.101868 0.073597 0.252282 0.0199153 0.0723122 -0.0817566 -0.123178 0.190965 -0.034936 -0.0991663 -0.194974 0.120604 0.221608 -0.250912 0.0293872 0.210809 -0.0501262 -0.173718 0.0871528 -0.124384 -0.0282 -0.192943 0.141966 0.200884 0.187992 -0.247003 -0.157412 -0.0961628 0.0481916 -0.176692 0.266427 0.0201185 0.225705 0.171589 -0.286237 0.221456 0.25574 0.10958 -0.0584164 0.0414899 -0.233908 -0.158725 0.124474 0.147055 0.0542656 0.184839 0.273018 -0.0108862 -0.0637857 -0.194426 0.307762 0.116264 -0.00586545 -0.183664 0.1017 0.101753 -0.0818388 -0.178625 -0.0761945 -0.111206 0.122584 0.186833 -0.286719 -0.220417 -0.0524699 -0.251219 -0.0763373 0.00434113 0.309307 0.00228251 -0.0254516 -0.299161 0.0855434 -0.219397 -0.108472 0.245812 0.175009 0.158391 -0.0386391 0.0311517 0.194127 -0.0592416 0.0693931 0.0215775 -0.163492 -0.108834 0.120724 0.254116 0.210441 -0.106403 -0.106271 -0.142035 0.214323 0.0608697 0.275735 -0.22322 0.203726 -0.176436 -0.196616 -0.203496 -0.202497 -0.0576706 0.231694 -0.100388 -0.0666873 -0.13217 -0.293181 0.122718 -0.185265 -0.121869 0.157005 -0.0218796 -0.185305 0.143831 -0.15662 -0.0457569 0.152712 0.165211 -0.217917 0.0875061 -0.0227209 0.284889 -0.18033 0.195002 -0.195794 -0.207177 0.0719968 -0.178626 -0.0637792 -0.13306 0.235984 -0.204377 -0.0184335 0.204939 0.148333 0.221329 -0.0302201 -0.219001 -0.322638 -0.121491 0.00696403 0.120564 -0.122128 0.128842 -0.175574 0.229894 -0.179934 -0.0707978 0.0559426 0.0859038 -0.204384 -0.0886144 -0.159185 -0.241736 -0.318706 -0.204377 -0.216034 -0.131817 0.0880302 0.103291 -0.258963 0.23103 -0.170923 0.278144 0.00615439 -0.0938646 -0.268188 0.0880529 -0.148442 0.0731698 0.0605244 0.222645 -0.161536 -0.0569331 -0.0180697 -0.278441 -0.0290336 -0.258312 0.112008 0.027727 0.138968 0.250984 -0.260123 0.178736 -0.114968 0.0258243 -0.337965 0.164668 0.238022 -0.216456 -0.0892125 0.120632 -0.132455 -0.217104 -0.242107 -0.22264 0.296362 0.251575 -0.280536 -0.192779 0.272664 -0.198329 -0.166268 0.230467 0.224377 0.0472967 -0.0789755 -0.255651 0.262861 -0.207476 -0.0811145 -0.132881 -0.189266 0.328982 -0.302497 0.155074 0.166444 -0.217631 0.166105 0.306418 -0.138926 -0.191354 -0.127417 0.214538 -0.0664294 -0.0327512 0.182107 -0.234277 0.0651293 -0.061811 -0.104554 -0.139375 -0.0143318 -0.276229 0.145467 0.00291228 -0.14307 0.0764473 -0.259523 -0.125439 0.12829 -0.162201 0.134882 -0.116481 -0.149826 0.303307 -0.10789 -0.2276 -0.187891 -0.0401302 -0.265243 -0.00325706 0.194058 -0.262612 0.166289 0.144224 -0.0717304 -0.164263 -0.119965 -0.148416 -0.171489 -0.185159 -0.167077 0.055739 -0.248994 -0.192495 0.209129 -0.123132 0.1006 -0.0190167 0.143194 0.054391 -0.111255 0.304806 -0.193044 0.158315 0.239081 -0.23941 -0.257389 0.228624 -0.161835 -0.0513853 0.0816215 0.0816762 -0.0247871 -0.011873 0.0162788 -0.00807224 0.0765371 0.20559 0.18973 0.204971 -0.24746 -0.00272359 -0.00739782 -0.374538 0.323301 0.0894108 0.135051 0.0329605 0.279938 -0.065848 -0.254066 -0.292602 -0.0322219 0.179884 -0.0463501 0.119907 -0.245589 0.176651 -0.145207 0.140488 0.0169545 0.21542 0.111117 -0.22826 0.278053 0.288789 0.0156044 -0.115188 0.128745 -0.130891 0.241881 0.102233 -0.23678 -0.304226 0.299593 -0.133431 0.183304 -0.374776 0.239815 -0.055495 0.0226839 0.0982724 -0.028126 0.247292 -0.0575727 -0.140743 0.353208 0.0883391 -0.027111 -0.0388437 -0.0550851 0.186503 0.00300216 0.200944 -0.0792666 0.285139 -0.18969 0.235718 0.0362442 0.242066 0.0747605 0.263679 0.0824533 0.202699 0.0945395 0.138677 -0.150526 0.0557014 0.180462 0.0124887 0.118396 -0.0737402 0.168092 0.164544 0.228067 -0.19037 0.235067 0.267963 0.0182701 -0.0853009 0.209705 -0.240177 -0.0309188 -0.0808088 0.206478 0.150799 -0.142552 0.266037 -0.191345 -0.0482111 -0.00299883 -0.199792 0.177105 0.199274 -0.0340688 -0.243675 -0.213223 0.0776755 0.0629712 -0.168381 -0.143211 0.0283587 0.343687 0.283865 0.218635 0.0753076 0.143287 -0.0147812 -0.0597243 -0.112273 0.24902 0.144798 -0.149444 0.308255 -0.00529221 -0.161914 -0.10981 0.153011 
weight of hidden to hidden :
0.043961 -0.0699812 0.0492927 -0.35383 0.133641 -0.224818 -0.0602705 -0.0973823 -0.193592 -0.0469554 0.102083 -0.00891902 0.255058 -0.121908 -0.187545 0.144046 -0.12948 -0.0804382 -0.0799435 -0.0607048 -0.222476 -0.0375867 0.119028 -0.0123231 0.10608 0.273361 -0.0414545 -0.141894 -0.154894 -0.10841 -0.0536984 -0.133309 -0.0227161 0.167474 -0.141427 0.0360747 -0.0872551 0.00552027 -0.0432473 -0.0365387 -0.278976 -0.00144776 0.136351 0.202853 0.0899557 -0.0775849 0.107395 -0.355828 -0.195077 0.0698704 -0.00172762 -0.281012 -0.204637 -0.105786 0.20886 0.22181 -0.026259 -0.0343585 -0.126024 0.159733 0.108756 -0.0689132 -0.0832024 -0.0279738 -0.0489759 0.0654628 -0.172718 0.234122 -0.0275952 0.0043703 0.0167362 -0.0795601 -0.022824 0.084737 -0.016914 0.103877 0.258986 -0.0793067 0.111168 -0.0792053 -0.177552 0.241394 0.204812 0.0306844 0.104212 0.0252107 -0.280802 0.0932613 0.15845 -0.0414014 0.22058 0.159998 -0.104467 -0.11151 -0.0532316 0.0291945 -0.0770603 -0.115589 -0.166168 0.207969 0.016673 0.077308 -0.0627931 -0.09578 -0.0401858 0.0400146 0.237707 0.093813 0.21478 -0.114087 0.193642 -0.314495 0.0703238 -0.113627 -0.0761062 0.140567 0.212858 0.0986391 -0.0803963 -0.0772654 0.162579 -0.16992 0.0464508 -0.152905 0.230132 -0.0417279 0.0779358 -0.0477437 0.261892 -0.0841342 -0.022171 -0.0187108 0.2068 0.20172 -0.0470818 -0.146579 -0.0215194 -0.116898 0.314655 -0.0344555 0.162254 0.0393559 -0.0487203 -0.00703603 -0.0541949 -0.0348108 0.12597 0.0902483 0.212343 0.000238399 -0.116047 0.0467192 -0.262151 0.231171 -0.0649652 0.172885 0.192814 0.155392 0.0047801 -0.11075 -0.125143 0.138972 -0.14282 0.257246 -0.117207 -0.177391 0.0104941 0.0619229 0.178153 0.0457643 0.111154 0.0951832 -0.0383935 -0.0353789 0.0511428 0.115922 0.0463848 0.0735036 -0.10152 0.134313 -0.0940967 -0.0231713 0.234877 -0.0323897 -0.0487963 0.0179315 -0.290634 0.0112554 -0.276256 -0.0541644 -0.11572 0.241054 -0.150978 0.185267 -0.0474079 0.134769 0.242625 0.0455801 0.0268136 0.102392 -0.137212 0.0722987 0.0824315 -0.057052 0.0134301 0.269807 0.0373417 -0.0844594 -0.0665056 0.345507 0.251832 0.0125564 0.0267591 0.00204995 0.126033 -0.0208808 -0.12933 0.305682 -0.150332 0.0717656 0.0629213 -0.112393 0.145025 0.0828383 0.0282301 0.00681345 0.241429 0.0717214 -0.323484 0.119008 -0.0565786 0.0961999 -0.0973335 -0.102297 0.0696173 0.0736343 -0.13231 -0.28126 -0.119185 -0.0944875 -0.0315136 0.112888 0.0579074 -0.0995166 -0.0910854 0.0851449 0.0331306 -0.105045 0.106382 0.00163429 0.220607 0.1769 -0.264582 -0.0143638 0.0827181 -0.0246899 -0.0160967 0.0508004 0.195634 -0.104371 0.0217932 0.222024 -0.0797285 0.00543565 0.312293 0.0999273 0.131246 -0.136497 0.0711695 0.339328 0.13627 0.104107 0.0152934 -0.0618796 -0.184635 0.0252383 0.192782 0.129004 -0.132785 -0.0603545 0.0792486 0.0844799 -0.00568506 0.0609745 -0.163294 -0.276298 0.0102056 0.0464863 0.0774911 0.0792907 -0.25923 -0.00151624 0.0681409 0.143044 -0.0855827 0.202699 -0.238255 0.386787 0.00922676 0.0913169 -0.0374927 0.00656693 -0.217843 -0.0185188 -0.0308049 0.0993991 -0.0682911 -0.137349 -0.0574456 -0.106552 -0.089954 0.0298845 -0.14363 -0.111561 -0.00928493 0.0615029 0.0542716 -0.201303 0.24366 -0.056598 -0.125923 0.0925583 -0.0526578 -0.143703 0.00336249 -0.00749382 0.0052598 -0.151011 0.0736606 0.158964 0.132795 -0.16257 -0.158467 -0.185102 -0.0377109 0.0326998 0.0364882 -0.133241 0.372401 0.229631 -0.143393 0.101267 0.205355 -0.0879593 0.243373 -0.00787777 -0.0237493 0.136829 0.0166557 0.00811076 -0.0119922 -0.0689205 0.0976246 -0.085464 -0.117116 0.0777441 0.133703 -0.190276 0.293402 -0.252458 0.152684 -0.0380003 -0.126588 0.140493 0.0902052 0.118817 -0.0180094 -0.0805874 -0.0762036 0.0883787 0.0371162 -0.0884307 0.0478176 0.132667 0.138527 -0.13061 0.0651952 0.198023 0.148117 -0.000167803 -0.103772 -0.412199 0.363339 -0.0232429 0.0708913 -0.0414127 0.155358 -0.242471 0.0514222 0.000289433 0.204753 -0.114277 0.297954 0.0627663 -0.0848444 0.0985524 0.0506448 -0.16977 0.107411 -0.103901 0.0442626 -0.0468718 -0.0820614 -0.138838 -0.131863 -0.104965 -0.15368 0.121876 0.0244194 -0.0929352 -0.131434 0.201664 0.188286 -0.0322997 0.119951 0.0179719 -0.128275 0.062612 -0.0979647 0.148477 -0.286127 -0.000163863 -0.110801 -0.144352 -0.0128045 0.0590174 -0.343563 -0.0725347 -0.28147 -0.0364227 -0.0208733 -0.0242958 -0.00334392 -0.0239891 0.075059 -0.0797782 0.163381 0.129267 0.100782 0.234573 0.352728 -0.181809 0.121976 0.152596 -0.00769255 -0.0133505 0.10826 0.0593972 -0.216032 0.382138 -0.0718818 0.147109 -0.18664 0.114587 -0.0894568 -0.135173 0.0717509 -0.0489371 0.0474989 -0.225014 -0.146636 -0.143159 0.080203 -0.141888 0.0200964 0.0177764 -0.0463657 -0.129837 0.00639601 0.151719 0.0569798 -0.164712 0.0176059 0.044171 -0.150011 -0.0190192 0.070189 -0.088051 -0.103541 -0.00593352 -0.195297 0.0330532 -0.269612 -0.03227 0.0558972 0.0202327 -0.163777 0.058908 0.00449703 -0.110222 0.0749565 0.156249 -0.275362 0.0578279 0.161613 0.0347773 -0.13324 -0.098162 -0.129052 -0.0437785 0.0222671 -0.161247 -0.00324462 -0.0470652 0.175541 0.215122 -0.16589 -0.204507 -0.145805 0.24919 -0.156676 -0.439852 0.257928 0.171293 -0.136117 -0.0104266 -0.0336595 0.268456 -0.0117703 -0.19385 -0.0825526 0.111233 -0.0403446 -0.0760297 -0.134369 -0.021688 0.0588819 0.0191568 -0.153377 0.0833267 -0.127408 0.177884 0.0475315 -0.266488 -0.196682 -0.0423669 -0.00336792 0.228609 -0.114352 0.0493722 0.11901 0.0210901 -0.256096 0.0845045 -0.0155724 -0.159364 0.0585665 -0.0413038 0.317726 -0.00967461 -0.129193 -0.264185 -0.101224 -0.153492 -0.0136227 0.0233429 0.0444427 -0.0570715 0.0107301 -0.154034 0.206865 0.322463 -0.0740882 -0.225259 0.0882153 -0.0918212 -0.107737 -0.0687862 -0.0920611 -0.0973893 -0.0844556 0.102287 -0.0391591 -0.079805 0.000216984 -0.066396 0.250082 0.0771278 0.0341569 -0.0205016 -0.127001 -0.255691 -0.282313 0.118345 0.080457 -0.00506561 -0.173187 0.0159525 -0.0216153 -0.139151 -0.206481 -0.338866 0.0315272 0.00236475 -0.116932 0.0731283 -0.0403712 0.220311 0.00954366 0.0805869 -0.107139 -0.154375 0.0203371 -0.166635 0.0196002 -0.101062 0.14897 0.30698 -0.0685702 -0.104132 0.0424948 0.119455 0.0173229 -0.0309677 -0.110693 0.156149 0.0973678 0.0132674 0.122909 0.0167847 0.165116 -0.134917 -0.227579 -0.192267 0.187438 0.0915318 -0.297613 -0.119974 -0.121429 0.0709737 0.084476 -0.068758 0.183564 0.0760252 -0.190992 -0.0869759 -0.0490508 -0.261706 0.236251 -0.00457621 0.0143497 0.0234026 -0.167816 -0.130503 -0.209943 0.191693 -0.0762631 0.128786 -0.266837 0.125483 -0.0941199 0.159028 -0.038839 -0.253717 -0.262341 -0.178558 -0.0571756 -0.231455 0.281643 -0.366831 0.1604 -0.0674711 -0.0423618 -0.0539348 -0.113958 0.126372 0.177255 -0.119142 0.112695 -0.144071 -0.0882322 -0.0664715 0.00836619 0.0559383 0.104676 0.0904427 0.0412204 0.109028 0.0580582 -0.0329684 -0.13641 0.183572 -0.0759042 0.0654927 -0.0276 -0.0363382 -0.0529689 0.0110726 -0.0791255 -0.083171 -0.141463 0.0910754 0.196452 -0.217751 -0.30515 -0.0881291 -0.0629291 0.150445 0.0646157 0.161143 0.00897932 -0.0266967 -0.0252843 0.0390407 -0.135335 -0.239079 -0.165599 0.0927312 0.242729 -0.32484 0.0265244 0.0775732 0.0138178 0.170194 0.0953058 -0.21517 -0.10558 -0.14936 -0.281135 -0.0549611 -0.0146496 -0.120899 0.0754698 0.231955 0.0902007 0.0300876 -0.065135 -0.161264 -0.134431 0.0346604 0.168423 -0.188768 -0.115912 -0.0517447 -0.0547114 -0.0107156 -0.0697098 0.0264424 -0.263964 -0.0755224 0.037223 -0.246908 -0.18008 0.0709554 0.0801265 -0.0167302 0.0990297 0.119533 -0.0178172 -0.215127 -0.16881 0.232114 -0.0554095 0.245726 -0.144689 -0.0415463 0.0302087 -0.0551146 0.0366179 0.0318828 0.139142 -0.34149 0.378348 0.0379312 0.0061925 0.0364498 -0.0277779 0.0134908 -0.0763157 -0.123481 0.231605 0.135094 0.0585161 0.00841289 0.0398786 0.0439446 0.118387 0.0843056 0.157892 -0.0879317 0.137117 -0.274353 -0.0997986 0.167654 -0.37612 0.0696247 -0.00113394 -0.00944354 -0.0641238 0.198193 0.0169791 0.10244 0.0151375 0.14029 0.230438 -0.0166523 -0.182146 0.0674069 0.121963 -0.0346623 -0.224499 -0.13521 0.142774 0.100825 0.120586 -0.154142 -0.10032 0.0821991 0.128367 0.219621 -0.0320395 -0.141532 -0.00679112 0.159204 -0.193712 -0.279971 0.0690349 0.0938716 0.38937 0.00346737 0.0459915 -0.17243 -0.0978045 -0.177797 0.0596811 0.0281745 -0.11479 0.196672 -0.175402 0.18535 0.0344218 -0.0102133 -0.0892016 -0.286473 -0.0424902 -0.132828 0.0456567 -0.0562554 -0.345164 0.0720751 0.136002 0.162423 -0.116616 -0.205687 0.101957 0.099827 0.0115808 0.162786 0.0590539 -0.144563 -0.0543916 -0.127535 -0.10579 -0.202125 -0.0608238 0.0492452 0.0935636 -0.187488 -0.230724 0.257266 0.260587 -0.0484212 0.027884 -0.0340807 -0.141747 -0.075999 -0.016955 -0.119094 0.0832717 0.0122195 0.242014 0.0846911 -0.0224268 0.1254 0.187385 0.139013 -0.145661 -0.213469 -0.0518978 -0.153887 0.111773 0.155912 -0.0507355 0.149317 0.107011 -0.0387279 0.0960263 -0.160485 0.112563 0.245628 0.0555724 0.0765065 0.0186862 0.197824 -0.0784884 0.172504 0.17026 -0.136775 0.143899 -0.0308521 -0.0134879 0.157457 -0.0548851 -0.103942 -0.0911581 -0.216046 0.0422153 0.0629386 -0.0156855 0.0160837 0.178662 -0.0739499 -0.0820043 0.278266 0.0736089 -0.065451 -0.110836 0.0523809 -0.0296359 0.0878285 -0.248867 0.0370479 -0.18043 -0.0409494 -0.00859894 0.172759 0.15784 -0.145806 -0.113845 -0.0107474 -0.203595 -0.443321 0.0974689 0.0590762 0.138738 0.0974654 -0.11765 -0.0378085 0.0396032 -0.0341599 0.209411 0.101276 0.054585 0.0642948 -0.0816592 -0.244246 -0.0434918 -0.0511493 -0.0398815 -0.101907 -0.229432 -0.217805 0.334423 0.0354809 0.373939 -0.101938 -0.0124501 -0.0494364 0.126888 0.146081 -0.120901 -0.0428279 -0.270891 0.0412003 -0.149071 -0.221681 -0.0495346 0.0700516 -0.140041 0.176124 -0.0276952 0.171967 -0.0781222 -0.0631127 0.0920727 0.20286 0.0790837 0.0932971 -0.0967782 0.104835 0.228925 -0.0285095 -0.157656 -0.0233159 -0.0747166 -0.0592747 -0.028706 -0.0796588 -0.023892 0.213072 -0.0764789 -0.147309 -0.113878 0.30447 -0.106864 0.115168 0.0993886 0.26071 0.12362 0.256051 -0.171614 -0.050703 0.102027 -0.0128043 -0.118017 0.237781 0.0965785 -0.0594451 -0.0116695 0.165967 0.151532 -0.0517369 -0.0020253 0.241666 0.00760401 0.335047 0.181384 0.0764776 -0.0888329 0.00477586 -0.321846 -0.218396 0.19404 0.0554463 0.0134768 -0.0645693 -0.228285 0.0176896 -0.000507209 0.242317 0.119871 -0.041215 -0.0334584 0.00214062 0.143488 0.0815528 0.0233413 -0.0772825 0.0278373 0.052788 0.0410359 -0.0876838 -0.0651699 -0.0903746 -0.0683201 -0.00198286 0.240658 -0.107522 -0.186898 -0.16961 -0.245626 -0.0699363 -0.0314666 -0.119741 0.465512 -0.110351 0.0881402 -0.128426 0.0466252 0.0649316 -0.129338 0.0707908 -0.0817423 -0.0275013 -0.0900723 0.135062 0.291188 0.0934179 0.0349144 0.275888 -0.0422898 0.188139 -0.0308202 0.295829 0.0290558 -0.143213 0.206084 0.268548 0.0603973 -0.0767612 0.0768296 -0.117819 -0.0586301 -0.0228608 0.0747271 0.0166098 -0.0525555 -0.0295201 -0.0735946 0.112789 -0.1074 0.054895 0.0557005 0.0246955 0.0486042 0.203442 -0.00932759 0.158156 0.0454087 0.27651 0.0908582 0.0910298 0.172933 0.319001 0.137652 0.105102 0.123207 -0.108312 -0.198698 0.363454 0.0732952 0.0323314 -0.241807 -0.0136396 0.122561 -0.0133937 0.111834 -0.0348878 0.189718 0.0575816 -0.167487 0.252053 -0.269279 0.020933 0.184744 -0.0460143 0.0504517 -0.11329 -0.0117097 -0.100274 -0.218345 0.0816534 -0.0225069 -0.00951035 -0.0483842 0.0286234 0.269535 0.158682 0.00774107 -0.0648222 -0.00980849 -0.109672 0.268327 -0.0816392 -0.048611 0.00677353 -0.0338778 0.130908 0.249159 0.0103019 -0.0657265 0.0728006 0.110124 0.255756 -0.00373497 -0.174085 0.165195 0.09114 -0.171322 0.273564 0.014728 0.309013 -0.172862 0.206334 0.143162 0.084811 0.0635133 -0.0780386 -0.130729 -0.147826 0.183406 -0.00145705 -0.023437 0.0154505 0.0656123 -0.0575526 0.422775 -0.0423552 -0.0151717 -0.0379484 -0.2429 0.198554 -0.0802957 -0.299662 -0.0939744 -0.133434 0.0862556 0.00700785 0.122288 0.122624 -0.0764318 0.200149 -0.0185557 -0.0874745 -0.152427 0.128588 -0.0760525 0.0900724 0.0916992 0.141158 -0.0197002 -0.0718035 -0.165511 -0.199982 0.035196 0.174906 0.0105358 -0.0498182 0.0357685 -0.152765 -0.149874 -0.140757 -0.0498493 0.293632 0.0667756 0.0984208 -0.00959284 0.0267158 0.111096 0.0124847 0.0240074 -0.0966539 0.0835878 -0.000413695 0.11764 0.0324731 -0.00406289 0.329305 -0.109524 -0.0175894 -0.0533596 -0.0645816 0.304977 -0.180629 -0.0933978 0.0590702 0.100939 0.053206 0.115268 0.28137 -0.176835 0.159706 -0.223622 -0.0484126 -0.168472 -0.18671 -0.190416 -0.188105 0.119468 -0.000374448 -0.120691 -0.040848 -0.0570911 -0.0836066 0.132021 -0.0465434 0.0389386 -0.0808193 0.295779 0.149769 -0.0140787 0.0386074 -0.0395961 -0.0711745 -0.0432501 -0.0943605 0.112682 0.108339 0.150385 0.0504454 0.10502 -0.284054 -0.00740687 -0.152044 -0.158904 0.160614 -0.120513 0.222608 0.213507 0.0416962 0.00759587 -0.120816 -0.0700432 0.261963 -0.200108 0.178195 0.0256912 -0.11608 0.0647618 0.171686 0.184835 -0.167184 0.0133505 0.0313509 0.226617 -0.20622 0.0609292 -0.00268649 0.315006 0.181261 -0.271443 -0.160314 -0.026286 0.0954879 -0.11375 -0.00879678 0.192366 -0.112054 0.0780611 -0.150101 0.206963 0.0704349 -0.117865 0.139952 0.00192857 -0.0398167 0.0177145 -0.121147 0.103251 0.109154 -0.0599419 -0.0319261 0.0260733 0.10942 0.105979 -0.0377796 0.0562737 -0.0366844 -0.0884375 -0.0965297 -0.00101497 0.0209813 -0.095544 -0.0479328 -0.0182901 0.307117 -0.212194 -0.148574 -0.0965996 0.0509693 -0.177934 0.292879 0.240331 0.105061 -0.302067 -0.164039 0.00488094 0.151907 0.161238 0.174051 -0.00115372 0.219383 0.014561 0.102804 -0.0570573 0.0276322 -0.114673 -0.225738 0.0277853 -0.0211186 -0.102627 0.0515385 -0.0773547 0.121637 0.120992 0.0177941 -0.033318 -0.238375 0.0045256 0.0372436 -0.218512 -0.058845 0.123447 -0.115267 -0.0893913 0.0481303 0.118049 0.351906 0.117503 -0.0315917 -0.0141755 -0.240281 -0.0366231 -0.077192 0.111788 0.126997 -0.075216 0.340821 0.225018 0.083314 0.176173 -0.229708 0.222537 -0.13269 -0.0115169 -0.0719069 -0.200064 0.0580029 -0.08957 0.010718 0.11941 -0.250179 -0.114966 0.0231564 0.0231796 -0.046884 -0.0941221 0.0807138 -0.123417 -0.00971768 0.0158535 -0.0625874 0.124002 0.00656594 -0.0398316 0.0646521 -0.0687979 0.0511674 0.0221854 0.00707712 -0.060819 0.0485135 -0.0814962 0.169967 -0.067957 0.107049 -0.163121 0.0933968 0.0511106 -0.131302 0.0351094 0.18644 0.0156844 0.0144293 0.201103 -0.0464969 0.0372335 -0.0540396 0.234171 -0.309627 0.241288 -0.0828607 0.00680984 0.015662 -0.210763 -0.114555 0.0946763 0.236882 0.16373 -0.0100245 -0.278784 -0.169902 0.042383 0.12697 0.275446 -0.27417 -0.141512 0.333224 -0.323489 0.168576 0.0393295 -0.105006 -0.0225351 -0.0225977 0.137337 -0.120111 -0.129489 0.211847 -0.0363619 0.0408494 0.0830008 -0.231173 -0.0559626 -0.0290039 0.0798912 -0.0612597 0.0231385 0.0999805 0.327761 0.113522 0.0601414 0.203897 0.167543 -0.000108252 0.299863 -0.146541 0.0952882 -0.0382054 -0.026809 -0.0252383 -0.128644 0.0444261 0.0773716 0.16382 0.00602749 0.375304 0.186483 0.0567758 0.0311455 -0.0968872 0.235245 0.12226 0.0844633 0.197969 0.0801052 0.123396 0.0599708 -0.119823 0.0278488 -0.165149 -0.0824525 -0.135564 -0.229156 -0.117591 0.0581864 0.0601679 -0.00880622 0.123152 -0.0862939 -0.0385492 -0.157371 0.234992 -0.281299 0.280563 -0.262918 0.199937 -0.130859 -0.0698102 0.0323978 0.111904 0.159893 -0.104204 -0.0943504 0.0396358 0.010497 0.139996 -0.0394486 0.151655 0.0117145 0.0915838 0.128194 -0.195922 0.157983 -0.259303 -0.483725 0.0457832 -0.140947 -0.0743642 0.0624643 -0.145873 -0.0651356 0.0450762 0.199267 -0.24458 -0.0349135 -0.0282917 -0.0997014 0.003808 -0.150733 -0.0594713 0.0729915 -0.156252 -0.181851 0.151445 0.0517664 -0.01269 0.019977 0.112377 0.0920208 0.00119772 -0.175622 -0.220028 -0.00798553 0.209462 -0.23337 -0.0574254 -0.0589596 0.121436 -0.166824 -0.18066 0.127927 -0.155015 0.110026 0.0760678 0.187066 -0.127685 -0.021924 0.00875267 -0.0110485 0.0859252 -0.124158 -0.132918 -0.057794 0.105255 -0.155669 0.00625464 -0.13691 0.156443 0.2251 -0.0248678 0.132503 0.097555 -0.267597 0.0446476 0.0952029 -0.161689 -0.155746 -0.062671 0.00137949 -0.0198534 0.12037 0.00715703 0.142295 -0.0201377 -0.178951 0.0400391 0.040045 0.102447 -0.174023 0.0239822 0.0483001 -0.0984331 0.126534 0.181746 0.00970301 -0.00270897 0.0908339 -0.10524 0.194566 -0.194668 -0.16079 0.228971 0.1355 -0.0361188 0.0480589 0.0107757 -0.003185 -0.0109962 0.219403 -0.0201828 0.0284079 -0.00449539 -0.294039 0.221187 -0.00996104 0.144446 -0.0571462 0.030959 -0.156579 0.105675 0.239865 -0.265722 0.130374 -0.15762 -0.128343 0.0718667 0.168725 -0.0388034 -0.0582269 -0.318581 0.00822464 0.197126 0.0125801 0.10296 0.0476593 -0.128362 0.0342963 -0.0955939 -0.122445 -0.187904 -0.0126482 -0.185596 0.13279 -0.191832 -0.132978 0.0615009 0.205864 0.022924 0.0759709 0.0507185 -0.138659 -0.0923569 0.212472 0.0393457 0.0460746 0.0622877 -0.0468523 -0.0984336 -0.218988 -0.0465416 -0.0595498 0.0744893 -0.00596249 0.233924 0.0840162 0.100551 0.15795 -0.0105721 -0.0120095 -0.198136 -0.171572 0.351604 0.0520266 -0.0746601 0.268585 0.0392011 -0.156413 0.355062 -0.158387 -0.0309373 -0.132076 -0.0474154 -0.0783722 0.155391 -0.0422405 0.0639571 0.0304514 0.0995602 -0.344154 -0.00496434 -0.243459 -0.0083309 -0.0796928 -0.0274418 0.046432 0.0594718 0.0430827 -0.230763 -0.073876 -0.211618 0.0285489 0.0226211 0.203258 0.102197 0.145548 -0.2228 0.0541643 0.0221185 -0.189439 0.0512454 -0.24583 0.193285 0.149986 0.0327466 0.0871252 -0.215892 0.144491 0.0740918 0.0239219 0.18444 -0.187226 -0.0504242 -0.0248867 -0.0673131 0.0497766 -0.0856773 0.0567273 0.0425011 0.208368 0.124504 -0.0221819 -0.141967 0.195682 -0.0157259 0.0431437 -0.00904763 -0.131868 0.0198679 -0.191218 -0.225094 -0.0792603 0.104073 0.146681 -0.0920485 -0.137402 -0.104147 -0.32515 -0.110352 -0.0579583 0.0637159 0.0805032 -0.345314 0.0731784 -0.016134 0.211427 0.119471 -0.27571 -0.13376 0.0249407 -0.153081 -0.0611706 0.0336485 0.0437814 0.0839575 0.217022 -0.193151 -0.167902 -0.122868 -0.103324 0.443082 -0.0669847 0.0854362 0.0286962 -0.10349 -0.0908038 0.0270472 -0.141171 0.271931 0.27347 -0.0927194 0.168474 0.182907 0.100809 -0.243753 -0.0926671 0.000124698 -0.191631 0.120962 0.0564354 0.139663 -0.0224069 -0.00502049 0.17806 0.290996 -0.185471 -0.205651 -0.151834 0.0299264 -0.03997 -0.0926363 -0.171386 -0.0733314 -0.0184308 -0.110324 -0.0834474 0.0783135 0.0980834 0.0934424 0.106886 -0.0743157 -0.130092 -0.0215773 0.180536 0.0890511 -0.0183087 0.0814914 -0.00772853 -0.139661 -0.0426941 -0.155327 0.0519462 -0.18285 -0.0177239 -0.0334859 -0.0573049 -0.132272 0.234734 0.198307 0.00790263 0.186468 -0.165662 0.0544602 -0.0837224 -0.214091 0.113125 0.0243098 -0.224842 0.043403 -0.142714 -0.0705684 -0.0394003 0.198247 0.0040467 0.169072 -0.00097442 -0.0170449 -0.110838 0.0905137 0.154483 -0.240993 -0.0328193 0.146644 0.268264 0.370282 0.111625 0.0904802 0.127088 -0.152217 0.208933 0.180135 0.0855116 -0.115419 0.0386313 -0.0743765 -0.157355 0.0198616 -0.154401 0.0149626 0.0638902 0.00261077 -0.153078 0.00512258 -0.0795142 -0.015555 -0.302832 0.0691058 0.0280612 0.242261 -0.0780947 0.125808 0.0337057 -0.0469391 0.121065 -0.151532 -0.0850637 0.0713545 0.101541 0.146711 -0.0226048 0.321371 0.11785 0.171663 -0.0795354 0.0541002 -0.0805431 -0.0401176 0.33347 -0.0645866 0.268024 0.0656622 -0.121819 -0.113844 0.102503 0.0620003 -0.0570315 0.203404 0.0481831 0.0459615 0.164607 -0.237807 0.222948 -0.142012 0.177081 -0.044494 -0.0439715 -0.16691 -0.0609961 -0.0619533 0.0490161 0.185312 0.00791258 -0.0864869 0.0842098 0.0062504 0.0259516 -0.112349 0.0280132 -0.0274192 0.168456 -0.10749 -0.28977 0.172084 -0.0602567 -0.0985641 0.0515554 -0.168502 -0.0102701 -0.0839264 0.17725 -0.065064 -0.0571339 -0.124343 -0.0320169 -0.179135 0.114317 -0.0942776 0.00773778 -0.218772 -0.0953599 -0.181692 -0.259653 -0.0209803 -0.148953 -0.139229 -0.123963 0.0402711 0.269216 -0.0209214 -0.117315 -0.122362 0.153097 0.00799882 -0.176734 0.0145127 -0.0220666 -0.204094 0.215005 0.182801 0.159284 0.0580397 0.0947029 0.0193838 0.0682418 -0.0759048 -0.0905145 -0.0666821 0.274163 -0.178512 -0.103594 0.140043 0.0101385 -0.158113 -0.0921694 -0.111568 -0.145527 0.2116 0.00117959 -0.0714983 -0.0473784 0.0627929 0.210422 -0.094496 0.0911293 -0.00734054 0.0601082 -0.207607 0.0500626 -0.0630057 -0.234698 0.0679722 -0.0315617 -0.0598666 0.129945 -0.0113377 -0.220381 0.175672 0.37075 -0.0142709 -0.196222 0.0833575 0.225969 -0.209343 -0.161037 -0.00779143 -0.0658575 -0.105145 0.0278219 0.193799 -0.0497955 0.02308 0.226652 0.0232061 -0.0681198 -0.0586418 -0.0843249 -0.0785677 0.0703864 -0.0899337 0.113114 0.10624 0.155912 0.0126936 -0.104186 -0.23585 0.0602356 -0.173577 0.0506766 0.20472 -0.0569943 0.111003 -0.0806367 -0.0319679 0.0348092 0.0965163 0.246834 -0.0433569 0.398398 0.0314454 0.0458114 -0.0499921 0.0391862 0.0297423 0.0344366 -0.167368 0.136082 0.0934554 0.0806172 0.152414 -0.257652 -0.101534 0.0289947 -0.133252 -0.0834203 -0.140576 0.144965 0.0884095 0.167755 -5.04714e-05 0.243447 -0.147575 0.200141 0.104989 -0.133259 -0.167887 0.0598904 -0.150953 -0.0614935 0.0260449 0.0805942 -0.191367 -0.240897 -0.238871 -0.0671564 0.0761068 -0.235624 0.101373 0.018781 -0.107516 0.0743499 0.102372 0.0709155 -0.217789 0.044594 -0.1503 0.0613596 0.0846244 -0.149943 0.0383353 -0.163355 -0.288329 -0.176352 -0.247742 0.0701966 -0.0791029 -0.0148861 -0.0420303 0.0777692 0.126517 -0.0470822 0.00191313 0.199444 0.106155 0.128569 -0.0259262 -0.14015 -0.184853 0.083749 -0.00162054 0.113072 0.220061 0.10928 -0.0532575 0.0426611 -0.0492761 0.013273 0.0592046 -0.155372 0.118979 0.117254 0.131688 -0.0729415 -0.214612 0.0176876 0.0528844 -0.337294 -0.128495 0.0199938 -0.08548 0.0760918 -0.280936 -0.130998 0.21954 0.186168 -0.111535 0.372414 0.0628587 -0.139445 -0.141715 0.138657 0.210779 0.0216751 -0.0856097 -0.0285629 0.0570232 -0.154939 -0.0116143 -0.0110146 0.0811342 -0.0733998 0.0173479 -0.147537 -0.0752601 0.0946895 0.110767 0.0548009 0.048571 0.123427 0.192703 0.334827 0.224727 0.142543 -0.0260672 -0.0557741 0.268229 0.349998 0.0955736 -0.105976 -0.179986 -0.0396591 -0.0412752 -0.00166692 0.158181 0.0305618 0.0888257 -0.215483 0.0383291 -0.0397928 -0.0219754 0.00123976 0.0891239 0.0574036 0.218848 -0.268879 -0.277229 -0.0686157 -0.119158 -0.193598 -0.0933882 0.207098 -0.199538 0.125892 0.0829684 -0.203179 -0.145078 0.255418 -0.0314485 0.0400852 0.00580427 0.0317037 -0.0154069 0.135486 -0.266227 0.04171 0.27014 -0.0898141 -0.0162222 0.285755 -0.0249529 -0.0293429 -0.140702 -0.0804736 0.216511 0.103047 0.107428 -0.125568 -0.111765 0.0821177 -0.164244 -0.0153345 -0.00475837 0.0914267 -0.265575 -0.064422 -0.237166 0.133851 0.0853163 0.0445342 0.142055 -0.155039 -0.381439 0.099848 -0.0187107 -0.120117 -0.0729188 -0.0347124 -0.0963566 0.261662 0.0403403 -0.0672334 0.087653 0.0651585 -0.145585 -0.203087 0.0329819 -0.13918 0.146269 -0.0378309 -0.143048 0.0702689 0.153007 -0.0508045 -0.180866 -0.232706 0.0124392 0.071412 -0.108834 0.117211 0.20545 0.0995271 -0.0118494 -0.0686225 -0.00265391 -0.138321 -0.0710789 -0.110486 0.166671 0.00185171 -0.0189244 0.216391 -0.0634562 0.0928881 -0.200375 0.0803608 0.0988912 -0.368614 -0.0647301 0.232986 -0.122074 -0.0829482 -0.22776 -0.110424 -0.00680235 -0.148781 -0.00456781 0.189839 -0.0776427 0.0685673 -0.0785541 -0.230824 -0.00976671 -0.0880657 0.0231895 -0.0358584 -0.00381822 0.128603 -0.00194476 -0.16388 -0.0742975 -0.0397132 0.0309479 -0.0406718 -0.194772 0.204983 0.295491 -0.118712 -0.212498 -0.220541 0.0268058 0.134852 0.0685192 -0.054037 -0.0612307 -0.10763 -0.057745 0.0639137 0.0296697 0.132163 0.133231 0.0261064 -0.078372 -0.362831 0.0424855 0.0662851 0.0743603 0.114712 -0.0785703 -0.0129018 0.157461 0.0942097 0.239934 0.0555062 0.035956 0.0760458 -0.271583 -0.142609 0.172405 0.0466484 -0.00270538 0.260398 -0.0681369 0.116108 -0.213124 0.146145 -0.154829 0.0734233 0.0415825 -0.0309427 0.176722 0.282086 -0.240989 -0.10683 -0.0290846 0.0485977 -0.188815 -0.122295 -0.107682 -0.0606265 -0.083523 0.332144 -0.266381 0.023003 0.125168 0.0452324 -0.280117 -0.0262417 0.0644116 -0.148457 -0.146341 0.231353 -0.094465 -0.0564405 -0.0574767 -0.188821 -0.0292771 -0.160845 -0.0412777 -0.16351 -0.0786298 0.0942333 0.0559191 0.125106 -0.198224 -0.12434 0.0239422 -0.100808 0.0884346 -0.0475104 0.0876634 0.159198 -0.179751 -0.0742998 0.252542 0.300079 -0.0176186 -0.0560344 -0.114797 0.185691 0.0326415 0.2406 0.111332 0.0661782 -0.0247418 0.0915989 -0.197539 -0.332283 -0.096052 0.284949 -0.0266479 -0.183561 -0.201583 0.0120609 0.0923511 -0.115297 -0.123161 0.107026 -0.0346193 -0.220124 0.140446 0.0824059 -0.197836 0.159286 -0.00912076 0.083542 0.0932761 0.169169 0.161855 -0.0665244 0.0108051 0.164449 0.245729 -0.0259572 0.192809 0.0706223 -0.0580363 0.0447549 -0.0474635 -0.129918 0.0270926 -0.10822 -0.267242 0.0769301 -0.123623 -0.0864614 0.128947 0.200232 0.128179 0.198229 -0.115028 -0.0811178 0.0181107 0.143434 -0.194222 0.0622229 0.15845 0.0719501 -0.00893515 -0.00442134 0.0203635 -0.186498 -0.077004 0.0139416 0.139449 0.105617 0.253062 -0.109705 -0.22559 -0.175603 0.0196095 0.276455 -0.388587 0.146336 0.197162 0.148839 0.034907 -0.0121801 0.184022 0.0256089 0.297877 -0.138979 -0.0579243 0.0108616 0.247316 -0.034477 0.246826 -0.0276705 -0.101214 0.0199143 -0.146392 0.245175 -0.140436 0.0986965 0.061989 -0.00596027 -0.207757 0.199229 0.215125 -0.0195124 0.0174157 0.141 -0.0732638 -0.153588 -0.191938 -0.0349263 0.0421137 0.0476385 -0.0473742 -0.00463011 -0.0533106 0.0179478 -0.183873 -0.0171947 0.217602 0.00424701 0.0313189 0.150225 -0.138983 -0.0581663 0.0514834 0.114914 -0.0300477 0.206478 0.049129 -0.0567843 0.0518443 0.0914908 -0.161461 -0.159103 -0.0511688 -0.113113 -0.0903756 -0.355397 0.0877295 0.0975267 0.0466461 0.0954003 0.220791 -0.188509 0.0138084 0.157538 -0.015257 -0.111642 0.0341295 -0.0847646 -0.0676606 0.329337 -0.0367387 -0.0336602 -0.247208 0.158887 -0.265799 -0.0282899 0.0459576 -0.0160894 0.16832 -0.0455964 0.00493513 -0.12612 -0.147058 -0.086121 -0.0310739 0.0429389 0.0862365 0.159597 -0.00833925 -0.0685177 0.353439 0.125352 0.0972009 0.0247435 -0.0259236 0.0479935 0.151087 0.0314188 -0.150368 0.15358 -0.087674 -0.128248 -0.13147 0.240509 -0.00216401 -0.323361 -0.172677 -0.04178 -0.116445 -0.115976 0.199301 0.20729 0.0517973 -0.063624 0.205225 0.0994449 -0.00404276 -0.0702295 -0.0191443 -0.105587 -0.0637552 0.275777 0.220722 -0.185856 0.119181 0.0629152 -0.0602471 0.0992301 0.0252984 -0.012832 -0.1633 -0.138885 0.0845539 -0.115135 -0.0742173 0.0550395 -0.250428 0.203899 0.115163 -0.0905907 -0.247663 0.1461 0.090623 0.0783616 0.0148007 -0.00415477 -0.123118 -0.181194 0.0961184 0.214041 0.17013 0.0979051 0.0518022 0.0274755 0.0404487 -0.210443 -0.00674423 -0.0595217 0.0614911 0.214648 0.00663832 0.00377315 0.177999 0.154472 0.0941335 0.26008 0.179635 0.100943 -0.160783 0.222393 -0.00376902 0.168476 0.0175712 -0.0917149 0.157875 0.188898 0.05671 0.0477279 0.0847564 0.102432 -0.10519 0.142114 -0.0380118 0.0808262 0.102693 0.058417 -0.21369 0.0620336 0.264756 0.0836318 -0.00657553 0.09796 0.385897 -0.144472 -0.129897 0.0507907 0.0142269 -0.0490798 0.0275568 -0.049298 0.104657 -0.0259625 -0.0144275 -0.130839 0.102899 -0.321224 0.141411 0.308221 0.0292512 -0.0557916 0.280731 -0.0130928 0.1366 -0.0371553 0.0916221 0.150181 -0.00782799 0.0886051 0.146599 -0.0640846 0.219832 0.0250313 0.00742172 -0.272932 -0.0157736 -0.00735995 -0.18791 -0.014256 -0.0465279 0.100491 -0.0367337 -0.0276425 0.00349522 0.142392 0.00593941 -0.0527801 0.05054 -0.0835902 0.00875345 0.261421 -0.0986106 0.0533454 0.118244 0.0843883 -0.00272848 -0.0137897 -0.101787 -0.0995392 0.0722608 -0.12154 -0.171855 -0.394512 -0.0989693 0.150932 0.460946 -0.101898 -0.234064 -0.0657757 0.0398695 -0.350466 -0.0451005 0.279249 0.0885332 0.101747 -0.0434717 -0.0617372 0.221307 0.175815 -0.0982367 0.0785572 0.0317626 -0.0775332 -0.267222 -0.103365 0.199977 0.187819 -0.0847038 -0.0421106 -0.021141 0.0870072 0.251113 -0.0830168 0.1485 -0.057999 0.163203 0.172367 0.0728312 -0.0314814 0.0497673 0.174584 -0.0998397 0.224971 0.0392711 -0.131938 0.0568859 -0.142715 -0.0784072 -0.026188 0.0808848 0.214614 0.0485929 0.257448 -0.00630697 -0.0357672 0.038901 -0.0254958 -0.0408159 0.307608 0.205319 -0.200932 0.0539787 -0.128776 0.0160909 0.0483468 -0.0176699 0.0943259 -0.218318 0.00828721 0.126193 -0.0830699 -0.185126 0.0176757 -0.0123484 0.0526092 -0.060213 0.292666 0.0499934 -0.145802 0.117099 0.153075 0.269175 -0.133773 0.0444309 -0.276343 -0.0309297 -0.0724976 -0.237285 -0.133416 -0.0376157 0.124128 0.236638 0.131594 0.359144 0.101745 -0.103326 0.104319 0.0174683 0.128498 0.0958241 -0.322833 0.205073 0.168996 0.0392827 0.189218 -0.0769413 -0.022822 0.0348585 -0.0786378 0.079071 -0.198597 0.0165388 0.311333 -0.116914 0.106428 -0.0968613 0.110799 -0.0451195 0.124562 0.0591326 0.479829 0.135735 -0.203699 0.233236 0.0565946 -0.118849 -0.0829282 0.115462 0.167493 -0.126878 -0.125295 -0.0480718 0.10663 0.0230471 0.0867373 0.0120679 0.0820682 -0.213658 0.201626 -0.154655 0.0271758 -0.13098 -0.0240533 -0.0106499 0.0858914 0.169305 0.111958 0.158898 0.173764 0.00461781 -0.276747 0.01725 0.201067 0.0783703 0.130443 -0.202159 -0.0420087 -0.0849507 0.156642 -0.23187 0.0649388 0.145673 -0.137601 0.0322677 -0.111765 -0.0738331 0.0458063 0.119649 0.015423 0.087167 -0.141389 0.314478 0.0830225 0.0768808 -0.110818 0.15698 0.0407589 0.0820652 0.0747605 -0.238908 0.0101545 0.139967 0.0691623 -0.128703 0.220884 0.0170764 0.0595102 -0.146108 -0.230326 0.0317999 -0.135881 0.0750179 -0.0856041 0.0604116 0.177138 -0.160453 0.103829 0.0586951 -0.224547 0.0616513 0.0427004 0.000957033 0.229308 0.0706677 -0.00148362 -0.0266771 0.33772 0.140068 -0.0314913 -0.0650355 0.173685 -0.242486 -0.192315 0.0681303 0.0886466 0.124903 0.110898 0.0159474 0.102516 -0.152585 -0.012353 0.347307 0.124771 0.226867 -0.0520813 -0.145349 0.0447254 0.0337946 0.110761 0.0117691 0.189832 0.168856 -0.120081 -0.15448 -0.277371 0.098603 0.0324871 -0.0803666 0.0930016 -0.213568 -0.179594 -0.03925 -0.0521476 0.0040463 0.0989285 -0.157714 0.149185 0.0785476 0.0338004 -0.31873 0.0427782 -0.0590976 -0.0766264 0.262726 -0.113019 -0.245384 -0.14431 -0.101879 0.056268 0.122516 0.0131333 0.183717 0.202773 -0.0776467 -0.0133015 0.0788657 -0.252036 0.0897348 -0.0459675 0.174481 -0.160517 -0.133926 0.191104 -0.245109 0.0588169 -0.232747 -0.057394 -0.116835 0.0963679 0.190905 0.0575579 0.0206069 0.220784 -0.0640815 0.0243854 0.0214994 -0.0438864 -0.0534009 0.0234586 0.0500204 -0.187248 0.111796 -0.112197 -0.167136 -0.127048 -0.0722868 -0.130973 0.25711 -0.154134 0.0351402 -0.0139506 -0.0363752 -0.0991922 -0.0265734 0.126608 0.0251642 -0.213688 -0.15105 0.0611516 0.218605 -0.0735264 -0.0574032 -0.1008 -0.0957273 0.0922374 0.0175345 0.128438 -0.165942 -0.0672682 0.025942 -0.122715 0.0988012 0.0900736 0.163787 -0.0110281 -0.175741 0.0200819 -0.00460163 0.0787087 0.000993819 0.0783998 0.10101 0.230894 0.334376 0.052635 0.0295459 0.0967009 0.232605 0.23097 -0.0137951 -0.0436097 0.0300624 -0.0294826 -0.0522132 -0.171739 -0.202662 -0.0747558 0.060313 0.0171004 -0.00943199 0.0860651 0.187283 0.352231 0.142758 -0.0804824 0.0516876 0.316949 -0.116763 -0.0965057 -0.0125159 0.281051 0.0541541 -0.2451 0.304667 0.147237 0.273234 0.0285801 0.232737 -0.00222383 0.204677 -0.0269644 0.0775771 0.132593 0.122069 0.237594 0.253016 0.136005 0.183892 -0.161235 -0.200305 0.0134131 -0.0926702 0.0213397 -0.228558 -0.0915966 -0.163195 0.189795 0.123198 0.347739 -0.124102 0.186698 -0.154651 0.287096 0.16144 0.0621531 0.218922 -0.0758526 -0.061438 0.100278 -0.138651 -0.133343 0.0907938 0.0266433 0.142416 -0.0131665 0.0300684 0.151218 -0.1345 0.0660753 0.0117889 0.090073 0.103434 0.108343 0.0902389 0.113249 0.110918 -0.055695 0.00908693 0.279378 -0.215143 -0.0137494 0.1901 -0.00124193 -0.19208 -0.107996 0.0965693 0.15699 0.0664066 0.0554402 -0.105261 0.216067 0.245638 0.102039 0.048267 -0.101353 0.161561 -0.120803 0.106302 -0.292832 -0.0703201 0.179152 0.0941064 -0.030212 -0.0817597 0.0477935 -0.0903773 0.0892958 0.0179869 -0.0294998 0.0941363 -0.113026 0.101153 0.294699 0.120995 -0.0557059 0.123797 -0.123451 -0.131058 -0.124692 -0.136684 0.108345 -0.104418 0.174946 -0.202808 0.0881774 -0.0192103 -0.112694 -0.0370699 -0.382705 -0.0220115 0.020577 -0.0174752 -0.0913778 -0.164639 0.0621508 0.106585 0.00796293 0.0704993 0.0350985 -0.0850441 -0.149047 0.0223629 -0.201997 -0.276531 0.0472722 -0.164827 -0.124358 -0.0376709 -0.0144007 0.256799 -0.21345 -0.172094 -0.152677 -0.0699613 0.0333922 -0.0121876 0.0500015 -0.0284062 -0.040419 -0.014897 0.00873818 -0.0185793 -0.0879816 -0.0130709 0.0722112 -0.0729872 0.0458361 0.150167 0.10642 -0.216726 -0.22473 -0.0677582 -0.0555296 0.176069 -0.284937 -0.15168 0.0152441 0.0625323 0.187054 0.305365 -0.103334 0.175284 -0.0533018 0.176522 -0.177925 0.06357 -0.282418 -0.122811 -0.0442045 0.0691655 0.170281 -0.0696247 -0.107341 -0.0616606 0.0351438 0.0569306 0.17961 -0.114695 -0.10406 -0.239836 -0.139636 0.303449 -0.156164 -0.0803799 -0.28042 0.0338373 0.263029 -0.0966979 -0.0869704 0.0412225 -0.0792469 0.0343972 0.129664 0.0516025 -0.0920424 0.121684 -0.0726817 0.0752104 0.0375472 -0.0469534 0.0614285 0.0445409 0.00850698 0.184565 0.0519495 0.0334292 0.123943 -0.10536 -0.125806 0.115705 0.0972915 -0.0678635 0.0857627 -0.221274 0.0357912 0.131208 -0.186287 -0.114968 -0.198658 0.287274 -0.191106 0.164926 0.107213 -0.128282 0.0302667 -0.018917 0.197378 0.100385 0.147713 -0.301475 -0.115773 -0.017594 0.18718 -0.275375 -0.0322772 -0.0212605 -0.0995293 -0.165313 -0.0808347 -0.0427629 0.292948 0.0356308 -0.141759 0.266774 0.0111117 -0.126292 -0.0242707 0.140112 -0.0452294 -0.348962 0.156095 0.129653 -0.00715316 -0.0139505 0.077236 0.0256019 0.0285866 0.15885 -0.185127 0.125056 -0.149483 -0.030142 -0.0872165 -0.0615034 -0.0816548 -0.0795091 0.0477812 0.0442255 -0.0564221 0.218827 0.215262 0.139055 -0.177481 0.10249 0.0520671 0.0353707 -0.247772 -0.134596 -0.207519 0.103117 -0.162623 0.000826993 -0.0338895 0.0514704 -0.246069 -0.130814 -0.0385697 0.245339 0.101388 0.119583 -0.119107 -0.0704368 0.214897 -0.106362 -0.119315 -0.197573 0.0180905 -0.061667 0.0338867 0.0693228 -0.0831774 0.103585 -0.172409 0.279548 -0.0463958 0.0949791 0.355299 -0.129986 -0.041132 -0.0963667 -0.0302135 -0.0632993 0.0503358 -0.202726 -0.213414 0.0406885 -0.127146 0.126513 0.0563013 0.00128974 0.0631199 -0.129077 -0.0478214 -0.157859 0.0198596 -0.114231 0.0759194 0.0174294 0.0152233 0.25406 -0.0782716 0.110022 0.384709 0.0988624 0.0307499 0.330252 0.04105 0.0981963 -0.0137889 0.029306 -0.103926 0.320951 0.110636 0.0614029 -0.0600475 0.0411732 -0.27795 0.0742172 -0.0289548 -0.162848 -0.109422 -0.0137589 -0.198694 0.109435 -0.0704942 0.0433675 -0.0280632 -0.136646 -0.216687 0.129015 -0.144373 0.0969164 -0.0582652 -0.0259399 0.0287069 0.030577 0.0114957 -0.0678246 -0.230629 -0.0680078 0.156149 0.144631 -0.0438519 -0.160723 -0.000216214 0.131559 -0.201145 0.0247925 0.0121259 -0.0412598 0.193441 -0.096108 0.0992117 0.136931 -0.0425389 -0.109027 -0.237996 0.183903 0.0467998 -0.0437858 0.0570166 -0.0314337 0.0816817 -0.191906 -0.0437689 -0.177468 -0.138352 -0.0220804 -0.168529 0.0189151 0.032061 0.162477 -0.0670948 0.059291 -0.159025 -0.104075 -0.164024 -0.200751 -0.13395 0.0236157 -0.00564016 -0.0394714 -0.271252 -0.0594079 0.131328 0.0500928 0.15335 -0.0982186 0.0955995 0.455704 -0.119744 0.0771075 0.221948 0.230063 -0.173067 -0.292641 -0.049379 0.0712615 -0.100029 0.183927 -0.0664702 -0.266971 -0.025854 -0.0661466 0.0320475 -0.0229388 -0.126971 -0.0293936 -0.0225591 -0.0511423 -0.17846 0.0662702 -0.264904 0.0286281 0.0295515 -0.0791477 -0.0889285 -0.124967 -0.0367125 0.178281 0.135747 -0.063755 0.0984687 -0.126864 -0.286816 -0.00456572 0.0654078 -0.0921389 -0.130185 -0.0972448 -0.188511 0.218315 -0.135027 -0.353577 0.0656973 -0.0808052 0.0585036 -0.0309593 -0.00104286 0.0650372 0.0194553 0.0489087 -0.0256671 0.160235 -0.129237 -0.146014 0.0646939 -0.0136437 0.255388 -0.120775 -0.0311312 0.168885 -0.271292 0.0200291 0.0620084 -0.101218 -0.185799 0.238052 0.0320245 -0.132466 -0.0578037 0.029944 0.0398458 0.212533 0.0784965 0.00478915 0.154965 -0.0480403 0.0524469 0.171839 0.221052 -0.139021 0.315365 -0.279611 0.185528 0.223216 0.00660053 -0.0751315 0.154233 0.256309 0.168263 0.0157687 -0.138133 -0.135369 -0.170939 0.170086 0.00322891 -0.25699 0.0497376 -0.116609 -0.021016 0.136887 -0.101871 0.0124058 -0.152933 -0.121524 -0.066546 -0.0191275 -0.0982427 0.0877828 -0.107747 -0.235237 0.056789 0.182725 -0.232906 0.0520422 -0.0254317 -0.145365 -0.0358394 -0.0516943 0.0788558 0.00484148 0.123173 0.0689259 0.0698862 -0.181259 0.205115 0.151528 0.149064 0.218312 -0.124702 -0.191124 0.06795 0.142987 0.170657 -0.0512614 0.0962632 -0.271857 -0.352151 0.0397334 -0.223887 0.0576752 -0.094986 0.134252 0.0536299 0.01451 -0.0553524 -0.201135 -0.182882 0.0157043 -0.0716042 -0.029148 0.208297 0.0698271 0.152909 0.0728812 -0.201635 -0.18016 -0.0590864 0.08015 -0.0699628 -0.0377957 -0.0424644 -0.216713 0.195075 -0.138736 -0.0862908 0.217918 0.109471 -0.0306886 -0.0329265 0.213635 0.060277 0.0844243 -0.0757206 0.191163 0.157325 -0.248116 -0.0686627 -0.258023 0.0616063 -0.0841792 -0.0886179 -0.0627221 0.126176 -0.225434 -0.0666611 -0.234756 -0.194551 0.00659992 -0.0252895 -0.0497656 0.0409715 0.0315892 -0.0485786 0.00367703 -0.0136618 -0.13707 -0.157382 -0.317914 -0.180993 -0.00331245 -0.0410029 -0.0940407 -0.144131 0.327596 -0.0457592 -0.0968882 -0.0843675 -0.133908 -0.232509 -0.129184 0.305949 -0.061013 -0.0110031 0.0338894 0.00959222 0.247013 0.0991807 0.145971 0.124472 0.0550175 -0.188459 0.0301775 -0.117476 0.0176162 -0.0936933 -0.242246 -0.183779 -0.165278 -0.0132922 0.0933054 -0.196398 0.168046 0.182108 0.192222 0.209137 -0.272872 0.0036552 0.0983703 0.110678 -0.168859 0.107784 0.149896 -0.196945 -0.0539635 0.185608 -0.0449869 -0.136099 -0.0597869 0.128871 -0.0951818 -0.216838 -0.224529 -0.160934 0.0674622 -0.137261 -0.0702377 0.065239 0.0876944 0.00844601 0.0529476 -0.149111 0.0404472 0.23611 -0.218156 -0.132222 0.133029 0.00521145 -0.192562 0.0371944 0.143715 -0.240422 0.223153 0.0226192 0.160056 -0.0836827 0.176858 0.0288032 0.0564768 0.0316838 0.169174 -0.088433 -0.0364836 -0.106101 -0.043206 -0.0430265 0.0106472 -0.0303411 0.0884714 0.00158776 -0.0137723 0.0244663 -0.0658139 -0.0615967 0.216791 -0.0585042 -0.1364 0.10031 0.137107 0.000746188 -0.0318454 0.0119703 -0.00291712 0.0502667 0.118231 -0.178722 -0.0128373 -0.0773017 0.0447094 -0.0595571 0.109547 -0.115229 -0.137309 -0.0475422 -0.177265 0.0176367 -0.0946032 -0.0242224 -0.0359714 -0.124199 -0.0821129 0.0916179 0.127832 0.120644 -0.0151822 0.0212409 0.00692099 -0.039988 0.16435 -0.0694117 0.0221821 -0.188357 -0.223345 -0.0338484 -0.215913 0.159194 -0.200573 0.238655 -0.234564 -0.103875 -0.109279 0.234106 0.0125242 -0.0843547 -0.0260389 -0.159812 -0.550994 0.0964317 -0.0925205 -0.369158 -0.1012 -0.228586 0.131557 -0.0188975 -0.305165 -0.0717275 -0.044522 0.258922 0.0958614 -0.142142 -0.0419849 -0.0794867 0.140623 0.0427045 -0.00966249 -0.203249 -0.114955 -0.0841058 -0.111248 0.0393101 0.125179 0.00488569 -0.101853 0.100308 0.00696632 0.129109 0.00660733 0.00157039 -0.156628 -0.14209 -0.161545 -0.0947472 0.239179 0.0720697 0.228662 -0.237905 -0.0154522 -0.26575 0.0893551 0.161482 0.101405 0.062828 0.491356 0.134516 0.28514 0.283118 -0.295736 -0.0332387 0.153413 0.0238892 0.00281521 -0.113226 0.0644832 -0.0142693 -0.185838 -0.18886 0.0875775 -0.136401 0.0613874 -0.016157 0.0113221 0.10666 -0.0372381 -0.0125873 -0.171734 -0.0487213 -0.315896 0.12112 -0.127304 -0.0460343 -0.192844 -0.0110202 -0.221754 0.173982 -0.263173 -0.00615896 -0.168731 0.105036 -0.100624 0.0481714 0.0492806 -0.0302766 -0.19449 -0.028673 -0.288175 0.00177859 -0.0659895 0.0693737 -0.118723 0.220653 0.16176 0.157553 0.0334804 0.112443 -0.0250731 0.0309942 -0.0117032 0.0721978 -0.277295 0.00605041 -0.0254744 -0.0591853 0.0745003 -0.0489711 -0.117198 0.0376917 0.216252 0.0194006 0.353102 -0.179317 -0.205992 -0.145208 0.0670974 -0.272485 -0.216531 -0.0248915 0.0783899 -0.125823 0.0926602 -0.0571272 0.0562832 0.186895 0.133364 0.174604 -0.00626952 -0.105702 -0.083919 -0.191065 -0.243273 0.0673115 0.0288889 -0.0090157 0.110226 0.251095 0.121126 0.236466 -0.00864904 0.0342296 0.101527 -0.194326 -0.0159193 -0.0470701 0.111884 0.257494 0.14783 0.0477537 0.0974382 -0.254533 -0.245258 0.0941611 -0.00308737 -0.13897 -0.0127938 0.121713 0.043668 -0.0916971 0.102385 -0.317356 -0.0560272 0.0418087 0.218953 0.189097 -0.0659743 0.0323693 0.0104763 -0.0190594 0.161522 0.0119899 0.0569028 0.242617 0.021993 -0.203882 0.20555 0.0803441 0.266611 -0.0583021 0.152857 0.241465 -0.0497493 0.137259 0.125903 0.0658177 0.142494 0.152056 0.00206117 -0.198376 -0.209211 -9.1348e-05 -0.185963 0.0336365 -0.0647645 -0.223185 -0.111538 -0.0102761 0.106663 -0.0464979 0.306687 -0.192978 -0.118548 -0.240247 0.122062 0.331773 -0.213083 0.10675 -0.0461011 0.106823 0.229605 0.164007 0.00410252 -0.106393 -0.154274 -0.0127366 -0.159378 0.0319205 -0.0434223 0.00543061 -0.00327531 0.319898 0.178216 -0.0357731 -0.0366671 0.108603 0.219648 0.117226 0.00757341 0.136514 0.042009 -0.0214619 0.0396732 -0.245514 0.0527848 0.0956533 0.174313 0.134746 0.109705 -0.0511836 -0.107149 0.133912 -0.059573 -0.129293 0.304572 -0.227514 -0.182141 -0.103749 -0.0805209 -0.172263 0.0377409 -0.221452 -0.184687 -0.0778303 -0.0942748 -0.269941 0.0183185 -0.0200937 0.00260672 -0.179361 0.241245 -0.154407 0.109142 -0.0340743 0.142377 0.14663 0.0305137 0.167801 0.182555 -0.172738 0.148413 0.0696311 0.14401 -0.0634353 -0.118961 -0.241539 0.0264532 0.0253477 -0.0791357 -0.0575866 0.0596924 0.0546787 0.0278968 -0.103741 0.185579 -0.108838 -0.0214346 -0.0329252 0.155508 -0.146822 0.0744144 0.166339 -0.00817375 -0.0902319 0.218316 -0.22435 -0.411691 -0.159848 0.086905 -0.0198596 0.190472 -0.0506804 0.00456913 -0.050138 0.118981 0.299764 -0.0503315 0.0565299 -0.00730834 -0.194823 0.142243 -0.0504121 0.0392356 -0.184517 -0.0755646 0.164429 0.0509249 0.117277 -0.186002 -0.100807 -0.153125 0.0189789 -0.448723 -0.247512 -0.012424 0.0919739 0.142081 -0.034288 -0.0159801 0.062612 0.179635 0.0128747 -0.0229183 -0.116493 0.0387253 0.145481 0.115906 -0.0347522 -0.222897 -0.0284645 -0.0361271 -0.0610638 -0.183657 0.200962 0.0626191 0.0861725 0.14142 0.304915 0.0256171 0.0742348 -0.18798 0.249125 -0.0215526 -0.00695077 -0.0555359 -0.097168 0.0759559 -0.135524 0.0468533 -0.0903909 0.188821 -0.0422439 0.0673795 -0.109613 -0.209071 -0.0255154 0.0485475 -0.233701 -0.403775 -0.0963166 0.16718 -0.122476 -0.105074 -0.132807 -0.134771 -0.0591399 0.139404 0.0781964 -0.00961097 0.0960694 0.122219 -0.0745062 -0.123918 0.0857415 0.00044628 0.0756468 -0.0164967 -0.0913808 0.416039 -0.170009 0.116191 -0.0629337 -0.292385 0.127284 -0.0885909 -0.142658 0.0989527 -0.0155543 -0.147595 0.239538 0.139174 -0.177312 0.151423 -0.1099 -0.0498828 0.201326 0.137502 0.341474 -0.18621 0.0689785 -0.0556635 -0.0805626 -0.076413 -0.111969 0.106138 0.187797 0.0910029 0.0283373 0.143794 0.206298 -0.018206 0.000523094 -0.00941145 0.0608143 0.1368 -0.251533 -0.00654751 0.164794 -0.0179087 -0.219566 -0.193903 -0.280707 -0.12016 0.153952 -0.0310691 0.232426 -0.186711 0.135853 -0.0974909 -0.0665128 0.121873 0.206043 0.106239 -0.263878 0.0953358 0.060678 0.106251 -0.0350332 -0.056243 0.137087 -0.0761424 0.0753353 0.0694823 0.178532 -0.0847144 -0.0704957 0.0820526 0.109546 -0.0375053 0.00856889 -0.145773 -0.397401 -0.108728 0.149924 -0.0338056 0.150724 -0.027587 -0.169808 -0.13487 -0.130199 0.0381547 0.212805 0.0850298 -0.0487699 -0.0787262 -0.0955956 -0.124054 0.220091 -0.0189007 -0.00283359 -0.0647081 -0.150937 0.195775 -0.173084 -0.111332 0.155158 -0.100878 -0.3092 0.160281 0.23409 -0.0109195 -0.287464 0.0435991 -0.340765 0.0405833 0.0456908 -0.0032281 -0.273903 0.175791 -0.0451059 0.096565 0.0112598 -0.00664485 -0.18206 -0.160377 0.0233233 -0.0490893 -0.103182 0.0342675 -0.214078 0.0262894 -0.159903 -0.0177106 -0.0536975 -0.107152 -0.180356 -0.0874404 0.133117 0.0550957 0.0127054 0.225802 -0.164561 -0.209031 -0.0319434 -0.0902758 0.00273356 0.0433365 -0.12242 -0.0232577 0.00466859 0.10946 -0.247241 0.0988581 -0.349307 0.00737122 -0.11873 -0.0372562 -0.1324 -0.119372 -0.212105 -0.031365 0.137385 0.308538 -0.0155524 -0.138197 0.186971 -0.120023 0.00948068 -0.210377 0.00579874 0.147909 0.109364 -0.10096 0.0433458 0.14688 0.0544013 -0.088376 0.010206 0.0883792 -0.181872 -0.209211 -0.107957 0.197306 0.0528031 -0.0991811 0.0355016 -0.151698 0.199471 0.058972 -0.30537 -0.267074 -0.278883 0.16401 0.176442 0.00537861 0.0121255 -0.0190217 0.134611 -0.104525 0.158519 -0.115513 -0.0631259 0.22443 -0.103202 -0.0364826 0.0046701 0.289197 -0.0608253 -0.0338856 0.25246 -0.169067 0.110494 0.293959 0.0872892 -0.0782304 -0.201763 -0.222638 -0.0258306 -0.0914999 -0.0893092 -0.301237 -0.0985608 0.12292 0.0488347 -0.149781 -0.0222659 0.0521051 -0.06423 0.0744626 0.0763486 -0.0251846 0.0159864 0.0461022 0.109853 0.0384986 0.07616 0.107154 -0.246219 0.121972 0.0500629 -0.281725 -0.21107 -0.147142 0.10097 0.337616 -0.022406 0.158427 -0.0966078 0.189279 -0.15645 0.216138 0.0765174 0.00744911 -0.0864054 -0.0337286 0.206093 0.114919 -0.0371927 0.277852 0.140858 0.0322395 -0.012496 0.103619 -0.0273781 0.111095 -0.170796 0.0987569 -0.0607735 0.0830169 0.0502534 -0.0826788 -0.225385 -0.178692 -0.243252 0.167971 -0.18358 -0.0239146 0.14208 0.2344 0.182732 -0.0753699 -0.125792 -0.00923472 0.00273211 -0.371431 -0.0929442 -0.0897774 -0.282255 0.110191 -0.210839 -0.127966 0.132951 0.0129876 0.0096586 0.032028 -0.133815 -0.0616962 -0.145663 0.0808442 0.0094084 -0.0971044 -0.0375044 -0.0308415 0.136894 -0.2081 0.149289 0.0784849 -0.0240376 -0.0350262 0.0884172 -0.120343 0.102367 0.268371 -0.00316685 -0.0197689 -0.0531793 -0.188923 -0.117469 -0.298732 -0.0104217 0.1704 0.0660125 -0.0136121 -0.209627 0.0162672 0.108413 0.104988 -0.033149 0.18734 0.115987 -0.166645 -0.11836 -0.0434729 0.00230408 -0.286787 -0.170717 0.0786545 -0.179781 0.0371893 -0.187906 0.117603 0.300221 0.118922 -0.157384 -0.0873713 -0.0190463 0.00370986 0.244901 -0.029727 0.1763 0.0295493 0.0564158 -0.118088 -0.0860413 0.00419399 0.0793829 0.224891 -0.0422455 -0.234894 0.215561 0.24298 -0.0184863 -0.238553 0.245195 0.21589 0.0713297 -0.104797 0.167907 0.164548 -0.0858702 0.0318508 0.19144 0.0881605 -0.283271 -0.298582 -0.233693 -0.0690092 0.0711965 0.096844 0.144474 -0.103247 -0.0589789 -0.0314614 -0.0537362 0.0747353 0.0647942 -0.227688 -0.149436 -0.00733184 -0.0251905 0.0237065 -0.252784 -0.0521067 0.0330293 0.042543 -0.137377 -0.0455024 0.136598 0.208521 0.0470378 0.0373313 -0.126242 0.0699308 -0.184644 0.190574 0.0222608 -0.0289333 -0.161504 0.098781 -0.0591615 0.0550267 0.00847436 0.199938 -0.0694981 0.310117 -0.0992837 -0.23754 -0.169771 0.153257 -0.110541 -0.170655 -0.0877334 0.280633 -0.00733425 0.0765076 0.365683 -0.0577712 -0.223331 0.0126108 -0.102512 -0.122991 0.0219653 -0.0169778 0.0915281 -0.107685 0.181644 -0.312296 0.170658 -0.129227 -0.136731 0.0260143 -0.0258294 -0.135974 0.205874 -0.0467884 0.0958505 -0.115616 0.0298577 -0.0799694 -0.00306623 0.156375 -0.0187167 -0.231557 0.0729604 0.209635 -0.130573 -0.0319193 0.0511726 -0.274288 -0.0729341 -0.0518028 0.00166899 0.124532 -0.0945772 0.0876835 -0.0321387 -0.105711 0.361852 0.0469875 0.053876 0.158773 -0.049621 -0.127196 0.0820193 0.135325 -0.0450238 0.186223 0.24035 -0.055203 -0.123443 -0.123868 -0.221893 -0.0260499 -0.0255421 -0.141894 0.0135069 -0.112498 0.318018 -0.144468 0.0568624 0.00259385 0.023545 -0.0618837 0.202066 -0.0422357 -0.144268 -0.282564 0.0421026 0.0633944 -0.0510054 0.0586955 -0.134203 0.0945738 -0.211152 0.055625 -0.141373 -0.0129683 0.0372124 -0.0978207 0.157682 -0.0547806 0.0793063 -0.113778 0.173084 -0.149199 -0.049693 -0.263328 0.0925775 -0.102255 0.164972 0.0383336 -0.17976 -0.0768197 0.252293 0.0374864 0.121013 -0.195622 -0.0539126 0.15089 -0.0208276 0.143926 -0.114845 0.191629 -0.137138 -0.159116 -0.0537627 -0.240063 -0.0479857 -0.0878498 0.0459018 0.106915 0.250897 -0.0667109 0.0785847 0.178304 -0.217175 -0.0159143 0.0881425 0.141574 0.113441 0.239577 0.12635 0.105632 0.247983 0.187493 -0.0667676 0.0439975 0.216278 0.0725705 -0.288658 -0.080294 -0.0938636 0.0993984 -0.0941996 0.0883715 0.130842 -0.141476 0.121978 0.157541 0.0812843 -0.182749 0.0881283 -0.223084 -0.0418407 0.0616717 -0.248567 0.16805 0.163347 0.0493327 0.00690874 0.0352402 -0.387781 0.263092 -0.0601574 -0.041184 0.0204751 0.12359 0.228285 -0.0782768 -0.0563486 0.0554145 0.0577273 -0.0772285 -0.0138038 -0.0155902 -0.240561 0.037309 0.153156 0.0876677 -0.133326 -0.099617 0.249258 -0.093162 0.106641 0.00323233 0.142325 -0.157528 0.254209 0.0527905 0.038059 0.0746942 -0.10313 0.0568388 0.0890455 0.250684 -0.0690145 -0.291593 -0.11543 -0.14209 0.147359 -0.146675 0.0660212 -0.0605676 0.0756355 0.0665421 -0.27354 -0.0184469 -0.146624 -0.167409 -0.0146338 -0.00604314 -0.0370775 -0.0481818 -0.246216 -0.102142 0.0231434 -0.198821 0.0791602 0.019593 0.254567 0.151176 -0.250729 -0.0855229 0.102817 -0.193289 -0.168279 0.0453848 0.124376 -0.0817207 -0.22346 -0.232146 0.0403017 0.00684519 -0.215585 -0.0510617 -0.0492646 -0.0901617 -0.0182577 -0.0371689 -0.0108748 -0.0385258 0.00294173 0.392172 -0.146572 0.0469279 -0.269766 -0.317124 0.0032517 0.0554252 0.231824 0.0341768 0.027422 -0.0213996 0.0824205 0.146199 0.182277 -0.041878 -0.238481 -0.0531625 -0.193385 0.261182 0.119375 0.00948749 0.0363779 -0.208849 0.0955518 0.0317022 -0.000599304 -0.0104316 -0.0501329 -0.101373 -0.0669336 -0.04601 0.109966 0.0564244 0.0937767 0.0887573 0.0322415 0.19199 -0.310471 0.0256149 -0.0483645 0.269825 0.131794 -0.0919112 0.174027 0.0225026 -0.165469 0.216631 0.0982422 0.0547138 0.244868 -0.0966643 -0.145821 -0.122927 0.112676 -0.12243 0.0301979 0.180108 -0.192554 -0.0541459 -0.166936 0.0166238 0.213952 0.0758749 0.0706364 -0.157143 0.269116 -0.134191 0.248152 -0.131699 -0.11994 0.0763532 0.292884 -0.122173 0.0153062 -0.0728334 -0.176855 0.404702 -0.0754324 0.048799 -0.0304008 -0.0518056 -0.114312 -0.0318371 -0.142978 0.0760543 0.154352 0.211013 -0.149475 -0.0584921 -0.121143 -0.201976 -0.130978 0.208347 0.268785 -0.0283563 -0.0027762 -0.106096 -0.0401045 -0.146899 -0.0928565 -0.0232259 -0.0549005 0.0441932 -0.0809065 -4.71293e-05 -0.0326422 -0.229748 -0.140241 0.129949 -0.0914927 0.0905825 0.131631 -0.013494 -0.00624074 0.162443 -0.0331048 -0.0842606 0.0132465 -0.120385 -0.336189 0.107718 0.0247915 -0.275901 -0.0543972 0.101667 0.0252824 0.0696986 -0.0593214 0.139269 0.046129 0.0884159 -0.290397 0.112772 -0.260774 -0.243214 -0.0709392 -0.0261502 0.0351175 0.208288 -0.0360338 -0.103514 -0.0493645 0.106455 0.025098 0.23275 0.1845 -0.18097 -0.0660983 -0.0763856 0.0809134 0.0344449 0.0657715 0.137795 -0.119469 0.0288461 -0.21663 -0.170417 0.201827 -0.0557907 0.0675748 0.305278 0.020711 -0.0852524 -0.159845 0.107078 -0.0287809 -0.0222479 0.290377 0.115558 0.0572529 -0.126752 0.24736 0.00103605 -0.033065 0.095998 0.178894 0.20588 -0.0259628 0.0853747 -0.010845 0.0758894 -0.215843 -0.154643 -0.0877744 0.185529 0.3574 0.173433 0.059963 -0.119084 0.109927 0.164792 0.068811 0.0483794 -0.307573 0.161021 0.0880068 -0.289422 0.147258 -0.201592 -0.113701 -0.0709212 0.217357 0.183866 0.0214791 0.0941065 -0.0444676 0.02214 -0.0637769 -0.196672 -0.122317 -0.261958 0.061959 -0.0181335 -0.0290311 0.040096 0.187119 -0.0987763 -0.038379 0.19529 0.285084 0.119558 0.0737269 -0.0476215 -0.0210769 -0.173086 0.151045 0.0829849 -0.0301178 0.0544796 0.0194633 0.0986003 0.215282 -0.246081 -0.098062 -0.269916 0.260634 0.11388 0.0435234 -0.0378975 0.200852 0.0799774 -0.048451 -0.0345804 -0.153484 0.130844 -0.0712864 -0.000278562 -0.101608 -0.315087 -0.0808442 -0.0529366 0.138642 0.246902 0.0546268 0.079423 -0.204137 0.0319554 -0.0139051 0.231803 0.114154 -0.0822249 0.159646 0.181188 -0.15165 -0.00669638 -0.145379 0.10219 -0.0264445 0.0164235 0.0432641 0.0297902 0.154717 -0.0719712 0.166677 0.149394 0.0835329 -0.236175 0.395741 -0.047014 0.0104174 0.187796 -0.280673 -0.0166862 -0.14181 -0.13759 0.15486 -0.0627764 -0.0286569 -0.0298248 0.194585 0.335691 -0.122071 0.0132243 0.108892 0.146953 -0.022866 -0.137792 -0.101306 -0.0851017 -0.148454 -0.159483 -0.0846428 0.117432 -0.0963639 -0.0669606 -0.0128213 0.147256 0.0218184 -0.151135 -0.181576 0.169929 -0.136216 0.0280869 -0.231611 0.154336 0.18909 -0.0240331 0.00470807 -0.0704195 0.0140098 -0.131621 -0.191126 -0.107796 0.155295 -0.069652 -0.0181851 -0.13202 0.126727 0.0361674 -0.280399 -0.055924 0.159256 0.0513779 0.227735 -0.130753 0.0761544 0.130821 0.187614 0.116143 -0.040998 0.029433 -0.0195989 -0.117767 0.293272 -0.167561 0.00191086 0.182073 0.0250285 0.284369 0.0186572 0.0865643 -0.0287624 0.168428 0.0859405 0.0122052 0.169081 -0.0018065 0.0441982 0.245416 -0.176836 0.0596914 0.105366 0.0375056 -0.0653791 -0.188544 0.0255144 -0.0576314 0.341172 0.336847 -0.177785 0.123499 0.00235737 -0.167068 -0.193142 -0.0182217 -0.135129 -0.045039 -0.0155864 -0.0449223 0.0354345 0.102274 0.0714153 0.00234447 -0.0240505 -0.0272354 0.0367739 0.0425605 -0.147806 -0.161212 -0.122476 0.0635097 -0.111794 -0.0072821 -0.245447 0.27986 -0.104215 0.370061 -0.149656 0.21459 0.121184 0.120973 0.167342 0.252524 -0.310978 -0.0300111 -0.0173301 0.0700755 0.186721 -0.0763157 0.0163026 0.129624 -0.0576011 -0.292677 -0.24737 0.018353 -0.219295 -0.0236267 -0.281496 0.10823 0.220095 -0.112619 -0.106082 -0.0228738 0.121449 -0.0252594 0.179951 -0.0708488 0.0577845 0.217502 0.0763339 -0.144723 -0.237169 -0.125739 -0.0557256 0.0825581 0.0828992 -0.09352 -0.0888213 -0.106557 0.0469048 -0.0210487 -5.33441e-05 -0.048223 0.0678765 -0.0103398 0.0724 -0.17451 0.008481 -0.00322968 0.131957 0.205942 0.275179 -0.156189 -0.268171 -0.282522 0.00432722 -0.0378734 -0.189907 -0.0565961 0.0681456 -0.0296271 0.188098 0.105577 0.0396109 -0.0609735 -0.0177783 0.139089 0.0495735 0.0710258 -0.159355 -0.0604449 -0.0163087 -0.0523027 0.00144512 -0.03339 -0.240095 -0.0472034 -0.078303 -0.22763 -0.176044 -0.152043 -0.0557651 0.0948785 -0.086899 0.268827 0.397568 0.0928086 0.257333 -0.00369139 -0.0728209 0.101476 0.00866142 -0.00331323 -0.239117 -0.0683874 -0.0551595 0.0137734 -0.145664 -0.245612 0.0869871 0.11484 0.120254 -0.144684 -0.057286 0.0750828 -0.141879 0.115812 0.233272 -0.0551449 -0.202308 0.134654 0.0322334 0.00698442 -0.0232 -0.0714709 -0.117019 0.138616 -0.0346415 -0.0425412 0.124774 0.0417339 -0.00363015 -0.0119997 -0.317048 0.0173193 -0.10513 0.0997427 0.0790513 -0.0268433 -0.102988 -0.112007 0.0524369 0.29786 -0.211439 -0.149806 0.132125 0.0136583 -0.161825 0.0325552 -0.0148559 -0.226617 0.00646821 -0.108803 -0.149897 -0.136825 0.0452331 -0.172077 0.186583 0.148158 -0.00309531 0.103205 -0.103633 0.24491 -0.137693 -0.102174 -0.225694 -0.0819669 -0.240896 0.0492546 -0.138931 -0.10951 0.0864737 0.0350154 -0.123296 0.0479053 -0.418765 0.04959 -0.0360196 -0.104009 0.0023742 0.242212 0.0789439 0.0209409 0.263563 -0.0433307 -0.122419 0.120342 0.00480405 0.159729 -0.177404 -0.202022 -0.0834774 -0.289887 -0.0274945 0.00496759 0.0338294 -0.192147 -0.381017 -0.0285937 0.0210093 0.0933128 0.135182 0.159348 -0.09324 0.0886318 0.194836 -0.00404317 0.103509 -0.0166481 -0.0388801 -0.0727737 0.0462332 0.148067 -0.0655765 0.275016 0.138868 -0.166479 -0.0849434 0.0701815 0.0696445 -0.087535 0.0558795 -0.134998 -0.112589 0.170543 -0.0832687 -0.239745 0.301444 0.00217424 -0.0651827 -0.154451 0.0946397 0.119029 -0.158439 -0.0678947 0.0612489 -0.0958374 0.0822096 0.117553 0.0577965 0.168218 0.19167 -0.0567547 0.152449 0.0659145 -0.203887 0.0462482 -0.148097 0.248159 -0.066572 0.0980353 0.173329 -0.0200948 0.0781031 -0.0253845 -0.284982 -0.0490539 0.347179 0.180676 -0.0603489 0.0488699 0.241497 0.0681968 -0.0148611 0.124946 0.313491 -0.0618006 0.114572 -0.0210479 0.155736 -0.356417 -0.0618178 -0.0934272 -0.22044 -0.0786267 -0.206121 0.0829225 0.205686 -0.0113809 0.0242996 -0.134854 -0.122443 0.0576798 0.0995222 0.0512864 0.186222 0.0406653 0.00754371 -0.0329065 0.0225591 0.106279 0.0815003 0.0470077 0.122461 -0.0387326 0.0490615 0.0129693 -0.0810944 -0.105925 0.068601 -0.0242974 0.0793745 0.128164 -0.219486 0.10596 0.0985575 -0.167426 -0.122931 -0.206585 -0.16403 0.254574 -0.100041 -0.190592 0.176038 -0.0394681 -0.207011 0.118926 -0.00201869 -0.221906 -0.214089 0.0490213 -0.0107822 -0.121145 0.00416167 -0.0464106 0.0903017 -0.15201 -0.0601581 -0.116104 0.0707994 -0.155899 0.041294 -0.197984 0.180344 0.201913 -0.177608 0.19463 -0.119119 -0.12267 -0.10569 -0.0642763 -0.0626125 -0.19897 -0.13462 0.328201 0.00706433 -0.281523 -0.00508716 0.0195492 -0.1478 -0.230942 -0.180479 0.277568 0.166865 -0.012889 -0.0345798 0.086065 -0.109975 -0.194662 -0.102461 -0.0400391 0.127803 0.117199 0.224294 -0.00213713 0.0858446 -0.140429 -0.0983854 -0.0477794 0.23887 0.0285326 0.154993 -0.182745 0.0801574 0.00328421 -0.00329904 -0.000888326 0.0711098 -0.0174108 0.0521291 0.075487 -0.166463 -0.0622023 -0.0333128 0.202119 -0.041036 -0.0718527 -0.0491823 -0.0314407 0.0258772 -0.00325809 0.107782 0.0482287 -0.159194 0.0436877 -0.0561563 -0.18516 0.375423 0.0286865 0.195152 -0.300711 -0.0154239 -0.109294 0.17171 -0.125143 0.0110252 0.00384003 -0.22765 0.174228 0.0768771 0.230728 -0.0204581 -0.20284 -0.00721168 -0.115439 0.265347 -0.018593 0.226119 -0.0124219 0.0071421 -0.102331 -0.0583497 -0.0693401 -0.142659 0.306391 -0.151098 -0.190646 -0.237243 0.0602907 0.0470793 0.00036264 -0.111649 -0.323733 0.046852 -0.234529 0.118783 -0.248594 -0.103013 0.116533 0.277982 0.110336 -0.0634457 -0.236453 0.0478011 -0.161261 -0.0314258 0.110814 -0.0964675 -0.00281197 0.0824425 -0.424203 0.142936 0.00477874 0.0502628 -0.0299323 -0.298028 0.263149 -0.124887 -0.176228 0.0519546 0.189766 0.0859807 -0.0449077 -0.102946 -0.0797193 -0.118171 -0.0616598 0.288995 0.0601988 -0.00514108 0.0984495 -0.0185109 -0.172581 0.00028309 0.181585 -0.0816921 0.101303 0.0616037 0.120738 -0.0677655 0.0705454 0.121352 -0.10095 -0.224205 0.0589301 -0.0917931 -0.0371431 0.0543827 0.0369018 -0.0852943 0.236465 0.0610509 -0.0613008 -0.225902 -0.242623 -0.0925393 0.148883 0.0102224 0.00887644 -0.156579 0.00786796 -0.141673 -0.176152 -0.0274215 -0.0162757 -0.0758178 0.0953489 0.0858017 0.19727 -0.17672 0.266259 0.0538859 -0.140437 0.0067736 0.00444607 0.419164 0.0686421 -0.0428581 0.137911 0.0326913 0.00938842 0.23011 -0.114657 0.05493 0.269473 0.133668 0.306325 0.0224102 -0.0720385 0.0803008 0.0329181 -0.0787992 0.111358 0.0994385 0.0697335 0.0266034 0.130799 -0.0237627 0.00269347 -0.196671 0.00379504 -0.169208 -0.00550922 0.106558 0.0206872 0.171887 0.03495 -0.0320894 0.135056 -0.127806 -0.0942757 -0.0644627 -0.218437 0.0915632 -0.0571113 0.0448488 0.122588 0.242775 -0.146487 0.0758543 0.100702 -0.257443 -0.0558548 -0.150537 -0.264498 -0.176008 -0.0714052 -0.0325605 0.144374 0.0280861 0.107415 -0.0538147 -0.16025 0.0754809 -0.137735 -0.24258 0.00108201 -0.263773 0.0328525 0.0332886 -0.0459785 0.120052 0.0966311 -0.227242 -0.0733327 -0.0603865 0.247128 -0.0373977 0.193776 -0.167226 -0.00245829 0.138722 -0.0553337 0.103004 -0.075505 0.00106749 -0.0445203 0.118299 -0.189579 0.172961 0.0726477 0.0276024 -0.0179279 0.0686553 -0.357871 -0.0963355 -0.250456 -0.0137863 0.149026 0.00602417 0.180076 -0.197106 0.101003 0.171617 -0.346901 -0.0975028 0.0364501 -0.108252 0.118584 -0.0990182 -0.0747953 0.0109594 0.128381 0.157183 0.0913546 -0.0349243 -0.151206 -0.286621 0.118563 -0.0942516 -0.206272 0.0228108 -0.109154 0.0734637 -0.0186549 0.0714213 -0.216429 0.102584 -0.346411 -0.051578 -0.144696 0.0276307 -0.117259 0.212044 -0.00449711 0.00952663 -0.0582031 0.169788 -0.402571 0.0481906 -0.302408 0.418767 0.0415629 0.0688067 0.0582646 -0.0122534 -0.080349 0.0455786 0.189877 0.213507 -0.0216304 -0.0568408 -0.0679094 0.0627613 -0.203979 0.0800887 0.185726 -0.0357919 -0.0662675 -0.0894336 -0.0371083 -0.0782072 -0.0233061 -0.087748 -0.10751 0.0486932 -0.255894 -0.0529401 0.213161 0.161154 0.130342 -0.13339 -0.011989 0.0123734 -0.0600705 0.273378 -0.0328767 -0.169931 0.0288964 -0.0958798 -0.16173 -0.00899356 0.16987 0.28233 -0.113784 0.0372127 -0.100868 0.114489 -0.1408 0.227986 -0.0738232 -0.125576 0.0417221 0.0251211 -0.0292557 0.0835145 0.0318565 0.137188 0.118501 0.0891622 0.09329 0.074716 -0.241972 -0.276747 0.0638834 -0.045212 0.0659911 -0.0887109 -0.112319 -0.134532 -0.170407 -0.0613368 0.194238 0.117393 0.0917969 -0.231347 0.0613426 0.287947 0.0279305 -0.193083 -0.0128057 0.265303 0.0615037 -0.129318 -0.163712 0.145917 0.226369 0.0172615 -0.231684 0.10005 -0.0082158 0.332071 -0.00349245 -0.144183 -0.065713 -0.0384367 0.0202459 0.300805 0.109749 0.0869131 0.00834002 -0.145958 -0.0718958 0.291948 -0.0857668 -0.0113532 -0.0759142 -0.203292 0.0122917 0.151471 0.141763 0.0919516 -0.0477337 -0.178237 0.174816 0.197373 0.217367 -0.10222 -0.188236 -0.0615408 0.265916 -0.178351 0.0227443 -0.0158732 0.171205 0.25522 -0.183562 0.0591663 -0.193368 -0.239559 0.00354999 0.0556717 -0.0418459 -0.0190663 0.0402096 0.123458 -0.0753448 0.0770054 0.223816 0.0854112 0.0418886 -0.21513 0.0595566 -0.0474049 0.0230338 0.0994467 -0.0570993 -0.271715 -0.0351546 0.0420831 -0.0899875 -0.10701 0.0344297 -0.0545995 -0.0312121 0.164186 -0.00119645 -0.109495 0.18026 -0.413854 0.0938595 0.112494 0.185803 -0.0885992 -0.151729 -0.0623956 0.164106 -0.00853434 0.133649 0.0932449 0.14856 -0.131558 -0.152313 0.19837 -0.16467 0.0259045 0.252758 0.132962 -0.0159409 0.13431 -0.205014 0.138633 0.149578 -0.0432453 0.0766806 -0.266056 0.102869 0.00214132 -0.0999226 -0.222493 0.132706 0.0979827 -0.0546234 -0.0791888 -0.0723479 0.202663 0.107907 -0.118413 -0.0778293 0.171542 0.374248 0.0180932 0.178776 0.093727 -0.171226 0.135827 -0.0665574 -0.109892 -0.0848632 0.00931558 -0.228261 -0.0718367 0.0671241 0.111594 -0.0392019 -0.0895313 0.000279134 -0.0377374 0.326791 0.0619562 0.00321237 0.169458 0.0840536 0.0832349 0.135421 -0.0297151 0.167084 -0.128615 -0.163526 -0.00908252 -0.0543562 0.0810418 0.0467929 0.113676 -0.180628 -0.139123 -0.22508 -0.0618974 -0.0580159 -0.217577 0.0442488 0.0258316 0.104806 -0.0585137 0.196539 -0.249589 0.107779 0.178645 -0.0862132 0.0379758 -0.117023 0.0105735 0.0431899 0.13335 0.0562683 -0.161824 -0.100599 0.0409002 -0.3189 0.0378691 -0.0717242 0.0793177 0.114716 0.134129 0.135316 0.0990619 0.310643 -0.190227 -0.0342138 0.0174939 0.0833678 0.154473 -0.186182 -0.124372 0.0634504 -0.132553 -0.125674 0.000248621 0.220225 -0.174924 -0.0509904 0.00263345 0.0583396 -0.18212 0.239402 0.0326084 0.0575095 0.0941345 0.168226 -0.0771371 0.127172 -0.0397283 0.121351 0.106214 -0.110694 0.0809985 -0.309029 -0.268241 0.133692 0.170693 -0.217547 -0.248414 0.185841 0.0295914 0.191486 0.156136 0.245838 0.0473432 -0.0768155 -0.215143 0.178471 -0.050104 0.0533122 0.0631235 -0.283925 -0.146688 0.126879 0.0670569 -0.0381753 -0.158247 -0.0821894 0.094413 0.00205528 -0.192699 -0.110997 -0.102729 0.0127272 0.103538 0.0443878 -0.0705931 -0.122779 -0.0679574 0.139336 -0.0830922 -0.0470714 -0.00337637 0.078396 0.144437 0.0578354 -0.0842918 0.270983 -0.28959 0.0618506 0.015013 -0.211405 -0.278451 0.130454 0.0818182 -0.141476 0.168939 -0.148841 -0.209731 0.152106 -0.271699 0.0686612 0.017115 -0.128947 -0.0759898 0.0824249 0.0608594 0.0231476 0.137449 -0.155265 -0.0202749 -0.0449125 0.0704717 0.0679591 0.167927 0.199634 -0.0985056 0.218308 0.0956761 0.169608 0.0489896 -0.108745 -0.0288179 -0.191128 -0.0533056 -0.364131 -0.000862794 -0.286268 -0.114361 0.0139432 -0.0715714 0.118652 0.110983 -0.0430577 -0.116093 0.125718 -0.188767 -0.00589035 0.0772876 0.237596 0.0102619 0.0185741 0.183334 0.150141 0.00521589 -0.00550288 -0.0841931 0.011722 0.0756773 0.15427 -0.0312575 -0.338209 0.00574823 -0.0545201 0.0404205 0.19966 0.0700658 -0.199481 -0.0298127 0.0223996 0.0969347 0.106824 -0.195351 -0.0433059 0.0940752 0.0352478 0.0228494 0.133668 -0.102922 -0.243121 -0.0653403 0.197799 -0.270133 -0.271421 0.185924 -0.129239 -0.0587899 0.0421671 -0.0751648 -0.221574 0.129784 -0.070283 -0.123732 -0.0447507 0.141888 -0.0326593 -0.045146 0.0473993 -0.25162 -0.1268 0.0402619 0.133611 0.00689933 0.223542 -0.166957 -0.264652 0.10672 -0.0999998 0.213269 -0.0471134 -0.0474265 0.00498334 -0.0225898 -0.0298021 0.141518 0.0201786 0.0778572 -0.13472 0.0781025 -0.033025 -0.000102843 -0.0271818 0.0676209 0.0382955 -0.200149 -0.169676 -0.3566 -0.0395957 0.132213 -0.038389 0.201617 0.205024 0.0696901 -0.179214 -0.0195921 -0.113081 -0.00400152 0.0411182 0.200342 0.00776578 0.0910973 0.223508 0.0115967 -0.175764 -0.450247 0.000933088 0.0735409 0.122871 -0.000314915 -0.0968544 0.179712 -0.190579 -0.00453913 0.18017 0.0666778 0.0273182 -0.173218 -0.187459 -0.033967 0.0637048 0.233936 0.402737 0.06672 0.0482648 0.0325222 -0.305789 -0.159795 -0.0546607 -0.0780411 0.0771059 0.0834244 -0.0247149 -0.0493404 -0.041798 -0.00348185 -0.142739 -0.00901107 -0.200573 0.193709 -0.106033 -0.190672 0.202547 -0.124134 0.219215 -0.0462827 -0.0639516 0.0604965 -0.0950322 -0.0768235 -0.178247 -0.0575723 0.0876575 0.147982 -0.150541 -0.218503 0.0658151 -0.0217132 0.25208 0.15171 0.0578287 0.0437554 -0.0737996 0.0576751 0.0522415 -0.174618 0.131944 -0.158902 0.112183 -0.340593 0.0710874 -0.134015 0.141863 0.122955 -0.00984691 -0.118004 0.182216 -0.317962 0.0801515 0.0607922 -0.0486315 -0.0233262 -0.276529 -0.123143 -0.122752 -0.181532 -0.219809 -0.154941 0.0809227 -0.0176385 -0.0854257 0.246896 -0.126048 -0.275389 -0.0125212 -0.116891 0.00827661 0.128365 -0.0851792 -0.0412464 -0.0831886 -0.0497461 0.0572922 -0.0462332 0.166638 0.0187712 0.181419 -0.0398696 0.167117 -0.124232 -0.0321946 -0.170094 -0.266972 -0.0610622 -0.0395928 0.0565285 -0.330715 0.065806 -0.00816617 -0.135663 -0.171599 -0.187754 -0.0245897 0.13888 -0.174304 0.128876 0.0413894 0.260545 0.237603 0.0116858 0.107087 -0.116052 0.132176 0.138682 0.15846 -0.161383 -0.0108333 0.0478254 -0.0880137 0.14498 -0.115961 0.0640343 0.0386489 -0.174268 -0.045494 -0.0497949 0.101146 -0.126122 0.138665 -0.177478 -0.157793 0.107444 0.0372037 -0.0796234 0.0674576 0.168683 0.0411617 0.0937295 -0.0129282 0.115523 0.123782 -0.0727354 -0.384112 -0.12794 -0.200684 -0.0693367 0.219009 -0.0557475 -0.227071 0.200328 0.0297463 -0.0920534 -0.0192936 0.0224594 -0.273115 0.119291 -0.194337 0.0978632 -0.00811665 -0.0203093 -0.0131993 0.0343818 -0.151186 0.255748 0.073298 -0.143308 0.156608 -0.359319 -0.022856 -0.0122821 0.237488 -0.112991 0.107349 -0.0510913 0.152906 -0.0847759 0.164259 -0.112165 0.0987989 0.0893363 -0.0361999 -0.0945645 0.095766 -0.0780112 0.143047 -0.087312 -0.0926484 -0.212599 0.00531249 0.0658082 0.00481237 -0.00285112 0.0781483 -0.0098316 -0.0164314 -0.0755861 -0.256069 0.0350507 0.103292 -0.024558 -0.170799 0.130433 0.165649 0.0934679 0.217493 -0.232193 0.122431 0.0758718 -0.227339 -0.215332 0.129757 -0.0390734 0.172271 0.0403489 0.0870628 0.0439737 -0.0173888 -0.247532 -0.21003 -0.161755 0.0784277 0.0198791 0.232292 -0.0269644 -0.118122 0.23042 -0.140132 -0.102325 0.203311 -0.00642056 0.0136145 0.0422913 0.370445 0.08753 -0.0293358 0.167098 0.0656312 -0.0348635 -0.0270668 0.036981 -0.13723 -0.0895625 -0.272544 0.28842 0.0776348 0.0610392 0.0351897 -0.0680002 -0.0582782 -0.233442 -0.0237917 0.00568448 -0.0850816 -0.0844228 0.02031 -0.113138 0.0563731 0.0313757 0.023365 -0.0446256 -0.158001 0.204127 0.132348 0.0281693 0.234083 0.0193416 -0.0338002 -0.0419226 0.0890517 -0.153452 0.166041 -0.0452381 0.2399 0.185439 0.1536 0.0560697 -0.14554 -0.104913 0.168243 -0.0346958 -0.091156 0.21572 -0.258154 -0.00233597 -0.019592 -0.0952465 -0.0502412 0.2108 -0.184686 0.205153 0.00341982 0.235719 -0.0657478 0.242031 -0.117942 0.0800544 0.207868 0.0253908 -0.136504 -0.0551823 -0.0511235 -0.0123299 -0.147033 -0.318317 0.384465 0.0206873 -0.065322 0.00787879 0.0159888 0.0323376 -0.0056151 0.153988 0.122001 -0.122299 0.0280434 -0.0741342 0.316119 0.0260402 0.0976105 0.169158 0.16215 0.203725 -0.160012 -0.155084 0.204282 0.0752484 0.0607059 -0.172624 -0.0460084 0.28602 0.0270222 -0.230048 0.126011 -0.0313573 0.0339272 0.0220964 -0.0646771 -0.108844 0.0024986 0.187648 -0.280858 -0.156366 0.0398248 0.00854107 0.0348866 0.065419 -0.122261 -0.150668 -0.0554622 -0.0832488 0.201132 -0.0533262 -0.0772688 -0.099797 0.00230424 0.115679 -0.107097 0.042695 -0.166145 0.0813476 -0.0660802 -0.0681065 0.296833 -0.0267286 -0.0939402 0.436775 0.245969 -0.258959 -0.132162 0.081088 -0.150929 0.0422455 0.130206 -0.100875 0.325751 0.0300456 0.0845149 0.110433 -0.0794413 0.311864 -0.0384792 -0.0706092 -0.0908995 0.158068 0.2232 -0.0491148 -0.0585284 0.0716919 -0.221799 -0.0619968 -0.0176337 0.051345 0.0134788 0.164533 0.0470166 0.10203 -0.0708014 -0.0189297 0.207264 0.0133578 -0.0538869 0.0507849 -0.10139 0.228344 0.162056 0.0348385 -0.152838 -0.172622 0.0113833 -0.219661 0.0393067 0.237955 -0.00206558 -0.253252 0.200672 0.0420905 0.00297682 0.017022 0.119773 0.128518 -0.169456 0.0671622 0.157462 -0.0096867 -0.0432617 0.176233 0.219481 -0.0238358 0.0494905 0.0105688 0.303175 0.0655292 0.282999 0.0240754 -0.00228952 -0.100439 -0.116211 -0.0984542 -0.057281 0.173737 0.306768 -0.1403 -0.019328 0.0976931 -0.116779 -0.189145 -0.075996 0.143095 -0.080743 0.271129 -0.0705081 -0.0886336 -0.108011 0.127869 -0.182158 0.00307306 -0.0940697 -0.0821119 -0.104587 -0.169505 -0.0178936 -0.322425 0.0104758 0.130908 -0.209661 0.117237 -0.126198 -0.0707229 -0.108716 0.0873441 -0.372515 0.106465 -0.0466527 0.122216 -0.0990006 -0.127715 0.121092 -0.0159628 -0.128713 0.251081 0.203867 0.0883893 -0.0627687 0.0632753 0.032685 -0.211846 0.0670808 0.0291054 -0.128136 -0.102171 0.0223352 -0.080106 -0.111499 0.0522272 -0.0222607 0.0309779 0.141341 -0.0309366 0.143317 0.35428 -0.146624 0.0261926 0.014926 -0.226928 -0.205868 -0.246795 0.0505386 -0.209465 -0.085105 0.343332 -0.0224602 -0.0839901 0.0780035 0.133512 0.134365 -0.000685769 -0.117178 -0.113545 -0.0423255 -0.245024 0.224352 -0.0258141 -0.077405 -0.179603 0.259379 -0.0960177 0.0832538 0.173672 -0.0200204 0.103153 -0.026281 -0.0267199 0.0356451 0.0672622 -0.0959523 0.0292791 -0.0599244 -0.00352785 0.379862 0.0656966 0.0650751 -0.132418 -0.173188 -0.0516048 -0.16705 0.0784524 -0.0895711 -0.0506041 0.0131052 -0.0473029 0.198245 -0.333747 -0.148204 0.0525309 0.0243337 0.0169722 -0.025167 0.0667692 0.189801 -0.137365 0.0055227 0.182477 -0.0193206 0.158529 -0.0456805 0.105156 0.0497104 0.0417046 -0.0643073 0.23308 -0.126501 0.0556671 0.0842546 -0.0211252 -0.19304 0.147375 0.0396252 0.153731 -0.104481 -0.0274233 -0.0305552 -0.341007 0.131539 -0.259286 -0.178574 -0.0951859 -0.130174 -0.00636534 -0.109605 -0.160582 -0.14801 0.0284655 0.0427554 -0.121449 0.0907405 -0.0631581 0.0996606 -0.0785707 0.122852 -0.0386459 -0.0445744 0.342685 0.196547 -0.224903 0.142503 0.19659 0.0889691 0.24506 0.0369563 0.240998 0.258656 0.117732 0.305847 0.082406 -0.0383515 -0.0832546 0.0632241 -0.0597926 0.0590247 0.0572702 0.233806 0.225589 0.208922 -0.0388663 0.250865 -0.0644293 0.0129888 -0.0153282 0.0710974 -0.0763596 0.00173844 -0.0351773 -0.291054 -0.0854331 0.149343 -0.0854151 -0.29117 0.0510205 0.22472 0.0629808 -0.113753 0.0160479 -0.0244933 0.0895648 -0.0904818 -0.0103206 0.257413 -0.249071 -0.0464601 -0.151078 -0.0744915 -0.0406479 0.00758727 0.00201481 -0.0133699 0.00107326 -0.165442 -0.0278499 -0.289908 -0.269148 -0.0107648 -0.0544766 -0.122554 -0.144672 -0.0718158 -0.11753 -0.209863 0.150524 0.11518 0.0190587 0.112787 0.0771972 -0.0275297 0.0160709 -0.0893686 0.0778007 -0.113352 -0.020023 -0.161822 0.33463 0.114541 -0.0457033 0.083466 -0.211731 0.309994 0.190103 0.0741216 0.0601708 -0.0802032 0.0664575 0.158951 -0.0439099 0.0434418 0.116034 -0.0122211 -0.0522013 -0.166782 -0.35579 0.0390917 -0.193648 -0.0134622 -0.300984 -0.155489 -0.00417709 -0.0031825 0.0356191 0.0333471 -0.0831889 0.0346008 -0.265483 0.030442 -0.00781635 -0.013648 0.141911 -0.0655862 0.0171091 -0.00784602 -0.256563 -0.329721 -0.39918 0.10041 -0.166717 -0.0618154 0.162568 0.07385 0.10251 -0.137004 0.0675765 0.0547277 -0.0937953 0.130329 0.120622 0.0221182 -0.274099 0.0275591 0.246291 -0.0752496 -0.150685 0.0993603 -0.139785 -0.11791 0.040031 -0.254666 -0.0727797 0.149717 0.0118655 0.0204147 -0.0386012 -0.0830334 0.019761 -0.139124 0.0837688 -0.0986526 -0.113235 -0.0782222 0.0164236 -0.127495 -0.137299 0.0529677 -0.0671203 0.131261 0.157948 -0.0173628 0.0642135 -0.0662532 -0.0807368 -0.068776 0.118499 -0.113925 0.144709 -0.0495119 -0.0075157 -0.163203 0.0799023 0.048242 -0.172634 0.132186 -0.0160803 -0.210672 -0.155759 0.0758182 0.00428927 -0.0428015 0.0448517 -0.00676375 -0.173763 0.446016 -0.146369 0.0477994 -0.0229207 0.182247 -0.298186 0.259643 -0.135343 0.105536 0.211414 -0.128555 -0.0220272 -0.201105 0.0532708 0.111192 0.0912563 0.0536805 0.054885 -0.17992 -0.0654914 0.143442 0.139482 -0.226905 0.132704 0.0855257 -0.173164 -0.0867852 0.0410537 -0.297399 0.254453 -0.0151642 -0.0799098 -0.151222 0.0264178 0.314539 -0.0628601 -0.40085 0.111221 -0.0766938 0.324921 -0.382088 -0.0360735 0.0418786 -0.182667 -0.037449 -0.107892 0.101946 0.0197337 -0.0632963 0.00898194 -0.164735 -0.0474026 -0.288915 -0.0113253 0.207842 0.0146413 0.0398162 0.00912539 0.106951 -0.103857 -0.029414 0.292443 -0.0527816 -0.098261 -0.178598 -0.367621 0.146549 -0.110007 -0.0666271 -0.186662 -0.156417 0.0800516 -0.103912 0.0607421 -0.0573229 -0.092958 -0.020393 0.0184399 -0.280614 -0.183264 0.0663884 -0.132333 -0.119915 0.0672187 0.0865711 0.10618 -0.0615596 0.104913 0.0483275 0.148383 -0.0418377 0.0654324 -0.147615 0.00252143 0.00218089 -0.0439512 -0.144599 -0.0810799 -0.07217 -0.192543 -0.0592295 0.099486 0.0672281 -0.08501 0.092555 0.202972 0.0719492 -0.0168017 -0.0622591 -0.0230855 -0.0539437 -0.314162 0.149433 0.0137415 0.00270116 -0.0387228 0.0782262 -0.0823369 -0.161803 0.00557248 -0.173713 0.0978845 0.18004 0.00668257 -0.0351912 -0.0682874 -0.0431278 0.0294018 0.043128 0.176868 0.0115355 -0.315777 0.0754586 -0.112828 0.0258093 0.226779 -0.0307611 0.211936 0.185583 0.181689 0.000636667 0.221661 -0.0635022 -0.116862 0.0613085 0.0828271 -0.138149 -0.117423 -0.274405 -0.0390356 -0.142517 0.0999065 0.0235175 0.212145 -0.0235072 -0.328182 0.265343 -0.185761 -0.216883 0.0323172 -0.158509 0.285717 -0.0963978 0.222137 0.352398 0.184694 0.0114436 0.254541 0.25112 -0.00211129 -0.236701 -0.1341 0.108556 0.0873835 0.0508556 -0.122012 0.270329 -0.0879153 0.033904 0.0840478 0.00899054 0.123331 0.145879 0.0598162 -0.260422 0.0457713 -0.097482 -0.197713 0.11742 -0.110734 -0.143611 -0.0367263 0.00779267 -0.176737 0.123526 -0.136438 0.145983 0.0942641 -0.11113 0.267232 0.0556102 -0.128111 -0.190555 -0.118515 -0.0751843 -0.0543496 -0.0294037 0.100384 -0.0627965 -0.0871711 -0.070195 -0.219714 0.0242138 0.0620062 0.063009 -0.00230141 0.168531 0.111518 -0.143999 0.101025 0.0945292 0.14004 -0.186464 0.115761 -0.180497 -0.0513196 -0.12069 0.13864 0.0127358 0.174463 0.0536075 0.0129847 -0.0742832 0.0529691 -0.114105 -0.0217845 0.0333496 -0.11113 -0.0279648 0.196042 0.0561493 0.077894 -0.160946 -0.00499622 -0.0812687 -0.0362879 -0.311653 0.252263 0.017097 -0.183146 -0.0488076 -0.0289924 0.000360465 0.0611468 0.146395 0.0588509 0.22936 0.073086 0.262669 -0.0712447 -0.210715 -0.0430693 0.0979854 0.125783 0.0181425 0.107318 -0.049801 0.264755 0.0654474 -0.141261 -0.286623 0.183424 -0.393538 -0.0195597 -0.0980628 -0.00785081 -0.222238 -0.140984 -0.0304897 0.0471176 -0.0184664 -0.122243 0.0323994 -0.0168063 0.0139687 0.0534986 -0.143372 -0.0602289 0.164169 -0.264894 -0.0129258 0.0118957 0.033089 0.0483945 -0.0766331 0.0258027 -0.0432578 0.0213493 0.0885549 -0.0874822 -0.119854 0.0334791 -0.206112 0.146575 0.279795 -0.00307298 0.0767807 0.196842 -0.0671968 -0.163928 0.118584 -0.347906 0.172388 0.232191 -0.097075 0.00386107 0.0997732 0.0954334 0.192399 -0.0202371 0.271626 0.0624372 -0.102351 0.155389 -0.00312906 -0.229879 -0.0184238 0.0404571 0.0983261 -0.00628275 -0.182521 0.00818222 0.280509 0.131601 0.0994026 -0.107232 -0.249654 0.0352816 -0.254751 -0.157305 -0.117077 -0.107492 -0.0422079 -0.157064 0.154862 0.382839 0.0884265 0.0864974 0.0843397 0.093559 0.0250028 -0.0777621 -0.103859 0.00826708 -0.148595 -0.0984787 -0.19631 -0.237105 -0.109857 -0.0297383 -0.145602 0.169896 0.192773 -0.0401347 -0.040086 0.302751 -0.186895 0.0891905 -0.191537 -0.139278 -0.105729 0.0768027 0.1728 0.0382785 -0.0371053 0.254988 0.0353537 0.178969 0.13971 -0.0117353 -0.0653818 -0.146591 -0.0030257 0.039831 -0.108593 -0.150955 -0.0165548 -0.0257804 0.075625 0.123587 0.160955 0.287186 0.110551 0.107796 -0.192247 -0.105204 0.0907324 -0.00140013 0.050344 0.146778 -0.280307 0.00871272 -0.110734 -0.110131 0.134398 -0.03362 0.127042 -0.123436 0.013194 0.0880015 0.0902948 -0.349124 0.102423 0.030714 0.0151916 0.226239 0.0630974 -0.15305 0.103608 -0.00417789 -0.0974232 0.157716 0.181425 0.0862615 0.00339763 -0.0102063 0.0509522 0.00445286 -0.149017 -0.0922798 0.177679 -0.0370625 0.0783779 0.161397 -0.0123098 0.0693417 0.223564 0.0762973 0.338276 0.14147 0.0698641 0.0179873 -0.126952 -0.139361 -0.00260225 -0.171111 -0.0398148 0.187179 -0.115685 0.14344 -0.114566 0.0954813 -0.0661802 0.131943 0.122542 0.0495262 0.115011 0.222814 0.158475 0.118773 0.0518443 0.21297 -0.198159 0.0517586 -0.039009 -0.0214481 0.143268 -0.249282 -0.0661148 0.0338921 0.0929144 0.119855 -0.0428556 0.211861 0.107266 0.333198 -0.0608512 0.00746731 -0.0897101 0.157107 0.1987 0.0680726 0.360983 -0.0551869 -0.240464 -0.111142 -0.021388 -0.0438606 -0.186499 -0.140917 -0.16384 -0.291648 -0.0716922 -0.0640788 -0.0202442 -0.107794 0.153879 -0.242496 0.184723 -0.0274408 -0.154505 -0.132049 -0.0698363 0.162154 -0.0668602 0.0127319 -0.20038 0.0046079 0.0785298 0.170399 -0.0884261 0.0713099 0.13108 0.325745 -0.107031 -0.0900505 0.310928 0.139933 -0.165414 0.0446141 -0.0471656 0.202271 0.0495291 -0.0721915 0.12957 -0.116909 0.138388 0.299319 0.202136 -0.0419726 -0.21798 -0.153554 -0.0238558 -0.0934418 -0.043719 -0.105974 -0.0770774 0.0605432 0.21008 0.0790999 0.0413284 0.176449 -0.0969011 0.255603 0.144365 -0.0341646 -0.121308 -0.103527 -0.16165 0.0614586 -0.0599423 -0.0106304 0.188894 -0.106152 -0.180733 -0.0909094 -0.0102065 0.00695554 0.295378 0.0236998 -0.127354 -0.0672957 0.102833 0.0272723 0.0246464 0.157148 -0.0763507 -0.0860391 0.00890887 0.050275 -0.0493078 -0.11372 0.374048 0.126519 0.305925 -0.372935 -0.13296 -0.174124 0.189401 0.146159 0.105022 0.109302 0.0599555 -0.0857633 0.0930991 0.256872 0.0205377 0.048528 0.0563348 0.105181 -0.0415977 0.15966 0.0238221 0.149919 0.15157 -0.124944 0.0575898 0.0605463 -0.199879 -0.258395 0.0977953 -0.0848771 -0.184771 -0.117029 -0.0495503 -0.162404 -0.0345111 -0.0829646 -0.00977418 -0.0865143 0.148156 0.0264878 0.154155 0.0389651 -0.0934379 -0.204402 0.0875607 -0.0905943 0.0278757 0.00324576 -0.093199 0.0289424 -0.0338202 -0.115696 -0.153344 0.137784 -0.405365 0.271622 -0.105903 -0.00722299 0.0463976 0.160405 -0.11292 -0.0158257 -0.0841774 -0.00156679 -0.0583629 0.0271775 -0.0187434 -0.0420949 -0.181351 -0.0237696 0.0747 -0.138675 0.120907 0.209679 0.0455979 0.0580222 -0.0263807 -0.00754531 -0.133713 0.188279 0.160382 0.0412263 -0.0248358 -0.202694 0.0178949 -0.0184173 -0.0112255 0.27969 0.187856 -0.190039 -0.337779 -0.32509 -0.00603261 0.0136728 0.389476 0.000385623 -0.21481 0.044604 -0.0696657 -0.148958 -0.0872548 0.00376185 0.0886124 0.101277 -0.0619772 0.0891894 0.186719 -0.307917 -0.0423496 0.164167 0.165474 -0.0725295 -0.112862 0.136514 -0.150574 -0.160629 0.167787 0.0665592 0.0651297 0.0733979 -0.0296683 -0.300328 -0.240337 -0.089764 -0.150575 0.270592 -0.272461 -0.0823909 0.117486 0.0114688 -0.0639326 0.0303309 -0.0950038 -0.0705249 0.0214417 -0.0277663 0.193162 -0.134508 0.0133887 -0.086135 -0.032061 0.037485 -0.118897 -0.0492188 -0.0425539 -0.0788939 -0.153708 -0.105074 0.0211266 0.186341 0.14537 -0.00126198 0.069457 -0.396392 0.2653 0.0884444 0.144822 -0.0554796 -0.19221 0.0850394 -0.142425 -0.0575055 -0.16081 0.251444 0.14124 -0.0961483 -0.0233767 0.177398 -0.164407 -0.242183 0.394592 0.0373559 0.246002 -0.0144115 -0.0129657 0.0518983 0.0612684 -0.0929886 0.187099 -0.0364249 -0.171805 -0.143965 0.22569 0.02715 -0.236853 -0.159687 0.0220275 0.119693 -0.0826893 0.0121902 0.225084 0.0314416 0.0615911 -0.178321 0.19332 -0.0414607 -0.168656 0.0331166 0.0827829 -0.206632 0.00525382 -0.100281 -0.134235 0.0496555 0.077419 0.0685771 -0.0513315 0.0797231 -0.0108768 0.147589 0.135166 -0.0931594 -0.236037 0.209614 -0.06345 0.0788614 0.00673015 -0.17231 0.262613 0.0592527 -0.0841125 0.0808005 0.235195 0.100662 0.0109019 0.251485 0.101373 -0.122497 0.0522145 0.107128 0.0151259 -0.122267 -0.207609 -0.0589927 0.00566726 -0.169255 0.0498184 0.151663 -0.354084 0.0850147 -0.0760629 0.110975 0.170489 -0.244448 0.102728 0.0260612 -0.0110955 -0.141149 -0.0339412 0.0502034 0.242316 0.207551 0.191132 -0.130959 -0.159156 -0.0779894 -0.0755642 -0.0339096 -0.125109 -0.0569526 0.0419358 -0.0764044 0.0160149 -0.0210641 0.0298238 -0.208428 0.113058 0.0906286 0.0815084 -0.358845 0.160867 -0.0106428 0.0892417 0.0612364 0.365717 0.0338057 -0.131003 0.00484932 -0.150741 0.240815 -0.143364 -0.164424 0.0991694 -0.0394753 0.0422288 0.214409 -0.185998 0.150162 0.0228968 -0.213407 -0.129972 -0.0133202 0.242827 0.0423442 0.0632085 -0.0955132 -0.111921 -0.122951 -0.11759 -0.06989 -0.050468 -0.0933218 0.252642 0.0997866 -0.0399567 0.061026 0.0422504 -0.0441833 0.166726 -0.021981 0.095005 0.00463146 0.0573432 0.189266 0.147157 -0.00867137 -0.140459 0.0410967 -0.167864 -0.166072 0.179411 -0.0876792 -0.296635 -0.269585 0.0595634 0.0365952 -0.0667751 -0.223487 -0.138015 0.249077 -0.00257459 -0.136749 0.101984 -0.120546 0.0757476 0.380938 -0.233799 -0.0279322 -0.180906 0.0187703 -0.100001 0.0216748 -0.191668 0.145591 -0.22401 -0.0244982 0.121969 0.00649581 0.281459 -0.115165 0.0713011 -0.114654 -0.0230674 0.167724 0.279405 -0.0106299 0.0557191 -0.0216805 0.0159109 0.237976 -0.0462633 -0.0396712 -0.025074 0.235421 -0.289352 0.0756428 -0.324322 -0.041224 0.00758713 -0.0449488 0.0634928 0.0650693 -0.16713 -0.0671969 0.111137 -0.0870683 -0.0687114 0.00967561 0.209042 -0.0674242 0.0448979 -0.0890561 0.0665971 0.207171 -0.00587004 -0.120318 -0.0930022 -0.310719 0.103495 -0.0800918 0.184783 -0.146362 0.0452133 0.0751055 -0.0497481 0.0608784 0.0578633 -0.0536839 -0.0131061 -0.0598316 0.299157 0.147591 0.145509 0.161379 -0.0762513 -0.36768 -0.0697211 0.146858 0.127696 -0.0555018 -0.0823918 -0.0103982 0.0169761 -0.0152356 -0.0333092 -0.0367367 0.268969 -0.0615135 -0.167574 -0.175772 -0.307861 0.139378 0.0656189 0.0671087 -0.0943557 0.154746 -0.0533533 0.0998286 0.109711 0.0108427 0.241925 0.0314632 0.0859032 -0.104623 0.0726174 -0.0461456 0.129916 0.0536638 -0.0526668 0.0757655 0.115171 0.119648 0.294311 0.0414686 -0.137581 -0.229222 -0.0983749 -0.0579784 0.127757 0.195079 -0.164028 0.144127 -0.104123 -0.189889 0.0829934 -0.130935 0.0682315 0.147155 -0.195949 0.233001 0.104088 -0.110743 -0.199441 0.220211 -0.171533 -0.0759036 -0.0395734 0.0916168 0.096235 0.131974 -0.26767 0.206593 -0.0544412 0.0615084 -0.110755 0.123212 0.139649 -0.0105113 0.193321 -0.327752 -0.0638189 -0.0136536 -0.187045 -0.0227322 -0.126182 -0.0980556 -0.185688 -0.124974 0.175987 0.0858894 0.179343 0.0270472 -0.156105 0.160994 -0.0103791 0.214209 0.0903123 0.0125618 0.233491 0.091396 0.00421902 -0.172233 0.0181194 0.00191785 -0.0824451 -0.113175 -0.0487338 -0.237347 -0.00671646 0.102394 -0.00535142 -0.228334 0.198909 0.171353 -0.0693537 0.045434 0.0625379 -0.156711 0.0110954 -0.0151296 -0.0187789 0.35845 0.16628 -0.099762 -0.0567706 -0.310884 -0.0158961 0.0150667 -0.0100655 -0.0158343 -0.116345 -0.120501 0.193448 0.19584 0.0810961 -0.13699 0.113148 0.0426315 -0.201127 -0.0590407 -0.219947 -0.197618 -0.171697 -0.146639 0.144173 -0.0415718 0.179468 -0.329972 0.0435736 0.122421 0.100642 0.0179572 -0.050383 -0.027173 0.00578701 0.120723 0.0552075 0.0809684 -0.216604 -0.235965 0.20908 -0.0733688 0.155098 -0.114269 0.0857155 0.0465923 0.105978 0.0550261 -0.0268913 -0.134457 0.0742031 -0.0856884 -0.0550869 0.052417 -0.061204 0.0130712 0.0829849 0.104932 0.0318878 -0.00449984 -0.122347 -0.157474 -0.0703205 -0.00307425 -0.142171 -0.102657 0.218837 -0.0956311 -0.310945 0.0852022 0.156129 -0.0781891 0.202725 -0.0178891 -0.051603 -0.0490377 -0.0658735 0.267418 0.0851709 0.133381 0.01335 -0.106095 0.0713378 0.255607 0.177069 0.154204 0.26218 -0.113742 0.0349826 0.564293 -0.0987486 0.167361 -0.193231 -0.0659451 0.207887 0.0871871 0.0178201 0.0720253 -0.0943662 0.0654989 0.150793 0.0772066 0.0199076 -0.0425527 -0.0100847 -0.201482 0.00464467 0.0726509 -0.188646 0.0694789 -0.285635 -0.0791142 0.00293093 -0.0106779 -0.107687 0.0381524 -0.174072 0.308937 -0.227731 0.0371684 -0.167593 -0.0513789 -0.0602817 0.0808935 -0.198236 0.107944 -0.303802 0.130098 -0.102447 -0.0281564 -0.239125 -0.0361007 0.0552916 -0.219015 -0.0136839 0.202489 -0.0134428 -0.219354 0.0397899 -0.0889724 -0.0522911 0.0171861 -0.0371713 0.0883749 0.205266 0.0267122 -0.0358366 0.0834395 -0.39421 -0.140765 -0.0189485 0.042085 0.10328 -0.0700312 -0.13318 -0.0451713 -0.19439 0.394195 0.114939 0.111069 0.199717 0.37496 0.0885015 0.101205 0.105322 0.163375 -0.0844681 0.218766 -0.0923605 